%YAML:1.0
my_svm: !!opencv-ml-svm
   svm_type: C_SVC
   kernel: { type:RBF, gamma:0.0700000000000000 }
   C: 6.
   term_criteria: { epsilon:2.2204460492503131e-016, iterations:100 }
   var_all: 512
   var_count: 512
   class_count: 2
   class_labels: !!opencv-matrix
      rows: 1
      cols: 2
      dt: i
      data: [ 1, 2 ]
   class_weights: !!opencv-matrix
      rows: 2
      cols: 1
      dt: d
      data: [ 8.4077907859489024e-045, 8.4077907859489024e-045 ]
   sv_total: 200
   support_vectors:
      - [ 0.61419100, 0.53781599, 0.62099200, 0.56550503, 0.49992600,
          0.57646400, 0.50732201, 0.61440802, 0.59686500, 0.66584498,
          0.66579098, 0.65213603, 0.66255301, 0.64161003, 0.51007199,
          0.58995700, 0.58639401, 0.50661802, 0.57932198, 0.54839498,
          0.49998000, 0.58008099, 0.54548299, 0.61435401, 0.47487801,
          0.55783701, 0.59961498, 0.55103701, 0.56852603, 0.59292299,
          0.50990897, 0.65607798, 0.61062902, 0.55157900, 0.60026598,
          0.54510403, 0.50381303, 0.49366701, 0.48664999, 0.62450099,
          0.52669400, 0.66486901, 0.69963002, 0.63394302, 0.60296100,
          0.60668701, 0.48594499, 0.56253803, 0.61052001, 0.55859601,
          0.59324902, 0.50359702, 0.58736902, 0.52864403, 0.55266303,
          0.66266102, 0.53700298, 0.68559599, 0.69952202, 0.65116000,
          0.62379599, 0.67286199, 0.57970202, 0.59028202, 0.58283103,
          0.51341802, 0.50678003, 0.44481799, 0.52524400, 0.47332001,
          0.52848202, 0.64198899, 0.53338599, 0.65445203, 0.72024798,
          0.62341702, 0.58568901, 0.64182699, 0.55557501, 0.52443099,
          0.56210500, 0.53792399, 0.54170400, 0.52157301, 0.50440902,
          0.44908500, 0.51795602, 0.71782303, 0.72710299, 0.79926598,
          0.98650700, 0.70286798, 0.62017900, 0.64517301, 0.53835702,
          0.55546701, 0.56928402, 0.57284701, 0.49350399, 0.53555298,
          0.50462598, 0.48022899, 0.52831900, 0.74524200, 0.59793597,
          0.66572303, 0.75030798, 0.52550203, 0.44762200, 0.52486497,
          0.38253000, 0.46559799, 0.53463203, 0.57306403, 0.45199701,
          0.48352101, 0.47342801, 0.48017401, 0.53177398, 0.69353402,
          0.61077797, 0.50989598, 0.59970999, 0.67232001, 0.67437899,
          0.64717799, 0.41448700, 0.46257800, 0.41351101, 0.47968701,
          0.48675799, 0.51126403, 0.46975699, 0.50430101, 0.50057602,
          0.72478598, 0.78944403, 0.64132500, 0.71900201, 0.90182698,
          0.69559300, 0.69553900, 0.54640400, 0.77763200, 0.69774699,
          0.69423902, 0.65991199, 0.46241501, 0.44854301, 0.50122601,
          0.57668102, 0.69698900, 0.85578197, 0.85469902, 0.63323802,
          0.60258198, 0.53539097, 0.65030700, 0.25023401, 0.34701100,
          0.44794700, 0.43753001, 0.47185701, 0.50310898, 0.69510603,
          0.71199799, 0.73541999, 0.47476900, 0.63604200, 0.88007098,
          0.65720201, 0.64716399, 0.51978499, 0.74918401, 0.52728999,
          0.62692499, 0.62779200, 0.62077498, 0.61370403, 0.46149400,
          0.44751400, 0.47957799, 0.67620802, 0.35526100, 0.62654603,
          0.83046401, 0.55686200, 0.70928901, 0.54693198, 0.71728200,
          0.54472399, 0.59632301, 0.56550503, 0.55848801, 0.63113803,
          0.62746698, 0.57225102, 0.61057502, 0.99762899, 0.48437399,
          0.98564100, 0.95536399, 0.79597402, 0.78857797, 0.64727199,
          0.74529600, 0.60668701, 0.69391400, 0.54839498, 0.55524999,
          0.62093800, 0.59621501, 0.59610701, 0.70049697, 0.96017301,
          0.30295700, 0.68823701, 0.74377900, 0.57364601, 0.69870901,
          0.70286798, 0.74151599, 0.61392099, 0.60334098, 0.78027302,
          0.74907500, 0.74529600, 0.54445302, 0.34010199, 0.24699600,
          0.54774499, 0.35294399, 0.83737302, 0.94122100, 0.69147497,
          0.72985297, 0.70632201, 0.61667001, 0.57538003, 0.59276098,
          0.41259000, 0.41237399, 0.42986199, 0.49916700, 0.76716000,
          0.88283497, 0.97885400, 0.69666398, 0.58816898, 0.94791299,
          0.53608102, 0.64700103, 0.64117599, 0.49603799, 0.44395101,
          0.47909099, 0.42344099, 0.50359702, 0.50003397, 0.35845801,
          0.27587700, 0.19307999, 0.64026898, 0.54515803, 0.54217798, 1.,
          0.35947400, 0.79376602, 0.45955700, 0.35861999, 0.41783300,
          0.51876903, 0.51903999, 0.52940297, 0.47407901, 0.44282600,
          0.44298899, 0.40520701, 0.78869897, 0.48135301, 0.78863198,
          0.76029199, 0.15808900, 0.97335398, 0.48530900, 0.45049399,
          0.45416501, 0.39522400, 0.32279000, 0.32624400, 0.33655301,
          0.32273501, 0.32273501, 0.38162300, 0.74001300, 0.24860799,
          0.81545401, 0.48647401, 0.48616201, 0.80068803, 0.17063400,
          0.27459100, 0.27804500, 0.26428199, 0.29542500, 0.28495401,
          0.27804500, 0.27804500, 0.27815300, 0.38518500, 0.77461100,
          0.33518499, 0.84988999, 0.34900200, 0.77526098, 0.38502300,
          0.12907200, 0.25726399, 0.23664600, 0.24706399, 0.24673900,
          0.26768199, 0.27459100, 0.24684700, 0.26071900, 0.33342400,
          0.62952602, 0.36994499, 0.73956603, 0.44697201, 0.94879401,
          0.27782801, 0.23653799, 0.31275201, 0.25051799, 0.24355499,
          0.27086499, 0.26395601, 0.27442801, 0.26406500, 0.25715601,
          0.31928101, 0.61290503, 0.67966199, 0.53850597, 0.41830701,
          0.86183798, 0.40601999, 0.22595800, 0.29191700, 0.26417300,
          0.27464500, 0.29153699, 0.26730201, 0.28813699, 0.27086499,
          0.27432001, 0.28819099, 0.45038500, 0.79841202, 0.37582499,
          0.44491199, 0.84223598, 0.57533997, 0.44347700, 0.25003099,
          0.23286700, 0.25710201, 0.28457400, 0.27761099, 0.27777401,
          0.28117400, 0.26735699, 0.29159200, 0.34329900, 0.79873800,
          0.36972901, 0.64213800, 0.50860900, 0.22238199, 0.44720200,
          0.23637600, 0.27766600, 0.26746500, 0.27761099, 0.30200899,
          0.30190101, 0.31933501, 0.29844600, 0.30190101, 0.33995301,
          0.74735498, 0.45020899, 0.77443498, 0.50779599, 0.51023400,
          0.64469898, 0.24301299, 0.30902600, 0.29170001, 0.32618999,
          0.31571800, 0.28797501, 0.30179200, 0.29833800, 0.31560999,
          0.40202400, 0.85109502, 0.60663199, 0.65704000, 0.44928801,
          0.59174502, 0.51618201, 0.23950499, 0.31928101, 0.28128299,
          0.30870101, 0.30508399, 0.30513799, 0.32931900, 0.32240999,
          0.31884700, 0.29795799, 0.36267099, 0., 0.21773501, 0.52913201,
          0.54662102, 0.28397799, 0.28781199, 0.32602701, 0.32262701,
          0.27734101, 0.28781199, 0.28074101, 0.28084901, 0.28764901,
          0.29110399, 0.36008301, 0.59152800, 0.63627201, 0.62267202,
          0.62623501, 0.36715499, 0.34308201, 0.31884700, 0.27032301,
          0.28090301, 0.36397099, 0.38124299, 0.35706300, 0.37428001,
          0.38480601, 0.37773499, 0.37077200, 0.37411800, 0.36720899,
          0.36019200, 0.36030000, 0.33952001, 0.34999099, 0.35004500,
          0.35010001, 0.34659100, 0.30837601, 0.31539300, 0.30837601,
          0.29461199, 0.31533900, 0.31188399, 0.33606499, 0.34642899,
          0.36024600, 0.33941099, 0.33590299, 0.32910201, 0.33261099,
          0.31533900, 0.32581100, 0.31539300, 0.29795799, 0.30486700,
          0.31533900, 0.31528500, 0.32915699, 0.32219401, 0.31517601,
          0.30821300, 0.31166801, 0.31863099, 0.31517601, 0.31523100,
          0.32915699, 0.31533900, 0.32224801, 0.32230201, 0.35355401,
          0.33968201, 0.35004500, 0.33271900, 0.34999099, 0.33952001,
          0.35333699, 0.36024600, 0.35679200, 0.36030000, 0.35690001,
          0.34308201, 0.35350001, 0.32921100, 0.32921100, 0.33617401 ]
      - [ 0.19278599, 0.18609899, 0.18609899, 0.19344500, 0.20813701,
          0.20413400, 0.21680200, 0.43694699, 0.36946699, 0.58758700,
          0.56220597, 0.57553202, 0.60020697, 0.59950101, 0.35661200,
          0.55759102, 0.39296499, 0.40365401, 0.39296499, 0.38161600,
          0.36560601, 0.36960801, 0.35359800, 0.37290499, 0.06771500,
          0.14310600, 0.12441100, 0.15845700, 0.16246000, 0.16509700,
          0.08504400, 0.35613999, 0.28875500, 0.28941399, 0.29675999,
          0.30810899, 0.29741901, 0.28809601, 0.30810899, 0.39484799,
          0.39484799, 0.50160098, 0.46557701, 0.49896401, 0.50965399,
          0.52434599, 0.42493901, 0.42093599, 0.37205699, 0.34535700,
          0.34935999, 0.35270301, 0.33603299, 0.32868701, 0.34140101,
          0.27669999, 0.36489901, 0.32289499, 0.27754799, 0.28823701,
          0.24887000, 0.24887000, 0.25221300, 0.21948600, 0.46477699,
          0.44207999, 0.46477699, 0.46411800, 0.45210999, 0.43478099,
          0.43346199, 0.28136200, 0.35086599, 0.26619899, 0.21816701,
          0.22085100, 0.19749500, 0.19749500, 0.21350500, 0.20215701,
          0.48544899, 0.45474699, 0.47744399, 0.46477699, 0.42541000,
          0.42809400, 0.69429302, 0.75701600, 0.83316100, 0.73314202,
          0.43562800, 0.24284200, 0.20281599, 0.21016200, 0.21016200,
          0.21016200, 0.50277799, 0.47273499, 0.47541901, 0.48610899,
          0.44942501, 0.47146401, 0.81568998, 0.44292700, 0.31861001,
          0.54591298, 0.61301601, 0.28418699, 0.25150701, 0.21882600,
          0.20681900, 0.20281599, 0.50141299, 0.47805601, 0.46604800,
          0.48276499, 0.44674101, 0.44476399, 0.87836701, 0.57143497,
          0.19419800, 0.65831602, 0.62695402, 0.28211501, 0.23215300,
          0.21948600, 0.21482401, 0.21816701, 0.52674699, 0.52208501,
          0.49274799, 0.50277799, 0.45474699, 0.45408699, 0.81903398,
          0.55980402, 0.31710300, 0.68525100, 0.77966702, 0.50630999,
          0.36423999, 0.22749101, 0.21882600, 0.21816701, 0.51671702,
          0.51073700, 0.50475597, 0.50612199, 0.47410101, 0.43807700,
          0.63557202, 0.93850100, 0.99062902, 0.79417002, 0.38646600,
          0.32068199, 0.38825601, 0.24015801, 0.22348800, 0.23017500,
          0.53206801, 0.49604499, 0.51676399, 0.49077001, 0.47876200,
          0.44207999, 0.42343199, 0.42748201, 0.54821998, 0.45733699,
          0.47532499, 0.37196299, 0.44292700, 0.25282499, 0.22014500,
          0.21948600, 0.55476600, 0.50004703, 0.52411002, 0.47273499,
          0.47075701, 0.43073100, 0.42409101, 0.45347500, 0.44005501,
          0.45338100, 0.51139599, 0.33061799, 0.44956699, 0.32087001,
          0.24416099, 0.25150701, 0.54007399, 0.50739300, 0.56413603,
          0.51544499, 0.51478601, 0.46609500, 0.47480699, 0.49416101,
          0.43138999, 0.47673801, 0.52947801, 0.37135100, 0.38679600,
          0.32218900, 0.21878000, 0.23215300, 0.54741901, 0.48935801,
          0.51073700, 0.47805601, 0.46939200, 0.44405699, 0.47212300,
          0.45945600, 0.42140701, 0.41472000, 0.45408699, 0.34267300,
          0.34808800, 0.34752300, 0.24948201, 0.27151999, 0.52740598,
          0.48469600, 0.51808202, 0.50875902, 0.49274799, 0.44871899,
          0.42206600, 0.37271601, 0.38609001, 0.46816701, 0.43011901,
          0.35802400, 0.33075899, 0.29416999, 0.24547900, 0.21746100,
          0.31394801, 0.29727799, 0.31931600, 0.29930300, 0.26459801,
          0.25993600, 0.31602001, 0.62163299, 0.68506300, 0.93652302,
          0.64150500, 0.59356803, 0.50696898, 0.34488600, 0.32223600,
          0.27750099, 0.52698302, 0.49962300, 0.51031297, 0.50164801,
          0.49030000, 0.48097599, 0.51699901, 0.56564301, 0.27293301,
          0.40968201, 0.27020201, 0.44330400, 0.41354299, 0.28748301,
          0.27081400, 0.24477300, 0.31682101, 0.29412299, 0.30081001,
          0.30349401, 0.30283499, 0.28413999, 0.40356001, 0.73563802,
          0.70931500, 0.73639101, 0.64979303, 0.68487501, 0.46355301,
          0.31748000, 0.29143900, 0.31215900, 0.31277099, 0.31211099,
          0.31211099, 0.30745000, 0.32214200, 0.28743699, 0.51558697,
          0.62149203, 0.69448102, 0.43402699, 0.73997003, 0.70097899,
          0.42550400, 0.33678699, 0.31479600, 0.33080599, 0.36946699,
          0.36946699, 0.34545100, 0.33344299, 0.32944101, 0.32143500,
          0.59964198, 0.59201401, 0.79190999, 0.51290298, 0.83885902,
          0.58287799, 0.40148801, 0.34479201, 0.33344299, 0.32411900,
          0.34008300, 0.34342599, 0.34742901, 0.36546400, 0.37281001,
          0.35745901, 0.66231900, 0.52858400, 0.89470702, 0.61179101,
          0.93769997, 0.55820298, 0.41881701, 0.34610999, 0.35613999,
          0.33678699, 0.36278000, 0.36278000, 0.35411599, 0.35077199,
          0.33876401, 0.35011300, 0.63095701, 0.52255601, 0.84267300,
          0.65972900, 0.90558499, 0.68892401, 0.51087803, 0.37478799,
          0.36814901, 0.35213801, 0.32143500, 0.33278400, 0.34479201,
          0.34144801, 0.33876401, 0.34545100, 0.62097400, 0.61471099,
          0.79789001, 0.49552599, 0.67908299, 0.48394200, 0.51549298,
          0.43416801, 0.36946699, 0.34078899, 0.33349001, 0.31347701,
          0.31079301, 0.25207201, 0.20003800, 0.16867600, 0.43087199,
          0.57944000, 0.51167798, 0.38674900, 0.70069700, 0.39517799,
          0.36395699, 0.36075500, 0.32143500, 0.23271801, 0.17479700,
          0.06192300, 0.10665900, 0.22551300, 0.28428099, 0.26558700,
          0.38632500, 0.59224898, 0.47579601, 0.49453801, 1., 0.47490099,
          0.26196101, 0.21727200, 0.28216201, 0.28823701, 0.21760200,
          0.21228100, 0.21694300, 0.14221101, 0.09083600, 0.09954800,
          0.22428900, 0.54374599, 0.23912200, 0.19909599, 0.66321403,
          0.33301899, 0.22546600, 0.21746100, 0.23088101, 0.20559400,
          0.25301400, 0.26101899, 0.26101899, 0.26101899, 0.27571100,
          0.23634399, 0.30971000, 0.51982498, 0.25993600, 0.19255000,
          0.52514601, 0.28098500, 0.24628000, 0.28498799, 0.23026900,
          0.20427600, 0.01535100, 0.02269700, 0.01134900, 0., 0.03004300,
          0.01935400, 0.08678700, 0.18807700, 0.13062701, 0.13863300,
          0.26285601, 0.10143100, 0.08476200, 0.11278000, 0.09545100,
          0.12615401, 0.17748199, 0.19617601, 0.19617601, 0.18482800,
          0.18949001, 0.15346600, 0.21750800, 0.22951600, 0.28555301,
          0.24952900, 0.23417801, 0.17616300, 0.15680900, 0.15214700,
          0.12944999, 0.13613699, 0.17018300, 0.15817501, 0.17018300,
          0.16217799, 0.18285000, 0.17884700, 0.19485800, 0.18685199,
          0.19485800, 0.19886000, 0.19820100, 0.19820100, 0.18619300,
          0.19353899, 0.18153100, 0.17818800, 0.14484800, 0.14484800,
          0.16288400, 0.13750200, 0.13349999, 0.12281000, 0.13750200,
          0.12281000, 0.12281000, 0.11880800, 0.11880800, 0.10745900,
          0.11814800, 0.11814800, 0.12549400, 0.12549400, 0.13618401,
          0.12417600, 0.13618401, 0.13152200, 0.15153500, 0.14353000,
          0.15954000, 0.15153500, 0.15954000, 0.15954000, 0.16354300,
          0.15553799, 0.15954000, 0.14753200, 0.14753200, 0.14353000 ]
      - [ 0.24553400, 0.25422299, 0.25856701, 0.24329101, 0.24329101,
          0.25996700, 0.27160001, 0.24104699, 0.32261601, 0.46697500,
          0.43236399, 0.56803602, 0.58555502, 0.57252300, 0.60391802,
          0.55094498, 0.46753299, 0.47187701, 0.47622100, 0.46458900,
          0.45730099, 0.44931301, 0.45365700, 0.42380500, 0.43109301,
          0.33089000, 0.07821000, 0.10371800, 0.12263900, 0.11899500,
          0.13651399, 0.11689400, 0.33033201, 0.31940001, 0.31940001,
          0.30482399, 0.31940001, 0.30482399, 0.30048001, 0.27861601,
          0.35794100, 0.40307000, 0.49472699, 0.53551102, 0.54349899,
          0.55653203, 0.59507298, 0.59941697, 0.37224501, 0.38892201,
          0.41218701, 0.36635801, 0.38892201, 0.38233399, 0.39102301,
          0.36551499, 0.38219100, 0.26264000, 0.42380500, 0.31812900,
          0.30060899, 0.28238899, 0.28378901, 0.25323701, 0.46334600,
          0.46838999, 0.48436600, 0.43783799, 0.48436600, 0.46250299,
          0.48142299, 0.54477102, 0.52500802, 0.38513499, 0.47341999,
          0.30060899, 0.27874500, 0.26416901, 0.27944499, 0.27215701,
          0.46194500, 0.49754199, 0.50188601, 0.45900100, 0.44806901,
          0.52235001, 0.90342700, 0.78261697, 0.80070901, 0.50651598,
          0.52752298, 0.29122001, 0.27734399, 0.27370000, 0.27370000,
          0.27005601, 0.46853301, 0.48885399, 0.47582099, 0.47582099,
          0.46853301, 0.54631501, 0.67737001, 0.07771000, 0.32590199,
          0.63477099, 0.66669500, 0.31168401, 0.26431200, 0.26066801,
          0.26066801, 0.26066801, 0.49908501, 0.48605299, 0.49334100,
          0.48605299, 0.46713200, 0.53916901, 1., 0.32674599, 0.22669999,
          0.51873499, 0.67552698, 0.42534801, 0.30145201, 0.27594399,
          0.29052001, 0.26865599, 0.47582099, 0.50497299, 0.50132900,
          0.47596401, 0.49768499, 0.51660502, 0.81891501, 0.63071299,
          0.56120503, 0.68214297, 0.55893302, 0.48954001, 0.36634400,
          0.28981999, 0.32317299, 0.29122001, 0.49039701, 0.54057002,
          0.49852800, 0.47666401, 0.52753699, 0.47722101, 0.62732601,
          0.74014699, 0.83040398, 0.64303100, 0.36847299, 0.36047000,
          0.38610700, 0.28323200, 0.27594399, 0.25408000, 0.46853301,
          0.52389300, 0.46937600, 0.46068799, 0.50861698, 0.48885399,
          0.45241401, 0.46838999, 0.44751200, 0.48030800, 0.47960800,
          0.35711199, 0.47650701, 0.34588000, 0.29486400, 0.28393200,
          0.49039701, 0.55444598, 0.51450402, 0.49054000, 0.52389300,
          0.49614200, 0.46698999, 0.50847399, 0.46488899, 0.50637299,
          0.51660502, 0.29012001, 0.44974101, 0.33649099, 0.30943999,
          0.29122001, 0.49039701, 0.52319300, 0.48255199, 0.48689601,
          0.53048098, 0.51001799, 0.48521000, 0.48955399, 0.47203401,
          0.46698999, 0.50847399, 0.34099299, 0.43012100, 0.33369100,
          0.29710799, 0.27888799, 0.48969701, 0.51520503, 0.48689601,
          0.47091901, 0.49193999, 0.47876501, 0.44596899, 0.44806901,
          0.47777900, 0.45955899, 0.48661000, 0.32417300, 0.42872000,
          0.36928701, 0.32696000, 0.27019900, 0.50861698, 0.50791699,
          0.49628499, 0.47372001, 0.47876501, 0.45395699, 0.41751701,
          0.45381400, 0.44568300, 0.63951498, 0.52879500, 0.47582099,
          0.47889301, 0.34167901, 0.29710799, 0.27958801, 0.26306799,
          0.28997701, 0.30595300, 0.31758499, 0.33356199, 0.33860600,
          0.47917899, 0.59424400, 0.72346997, 0.87637597, 0.40688500,
          0.44555399, 0.48618099, 0.36059901, 0.35316801, 0.35092500,
          0.57923901, 0.60390401, 0.57699603, 0.53915501, 0.51729101,
          0.58064002, 0.71252400, 0.45494300, 0.44851199, 0.48258001,
          0.21446700, 0.65676302, 0.49711299, 0.35191101, 0.32710299,
          0.30089501, 0.31266999, 0.28800499, 0.28071699, 0.31995800,
          0.33228999, 0.46641800, 0.57266599, 0.47682101, 0.96343100,
          0.76471198, 0.41503099, 0.87357497, 0.50215799, 0.36662900,
          0.31561401, 0.31196901, 0.37616101, 0.37616101, 0.37616101,
          0.36887300, 0.36522901, 0.62100899, 0.53834099, 0.42932099,
          0.87864798, 0.67081100, 0.32168701, 0.84512299, 0.41274399,
          0.38050500, 0.37686101, 0.40082601, 0.38204899, 0.38204899,
          0.40026900, 0.38204899, 0.40755701, 0.67581201, 0.50232899,
          0.50374401, 0.93919498, 0.81459898, 0.44305301, 0.86838698,
          0.44624001, 0.38569301, 0.34925300, 0.32738900, 0.37336001,
          0.38793600, 0.37336001, 0.34799501, 0.39522400, 0.64455998,
          0.56707799, 0.58306903, 0.98193699, 0.87654698, 0.45089900,
          0.82550198, 0.44848400, 0.38359201, 0.39508101, 0.39508101,
          0.37266001, 0.39732501, 0.38359201, 0.35808399, 0.39452401,
          0.55486000, 0.57015097, 0.33317599, 0.65370601, 0.77900201,
          0.39946899, 0.88030499, 0.53663999, 0.39886799, 0.35878399,
          0.39283800, 0.34196499, 0.34560901, 0.41624501, 0.46361700,
          0.45268500, 0.52780902, 0.63657200, 0.48438099, 0.73456001,
          0.78376102, 0.15673500, 0.60897702, 0.43769500, 0.35359699,
          0.32080099, 0.32080099, 0.19451800, 0.17784201, 0.19816200,
          0.07763900, 0., 0.17728400, 0.38975099, 0.39017999, 0.51744801,
          0.65733498, 0.28636101, 0.65311998, 0.51813400, 0.28561801,
          0.21638200, 0.20545000, 0.34026399, 0.34460801, 0.38553500,
          0.41833100, 0.41468799, 0.37979099, 0.37180200, 0.48686701,
          0.56466299, 0.60924900, 0.37814701, 0.49179700, 0.55778998,
          0.33900699, 0.34839499, 0.36941600, 0.28406101, 0.29064900,
          0.27102801, 0.28560400, 0.30886799, 0.29289201, 0.29359201,
          0.34685200, 0.33509099, 0.37070200, 0.28731900, 0.31534201,
          0.44328201, 0.22674300, 0.20697901, 0.19240300, 0.13662900,
          0.15554900, 0.15190500, 0.14391699, 0.15120500, 0.14896099,
          0.18245700, 0.25898099, 0.35008201, 0.34476501, 0.24610600,
          0.25380799, 0.38792199, 0.26612699, 0.25953901, 0.24860699,
          0.21974000, 0.22338501, 0.20810799, 0.22408500, 0.22842900,
          0.20880900, 0.20950900, 0.20516400, 0.25912401, 0.31742799,
          0.34658000, 0.31014001, 0.25912401, 0.16872500, 0.15414800,
          0.14686000, 0.26262501, 0.27425799, 0.25533700, 0.26332599,
          0.27131400, 0.25603801, 0.26262501, 0.27061400, 0.26991299,
          0.27355701, 0.28154600, 0.27355701, 0.26991299, 0.27790201,
          0.28224599, 0.28224599, 0.19703300, 0.21595401, 0.19773300,
          0.20866600, 0.19773300, 0.20502099, 0.19773300, 0.19703300,
          0.19338900, 0.18974499, 0.19338900, 0.18974499, 0.18610100,
          0.18245700, 0.17516901, 0.17152500, 0.24720600, 0.25953901,
          0.24356200, 0.24790700, 0.23627400, 0.24860699, 0.24061900,
          0.22968601, 0.24131900, 0.23038700, 0.23403101, 0.23038700,
          0.23038700, 0.23837499, 0.23837499, 0.23837499, 0.20642200,
          0.20207800, 0.20277800, 0.21006601, 0.19549000, 0.20712200,
          0.20417801, 0.19324601, 0.20922300, 0.19464700, 0.20627899,
          0.19464700, 0.19100299, 0.19899100, 0.19534700, 0.18735901 ]
      - [ 0.17518499, 0.15721200, 0.17471801, 0.16449501, 0.18587600,
          0.16108800, 0.17859299, 0.16449501, 0.18200000, 0.17859299,
          0.19563000, 0.45366499, 0.18961699, 0.43943301, 0.42874300,
          0.45693901, 0.36059299, 0.34990299, 0.36012599, 0.34649599,
          0.34649599, 0.32945800, 0.33286601, 0.32264301, 0.32605100,
          0.30807799, 0.31489301, 0.37575999, 0.09808200, 0.17304701,
          0.14779200, 0.18373799, 0.22669899, 0.21941601, 0.20578600,
          0.19897100, 0.20284601, 0.21400400, 0.21787900, 0.22469400,
          0.21787900, 0.21106400, 0.21447200, 0.28943700, 0.41123801,
          0.52849603, 0.47691599, 0.49442101, 0.30333400, 0.31789899,
          0.31449199, 0.32952499, 0.34068301, 0.30567199, 0.30179700,
          0.31001499, 0.29932499, 0.28957000, 0.31482601, 0.18921600,
          0.26097399, 0.19950600, 0.14498600, 0.16295800, 0.40649399,
          0.39967901, 0.37582701, 0.36994699, 0.37722999, 0.34515899,
          0.38063699, 0.44878700, 0.40108201, 0.42540300, 0.40388900,
          0.24280100, 0.27660799, 0.24380299, 0.18246800, 0.19021800,
          0.36032599, 0.36760899, 0.36172900, 0.36901200, 0.38698500,
          0.37923399, 0.65864903, 0.60954100, 0.63178998, 0.52882999,
          0.50330698, 0.24186499, 0.26885799, 0.22923800, 0.17224599,
          0.16496301, 0.41237399, 0.40555900, 0.39192900, 0.40742999,
          0.40696201, 0.41190600, 0.69920498, 0.34722999, 0.48139200,
          0.58695799, 0.61388397, 0.26431501, 0.29705301, 0.26812300,
          0.19997300, 0.18881500, 0.37008101, 0.38805401, 0.36760899,
          0.38123900, 0.38464600, 0.40462300, 0.81131798, 0.27560601,
          0.18119900, 0.54366302, 0.57747000, 0.31883499, 0.30727601,
          0.24086300, 0.14745800, 0.14064300, 0.40509099, 0.41237399,
          0.38464600, 0.40896600, 0.38758600, 0.42413300, 0.71717799,
          0.34649599, 0.23331299, 0.68303603, 0.57820499, 0.33059400,
          0.36814299, 0.28562799, 0.21500599, 0.20772400, 0.38417900,
          0.39827600, 0.38123900, 0.42693901, 0.40074801, 0.39734101,
          0.65043098, 0.76134199, 0.81666303, 0.71684402, 0.37575999,
          0.24520600, 0.32879001, 0.25943699, 0.16542999, 0.16295800,
          0.39827600, 0.39827600, 0.36714101, 0.41624901, 0.39440101,
          0.35798699, 0.40168399, 0.35444599, 0.47745001, 0.36867800,
          0.46021199, 0.32732001, 0.35665101, 0.29939201, 0.18153299,
          0.20478401, 0.39486900, 0.40168399, 0.38464600, 0.43716201,
          0.43235099, 0.36820999, 0.42894399, 0.37195101, 0.40555900,
          0.35738599, 0.43328699, 0.28255501, 0.25068501, 0.33005899,
          0.20538500, 0.20338100, 0.39099300, 0.39874399, 0.38464600,
          0.39827600, 0.39299801, 0.36433500, 0.43235099, 0.41284099,
          0.39580399, 0.36466900, 0.44197199, 0.35538200, 0.25068501,
          0.34956899, 0.19810200, 0.17719001, 0.38123900, 0.37736300,
          0.39874399, 0.41918901, 0.43141600, 0.37843299, 0.39981300,
          0.35691899, 0.36513701, 0.32812199, 0.37041500, 0.32471400,
          0.21661000, 0.36366701, 0.22101900, 0.22583000, 0.41624901,
          0.41284099, 0.41965699, 0.39734101, 0.38665101, 0.36139500,
          0.37054899, 0.34081599, 0.36112800, 0.34455800, 0.44384301,
          0.31977001, 0.29545000, 0.31843400, 0.19963901, 0.20785700,
          0.17044200, 0.14859401, 0.15494099, 0.17972900, 0.21039601,
          0.21179900, 0.30814400, 0.41317600, 0.59657902, 0.70515102,
          0.71303499, 0.37469101, 0.46027899, 0.33159599, 0.23758900,
          0.24534000, 0.48480001, 0.49161500, 0.49161500, 0.49843001,
          0.46341899, 0.43522400, 0.55635703, 0.44431099, 0.31596199,
          0.29839000, 0.28442600, 0.17077599, 0.55475402, 0.29364601,
          0.24640900, 0.21620899, 0.20024100, 0.21093100, 0.20364800,
          0.21387000, 0.21727800, 0.22456101, 0.54239303, 0.40923399,
          0.54546702, 0.79621798, 0.60827202, 0.39039201, 0.73054099,
          0.29765499, 0.29458100, 0.25275600, 0.26745501, 0.27086201,
          0.25676501, 0.26017201, 0.25676501, 0.29130799, 0.61749202,
          0.29992601, 0.52448702, 0.90712899, 0.60686898, 0.22195500,
          0.71163201, 0.30600601, 0.30246499, 0.24453799, 0.28696501,
          0.30106199, 0.30106199, 0.30787700, 0.30447000, 0.43054700,
          0.70869201, 0.38912299, 0.33547100, 0.74737799, 0.56524402,
          0.33613899, 0.74243301, 0.37228599, 0.33560500, 0.30199799,
          0.28602901, 0.28943700, 0.26852399, 0.27533901, 0.26852399,
          0.39800900, 0.49408701, 0.33366701, 0.52201498, 1., 0.62350500,
          0.45620400, 0.63165599, 0.48627001, 0.29778799, 0.29037201,
          0.27874601, 0.29284400, 0.28215399, 0.30012700, 0.29625201,
          0.55181402, 0.59711403, 0.42553601, 0.58375102, 0.80269903,
          0.46896499, 0.46395400, 0.36359999, 0.66005200, 0.34936801,
          0.31716400, 0.28015000, 0.28696501, 0.26264399, 0.26651999,
          0.28402501, 0.52161402, 0.41725099, 0.20124300, 0.53731501,
          0.57192498, 0.64982998, 0.49154800, 0.10329400, 0.64314801,
          0.36299801, 0.31422400, 0.14184500, 0.15594301, 0.13843800,
          0.15594301, 0.27707601, 0.44123700, 0.22362500, 0.13623300,
          0.41718400, 0.28850099, 0.49094701, 0.40422300, 0.11652300,
          0.57312697, 0.29919201, 0.16817001, 0.19643199, 0.19596399,
          0.18868200, 0.24460500, 0.34589401, 0.32892400, 0.28596199,
          0.41117099, 0.47117001, 0.32451400, 0.46669301, 0.43963400,
          0.15701200, 0.47805199, 0.45987800, 0.27340099, 0.14070900,
          0.13342699, 0.18066400, 0.24493900, 0.31429100, 0.19897100,
          0.20284601, 0.25896999, 0.18433900, 0.16082001, 0.26986000,
          0.44638199, 0.08705800, 0.23518400, 0.36293200, 0.13356000,
          0.20498399, 0.21226700, 0.21955000, 0.11866100, 0.09273700,
          0.11953000, 0.27260000, 0.31522700, 0.29170799, 0.23424900,
          0.29852301, 0.44317499, 0.12474100, 0.19616500, 0.41437799,
          0.23765600, 0., 7.74999987e-003, 0.08659000, 0.14111000,
          0.21995001, 0.20445000, 0.17378201, 0.08812700, 0.07202500,
          0.03748200, 0.11324900, 0.19623201, 0.08451900, 0.12681200,
          0.18787999, 0.07048800, 0.18387100, 0.17318100, 0.17364900,
          0.15226801, 0.17318100, 0.17364900, 0.19409400, 0.16930600,
          0.18681100, 0.14204600, 0.18975100, 0.21066301, 0.22676501,
          0.23064101, 0.18928300, 0.16342600, 0.15119900, 0.14050899,
          0.15073200, 0.15119900, 0.15119900, 0.14391600, 0.15119900,
          0.15119900, 0.16142200, 0.15413900, 0.15754600, 0.16776900,
          0.16436200, 0.17799200, 0.16776900, 0.19643199, 0.12487500,
          0.12828200, 0.12828200, 0.13850500, 0.13169000, 0.14919500,
          0.13169000, 0.13509700, 0.12828200, 0.12828200, 0.12100000,
          0.11030900, 0.11371700, 0.11030900, 0.09280400, 0.08552100,
          0.12968500, 0.13309300, 0.12581000, 0.13603300, 0.11124500,
          0.14284800, 0.11124500, 0.13603300, 0.12581000, 0.13650000,
          0.13650000, 0.13650000, 0.15059800, 0.14331500, 0.14672300,
          0.15741301 ]
      - [ 0.20551699, 0.20161299, 0.19770800, 0.20242400, 0.19339800,
          0.19730200, 0.19258700, 0.18746500, 0.17372300, 0.18234400,
          0.18665400, 0.16941300, 0.28228801, 0.40662199, 0.52421302,
          0.58455402, 0.19299200, 0.20673400, 0.21616501, 0.21575999,
          0.20673400, 0.23731001, 0.25455099, 0.28512800, 0.31098801,
          0.31960899, 0.33253899, 0.30627301, 0.38035601, 0.12681900,
          0.02510000, 0.05527100, 0.40540501, 0.41012099, 0.42736199,
          0.41402599, 0.40028399, 0.40500000, 0.37873301, 0.35637200,
          0.33441499, 0.30774301, 0.32969901, 0.29481301, 0.41590199,
          0.20049700, 0.20937100, 0.20075101, 0.28051299, 0.24912500,
          0.23578900, 0.21773700, 0.20952301, 0.22285900, 0.23619500,
          0.24522100, 0.26677099, 0.26286700, 0.28522900, 0.22798000,
          0.32792500, 0.34410000, 0.59317499, 0.54535800, 0.36656401,
          0.36184800, 0.39242399, 0.41047600, 0.40657201, 0.41169301,
          0.41640899, 0.38111699, 0.39876300, 0.39054799, 0.40860000,
          0.39607501, 0.38005200, 0.20414799, 0.33253899, 0.16053900,
          0.47081801, 0.45707601, 0.45276600, 0.46219799, 0.43202701,
          0.41559801, 0.59702897, 0.52253902, 0.61386400, 0.55311602,
          0.42812201, 0.39916801, 0.37371299, 0.17194900, 0.34937400,
          0.16875400, 0.47081801, 0.46138600, 0.44764501, 0.47431701,
          0.44926700, 0.67811000, 0.76593500, 0.58120799, 0.54444498,
          0.65372002, 0.50017703, 0.40616599, 0.39916801, 0.18487900,
          0.39328599, 0.19111601, 0.45707601, 0.45667100, 0.43861899,
          0.43861899, 0.41706800, 0.59621698, 0.69580603, 0.58546698,
          0.71289498, 0.90152699, 0.53856301, 0.43593100, 0.42974499,
          0.18959500, 0.39840800, 0.15191901, 0.46098101, 0.46529099,
          0.47822100, 0.48253101, 0.45667100, 0.72470999, 0.77085298, 0.,
          0.26509801, 0.82435000, 0.62785900, 0.49155700, 0.44617400,
          0.20683500, 0.43370000, 0.18680599, 0.46569601, 0.45626500,
          0.45667100, 0.46098101, 0.43943000, 0.60752499, 0.89818001,
          0.37290201, 0.67547297, 0.80508101, 0.43253401, 0.45935801,
          0.43714800, 0.17975800, 0.37523499, 0.16915999, 0.45707601,
          0.46569601, 0.46057501, 0.49155700, 0.47472200, 0.54839998,
          0.79635900, 0.80513197, 0.95314699, 0.70381802, 0.47644600,
          0.47659901, 0.46300900, 0.21033400, 0.37523499, 0.17737401,
          0.46650800, 0.47000700, 0.42568800, 0.45195499, 0.42137799,
          0.51822901, 0.36412999, 0.44602200, 0.40763700, 0.49896100,
          0.45935801, 0.43309200, 0.44576901, 0.24172200, 0.41052699,
          0.20795099, 0.43983600, 0.48374799, 0.46960101, 0.49115199,
          0.45667100, 0.52213401, 0.43268600, 0.49505600, 0.48684099,
          0.51432502, 0.47000700, 0.42649999, 0.45479399, 0.21505000,
          0.38385499, 0.16834800, 0.45357701, 0.45276600, 0.42137799,
          0.43861899, 0.45667100, 0.51782399, 0.44292900, 0.43309200,
          0.42731100, 0.46382001, 0.41047600, 0.39242399, 0.40266699,
          0.20521300, 0.41443101, 0.21616501, 0.43202701, 0.45748201,
          0.47000700, 0.49586701, 0.49586701, 0.48212600, 0.39942199,
          0.42690501, 0.38583201, 0.43446100, 0.44267499, 0.43755400,
          0.42812201, 0.24481501, 0.41793001, 0.21063800, 0.20049700,
          0.19968601, 0.15455601, 0.16277100, 0.17139100, 0.17529500,
          0.29207399, 0.52740699, 0.62572902, 0.78560901, 0.56766897,
          0.47391099, 0.30272299, 0.15430200, 0.31286499, 0.21373200,
          0.53080499, 0.57000202, 0.55585402, 0.58602500, 0.59464502,
          0.61619598, 0.68906301, 0.52294499, 0.50149602, 0.55037802,
          0.27153799, 0.62988698, 0.60595298, 0.41159201, 0.35124999,
          0.26073700, 0.21170300, 0.22463401, 0.20227200, 0.21520200,
          0.21520200, 0.32295501, 0.56188798, 0.43131700, 0.65098101,
          0.74119002, 0.26854599, 0.74813598, 0.46706599, 0.28416401,
          0.28066501, 0.29871699, 0.29628301, 0.30059299, 0.29628301,
          0.30059299, 0.30059299, 0.50316900, 0.59687698, 0.48542199,
          0.85299999, 0.98270899, 0.35809600, 0.71740800, 0.55676699,
          0.36915001, 0.30449799, 0.30059299, 0.31661701, 0.32564300,
          0.33466899, 0.33466899, 0.36052901, 0.69671899, 0.62836599,
          0.40215999, 0.62116599, 0.79534501, 0.42573899, 0.67968202,
          0.64956099, 0.38867199, 0.33304599, 0.33816701, 0.32914200,
          0.32483101, 0.32052100, 0.31621099, 0.33776200, 0.63703698,
          0.38669500, 0.36443400, 0.92779303, 1., 0.57796299, 0.55331898,
          0.68982297, 0.52537900, 0.36281100, 0.33695099, 0.31621099,
          0.31190100, 0.32052100, 0.31621099, 0.44551501, 0.79260701,
          0.61219001, 0.49485299, 0.86922598, 0.70478201, 0.52842200,
          0.45484501, 0.53151500, 0.70990300, 0.49642500, 0.38045701,
          0.28335300, 0.25668100, 0.27863699, 0.27863699, 0.45966199,
          0.57492000, 0.38319600, 0.52477098, 0.73104799, 0.62101299,
          0.62841600, 0.48288599, 0.11566400, 0.44627601, 0.46975300,
          0.25034201, 0.15688901, 0.14826800, 0.15770000, 0.16079301,
          0.42721000, 0.36600599, 0.07636500, 0.26078799, 0.15683800,
          0.18340901, 0.36255801, 0.57076198, 0.16931200, 0.38780999,
          0.59261698, 0.23675300, 0.15516400, 0.18695800, 0.20891400,
          0.31666800, 0.51990300, 0.31321901, 0.28289700, 0.73109901,
          0.46549401, 0.34009400, 0.31854400, 0.55413002, 0.30581599,
          0.13554101, 0.52406102, 0.46239999, 0.28071600, 0.27640599,
          0.25014001, 0.39668399, 0.36108699, 0.21570900, 0.31002501,
          0.50671899, 0.23989700, 0.21834600, 0.16231400, 0.38213101,
          0.51493299, 0.13462800, 0.16211100, 0.28406301, 0.01358900,
          0.01790000, 0.01790000, 0.12565300, 0.01597300, 0.03321300,
          0.20901600, 0.19973600, 0.08807900, 0.11084600, 0.11515600,
          0.15126000, 0.33147401, 0.04345600, 0.09989400, 0.35343000,
          0.13817801, 0.13817801, 0.13386700, 0.24593100, 0.24593100,
          0.27610201, 0.23731001, 0.15541799, 0.10369700, 0.09938600,
          0.06921600, 0.06450000, 0.19461501, 0.19892500, 0.19461501,
          0.18127900, 0.18761700, 0.19664299, 0.17940301, 0.18802300,
          0.17940301, 0.18371300, 0.18371300, 0.18371300, 0.17468700,
          0.17899700, 0.19233300, 0.18371300, 0.18802300, 0.17940301,
          0.18371300, 0.19273899, 0.09279500, 0.11515600, 0.10653600,
          0.12458800, 0.10653600, 0.11515600, 0.11987200, 0.13711300,
          0.12377700, 0.12377700, 0.11946700, 0.11946700, 0.11084600,
          0.11515600, 0.10653600, 0.10653600, 0.14695001, 0.15597600,
          0.12971000, 0.13833000, 0.13873500, 0.14304601, 0.11596800,
          0.12499400, 0.12499400, 0.12499400, 0.12499400, 0.12971000,
          0.12068300, 0.12971000, 0.12971000, 0.12971000, 0.09953900,
          0.10384900, 0.09953900, 0.09953900, 0.09953900, 0.10815900,
          0.10384900, 0.11677900, 0.11246900, 0.10815900, 0.11287500,
          0.11287500, 0.10425400, 0.10856500, 0.10425400, 0.10425400 ]
      - [ 0.44017899, 0.39460900, 0.35119000, 0.27527800, 0.27159801,
          0.27210799, 0.26740900, 0.26271099, 0.26220199, 0.25699401,
          0.23921899, 0.25178701, 0.26486301, 0.23921899, 0.36172000,
          0.43383801, 0.47556400, 0.31688899, 0.42557499, 0.28467500,
          0.29407099, 0.30663800, 0.30244899, 0.31450701, 0.34015101,
          0.38306001, 0.39930701, 0.40768501, 0.41136500, 0.39041901,
          0.47103000, 0.15629300, 0., 0.07426900, 0.46480399, 0.49933499,
          0.49044701, 0.48625800, 0.46429399, 0.46061501, 0.44753799,
          0.41719601, 0.39523301, 0.37326899, 0.39472300, 0.36121100,
          0.49577001, 0.25314999, 0.65851903, 0.59466398, 0.39127401,
          0.30545601, 0.29237899, 0.30126601, 0.28450999, 0.30177599,
          0.31955001, 0.31485200, 0.34468499, 0.33211800, 0.35408100,
          0.30228499, 0.42212501, 0.47176901, 0.30765700, 0.49933499,
          0.24426299, 0.44012901, 0.47047099, 0.47935900, 0.46730101,
          0.48088700, 0.47250801, 0.45524299, 0.48558500, 0.46045101,
          0.47822499, 0.44522199, 0.41691700, 0.43621999, 0.25167099,
          0.49361801, 0.27358600, 0.53800499, 0.55057198, 0.49141699,
          0.73070198, 0.67828101, 0.76523298, 0.66367698, 0.54689300,
          0.47986799, 0.48507500, 0.46565801, 0.42008799, 0.43469200,
          0.26106799, 0.50250500, 0.25683001, 0.51553202, 0.51083398,
          0.81663501, 0.87618500, 0.59530503, 0.52918398, 0.67952901,
          0.60820103, 0.51972097, 0.48405701, 0.49396300, 0.43265501,
          0.45982599, 0.29242900, 0.54224402, 0.25632101, 0.52390999,
          0.51870298, 0.61086202, 0.62027502, 0.58461100, 0.87812299,
          0.93580103, 0.57950199, 0.52758998, 0.50245601, 0.51122802,
          0.44890201, 0.46401501, 0.23276301, 0.50873101, 0.23067699,
          0.52390999, 0.54955399, 0.85484499, 0.70031101, 0.03982100,
          0.29755399, 0.85343301, 0.69260597, 0.55436701, 0.49039799,
          0.48824599, 0.44001400, 0.48077101, 0.25053799, 0.52967697,
          0.25314999, 0.52390999, 0.53647798, 0.65796000, 0.99257499,
          0.75691998, 0.84998298, 0.79133600, 0.52883899, 0.58572799,
          0.58040500, 0.50970101, 0.44369400, 0.46299699, 0.23797099,
          0.51812798, 0.21443000, 0.49826699, 0.52390999, 0.53228801,
          0.68360400, 0.78340203, 0.77525300, 0.63713002, 0.55969000,
          0.53342199, 0.54536498, 0.50970101, 0.46045101, 0.48445100,
          0.25472701, 0.55214900, 0.24058300, 0.54638398, 0.52390999,
          0.51921201, 0.45739499, 0.55057198, 0.48201999, 0.58725500,
          0.57367003, 0.52974200, 0.51083398, 0.47834000, 0.44737399,
          0.49333900, 0.21498901, 0.52180803, 0.22382700, 0.52073997,
          0.51502299, 0.53698701, 0.53279799, 0.54219401, 0.49877599,
          0.52023101, 0.53279799, 0.52442002, 0.51972097, 0.50030398,
          0.46882799, 0.48394200, 0.25268999, 0.53856403, 0.23690300,
          0.49509600, 0.49458700, 0.51083398, 0.48201999, 0.50347400,
          0.48773700, 0.49192601, 0.50449300, 0.51287103, 0.52124900,
          0.50919098, 0.47250801, 0.48762199, 0.26005000, 0.52967697,
          0.27143401, 0.50919098, 0.55057198, 0.52911800, 0.46526399,
          0.49345401, 0.45677099, 0.51071900, 0.49396300, 0.52594799,
          0.48354799, 0.45320600, 0.42122099, 0.47505501, 0.26690000,
          0.41923299, 0.17191499, 0.27041501, 0.26101899, 0.26317099,
          0.44584599, 0.74671900, 0.87137198, 0.93686903, 0.58572799,
          0.59348202, 0.36359301, 0.33845901, 0.29656801, 0.35091099,
          0.34496400, 0.48524001, 0.47686201, 0.60304201, 0.61928898,
          0.66536897, 0.71309102, 0.46753100, 0.35335901, 0.33609301,
          0.34588400, 0.74773699, 0.56075799, 0.56330401, 0.53030097,
          0.52611202, 0.31156701, 0.32045400, 0.29532000, 0.31309399,
          0.30001801, 0.45082399, 0.61176598, 0.65360701, 0.91559500,
          0.60912102, 0.61234099, 0.70126301, 0.37021399, 0.34558800,
          0.31677401, 0.32566199, 0.40270701, 0.40740600, 0.38646001,
          0.38227099, 0.37440199, 0.59642202, 0.60576999, 0.60826701,
          0.93880701, 0.47150600, 0.76557797, 0.68869603, 0.44408801,
          0.42936900, 0.40791500, 0.39115900, 0.39280099, 0.39699101,
          0.38912201, 0.40689600, 0.41159499, 0.77185303, 0.60905498,
          0.63731098, 0.95822501, 0.58755100, 0.83984703, 0.69339401,
          0.45461899, 0.39597201, 0.39331099, 0.40219799, 0.40066999,
          0.41006699, 0.40536800, 0.39750001, 0.38074401, 0.71167803,
          0.46532899, 0.52318799, 1., 0.79943502, 0.88236201, 0.84278798,
          0.65048599, 0.50488698, 0.42580500, 0.40955800, 0.39381999,
          0.37236500, 0.38125300, 0.35510001, 0.36817601, 0.83100897,
          0.70959198, 0.57753003, 0.99190098, 0.58681202, 0.32426500,
          0.41087201, 0.54916000, 0.56670499, 0.44674999, 0.44776800,
          0.34139901, 0.34926799, 0.36806101, 0.34609801, 0.31207600,
          0.65557802, 0.46090999, 0.18500800, 0.97593403, 0.84646702,
          0.61907601, 0.46063101, 0.50483799, 0.56149697, 0.42897499,
          0.35510001, 0.18210000, 0.17423201, 0.14236200, 0.18311900,
          0.23542500, 0.62398797, 0.41205499, 0.22491100, 0.70811403,
          0.39138901, 0.40599301, 0.43226099, 0.43186599, 0.31457299,
          0.40066999, 0.48524001, 0.30272901, 0.34144899, 0.29955801,
          0.28597301, 0.27340499, 0.60434002, 0.33121401, 0.23548999,
          0.72820503, 0.46825400, 0.47142401, 0.44793299, 0.44652000,
          0.16416100, 0.24301399, 0.34535801, 0.27810401, 0.29587799,
          0.30006701, 0.31314400, 0.32990000, 0.62211502, 0.29747200,
          0.23854600, 0.58084899, 0.43779701, 0.39222601, 0.42941901,
          0.53782499, 0.37049299, 0.38572100, 0.42064601, 0.08043000,
          0.08411000, 0.07992000, 0.08411000, 0.07941100, 0.20406400,
          0.09232300, 0.12153200, 0.27895799, 0.08677100, 0.05744700,
          0.06633500, 0.14694500, 0.20762900, 0.22438499, 0.18781701,
          0.29610801, 0.26157701, 0.23910400, 0.22653700, 0.25268999,
          0.34903800, 0.33279100, 0.36160499, 0.31501600, 0.26525700,
          0.26995501, 0.25738800, 0.22755601, 0.23695201, 0.22806500,
          0.21917801, 0.19404300, 0.20661099, 0.24634901, 0.25053799,
          0.23797099, 0.22540399, 0.22540399, 0.21702600, 0.22540399,
          0.21283700, 0.23848000, 0.22540399, 0.22959299, 0.24685800,
          0.24685800, 0.25993499, 0.22642200, 0.20077901, 0.20077901,
          0.20179699, 0.20598599, 0.21906300, 0.22325200, 0.23163000,
          0.24102600, 0.23163000, 0.23213901, 0.19709900, 0.19291000,
          0.17615400, 0.16777501, 0.15469900, 0.25778300, 0.25359300,
          0.24521500, 0.23683700, 0.22427000, 0.20700499, 0.19811700,
          0.18555000, 0.18504100, 0.19024900, 0.19760799, 0.19811700,
          0.24153601, 0.22477899, 0.23785600, 0.22528900, 0.17564400,
          0.17145500, 0.17615400, 0.17666300, 0.18973900, 0.17666300,
          0.19392800, 0.19811700, 0.18973900, 0.20230600, 0.19392800,
          0.17666300, 0.18555000, 0.15203799, 0.17870000, 0.16194400 ]
      - [ 0.23746200, 0.22369000, 0.20532800, 0.21157500, 0.21240300,
          0.18027000, 0.17108899, 0.14437400, 0.18275400, 0.15562500,
          0.15562500, 0.16981100, 0.16981100, 0.17398700, 0.18316799,
          0.19735400, 0.28919899, 0.28919899, 0.24453600, 0.25371701,
          0.26831701, 0.26831701, 0.32005399, 0.29251099, 0.31211501,
          0.26037800, 0.25620201, 0.26120600, 0.23283499, 0.21865000,
          0.20905501, 0.19486900, 0.62140399, 0.68939698, 0.68939698,
          0.62637299, 0.40437400, 0.25499499, 0.10892900, 0.06261000,
          0.07638100, 0.05342900, 0.07220500, 0.08639100, 0.08639100,
          0.10975700, 0.12853301, 0.12352800, 0.19170099, 0.13036899,
          0.03897400, 0.04063000, 0.13364500, 0.46988299, 0.48406801,
          0.49324900, 0.51202500, 0.51661599, 0.50284398, 0.49366301,
          0.47071099, 0.45694000, 0.44775900, 0.44316801, 0.27098101,
          0.30518401, 0.31184500, 0.36900100, 0.31222299, 0.40233999,
          0.30010799, 0.28133199, 0.25337499, 0.23042300, 0.21164700,
          0.22624700, 0.23625501, 0.25503099, 0.24126001, 0.25085500,
          0.65143102, 0.62889302, 0.57463503, 0.66057599, 0.46450001,
          0.32727301, 0.35440099, 0.38694799, 0.40572399, 0.42532799,
          0.46329400, 0.42615700, 0.39778599, 0.40361801, 0.38525599,
          0.38066599, 0.22745299, 0.22327600, 0.16442800, 0.35929799,
          0.32054001, 0.35146701, 0.50212401, 0.75919002, 0.58975703,
          0.73164701, 0.59058499, 0.46081001, 0.46622801, 0.47623801,
          0.44910899, 0.43992800, 0.23204300, 0.24705701, 0.18320400,
          0.38266400, 0.32554400, 0.33686700, 0.91526502, 0.76378000,
          0.60288000, 0.58982903, 0.74000001, 0.49670500, 0.52048600,
          0.47040501, 0.47123301, 0.50502199, 0.28878501, 0.28961301,
          0.21658000, 0.42646199, 0.35850599, 0.31809199, 0.76336598,
          0.47279900, 0.58786702, 0.95047700, 0.83767802, 0.48421201,
          0.56180000, 0.53425699, 0.46999100, 0.47999999, 0.19072901,
          0.21533699, 0.15231299, 0.37054899, 0.33137700, 0.30432001,
          0.94239402, 0.37170100, 0.01096300, 0.53571600, 0.85186303,
          0.62192601, 0.53094500, 0.48210600, 0.45456299, 0.49335700,
          0.25623700, 0.27625600, 0.19445500, 0.38973901, 0.35474300,
          0.31391501, 0.77755201, 1., 0.70172799, 0.90450001, 0.59404099,
          0.54264599, 0.58226800, 0.56097198, 0.51589501, 0.50212401,
          0.20032400, 0.24412200, 0.15731800, 0.35719100, 0.32720000,
          0.30014399, 0.51089102, 0.68532801, 0.78252000, 0.82221401,
          0.58813697, 0.57854199, 0.54972100, 0.53760600, 0.52048600,
          0.50712800, 0.23787600, 0.26707500, 0.18027000, 0.37596700,
          0.36016199, 0.31474301, 0.47834399, 0.43243900, 0.49629200,
          0.47292501, 0.56514800, 0.54513001, 0.52176398, 0.50005400,
          0.48752499, 0.49794799, 0.25623700, 0.25706500, 0.17944200,
          0.35218701, 0.36975700, 0.31474301, 0.48793900, 0.51047701,
          0.52007198, 0.52466202, 0.53843403, 0.52383399, 0.50505799,
          0.52883899, 0.49711999, 0.52090001, 0.25499499, 0.25582299,
          0.20197999, 0.34217799, 0.37893799, 0.28678599, 0.46457201,
          0.47375301, 0.47875801, 0.46999100, 0.45998201, 0.48793900,
          0.51130497, 0.54885697, 0.48752499, 0.49711999, 0.27670601,
          0.28295201, 0.24288000, 0.33216900, 0.39730000, 0.30597699,
          0.45621899, 0.44662401, 0.45245701, 0.55009902, 0.53632700,
          0.57180899, 0.50629997, 0.48334801, 0.45080101, 0.47875801,
          0.29006299, 0.29047701, 0.23704800, 0.30838901, 0.27877599,
          0.11818200, 0.16201600, 0.49960399, 0.71825403, 0.95153898,
          0.72250199, 0.57225901, 0.47917199, 0.27801999, 0.27342901,
          0.23211500, 0.32178199, 0.31801999, 0.27629101, 0.36264601,
          0.47447300, 0.54916298, 0.63054901, 0.79998201, 0.45004499,
          0.31202501, 0.24316800, 0.55351901, 0.65812802, 0.54336601,
          0.60718203, 0.59800202, 0.32595801, 0.33054900, 0.29423901,
          0.28505799, 0.22997300, 0.22997300, 0.35391501, 0.71784002,
          0.76972097, 0.69306898, 0.64377999, 0.84558100, 0.50291598,
          0.28923500, 0.30383399, 0.25793001, 0.37144899, 0.36226800,
          0.37144899, 0.35267299, 0.34307799, 0.35267299, 0.52252001,
          0.55600399, 0.68840700, 0.44104400, 0.55656201, 0.85931599,
          0.43906400, 0.36102599, 0.29675901, 0.29717401, 0.35143101,
          0.35143101, 0.36561701, 0.35101700, 0.35101700, 0.37479699,
          0.65022498, 0.64657003, 0.91458100, 0.62545401, 0.91868597,
          0.79463500, 0.41821799, 0.43571499, 0.43112499, 0.43112499,
          0.36437401, 0.36979300, 0.37897399, 0.34601200, 0.35060301,
          0.37438300, 0.53964001, 0.55811000, 0.68840700, 0.44435599,
          0.93159300, 0.70410401, 0.43740800, 0.39609301, 0.33182701,
          0.32723600, 0.33265501, 0.33766001, 0.35685000, 0.34266400,
          0.33807400, 0.34725499, 0.47537300, 0.63773102, 0.65665197,
          0.32790300, 0.70838898, 0.62941498, 0.47206101, 0.43323100,
          0.40151200, 0.40109801, 0.27087301, 0.25710100, 0.28046799,
          0.28505799, 0.30801100, 0.29924399, 0.31677699, 0.57843399,
          0.74959499, 0.48179999, 0.63870400, 0.65989202, 0.49083701,
          0.41528299, 0.30428401, 0.24585000, 0.20280799, 0.17944200,
          0.17526500, 0.14230400, 0.09474300, 0.08932500, 0.14813700,
          0.38725501, 0.48372599, 0.23681401, 0.51344699, 0.45332101,
          0.18331200, 0.26379800, 0.30338401, 0.29796600, 0.23614700,
          0.23697500, 0.26534599, 0.26576099, 0.28412199, 0.24739900,
          0.23780400, 0.39594901, 0.47157499, 0.16329400, 0.47081900,
          0.41611099, 0.25875801, 0.29292500, 0.21906400, 0.17940600,
          0.20819101, 0.21319500, 0.22361800, 0.22361800, 0.22444600,
          0.24280800, 0.21108900, 0.43184501, 0.44523799, 0.22876699,
          0.45031500, 0.55164701, 0.46273601, 0.42183599, 0.31584200,
          0.28747100, 0.07468900, 0.03713800, 0.03213300, 0.04255600,
          0.03296100, 0.02837100, 0., 0.08887500, 0.09643600, 0.06806500,
          0.18531001, 0.14189000, 0.03672400, 9.18100029e-003,
          0.03337500, 0.05215100, 0.19110700, 0.18068400, 0.22700299,
          0.24118800, 0.22658800, 0.20781299, 0.18027000, 0.27290699,
          0.26372600, 0.29085499, 0.26790300, 0.22658800, 0.21323100,
          0.19069301, 0.19027901, 0.17692199, 0.21153900, 0.17816401,
          0.15396900, 0.10099000, 0.13477901, 0.16315000, 0.16815500,
          0.16815500, 0.16356400, 0.16356400, 0.17775001, 0.18275400,
          0.18775900, 0.16397800, 0.17398700, 0.16439199, 0.12808301,
          0.14185400, 0.18316799, 0.18817300, 0.20653500, 0.18358199,
          0.17440100, 0.16981100, 0.16981100, 0.16522001, 0.16063000,
          0.15144899, 0.15604000, 0.14226800, 0.16104400, 0.15186299,
          0.15186299, 0.15186299, 0.14727300, 0.14727300, 0.14268200,
          0.14268200, 0.14268200, 0.14268200, 0.14268200, 0.14268200,
          0.14268200, 0.14268200, 0.14268200, 0.13809200, 0.13350099,
          0.13850600 ]
      - [ 0.21133700, 0.22777000, 0.19286300, 0.19308500, 0.17438900,
          0.19037700, 0.19712900, 0.19397600, 0.21671601, 0.21063200,
          0.20432501, 0.21716100, 0.20117199, 0.22684300, 0.22031400,
          0.21018700, 0.35211599, 0.38093999, 0.39715099, 0.43880999,
          0.43250400, 0.37956700, 0.26471800, 0.16021800, 0.11021200,
          0.09444700, 0.07845800, 0.08161100, 0.06269200, 0.07530500,
          0.05909400, 0.07192900, 0.37155500, 0.34295401, 0.29161301,
          0.23711801, 0.17654000, 0.12698001, 0.23930700, 0.28768000,
          0.28475001, 0.28475001, 0.29127899, 0.30411401, 0.29758501,
          0.31379601, 0.31042001, 0.31357300, 0., 0.02882400, 0.06462100,
          0.07430400, 0.07159500, 0.13284101, 0.24943399, 0.31991699,
          0.28523201, 0.28523201, 0.27239701, 0.25978401, 0.25978401,
          0.24717100, 0.25685400, 0.24064200, 0.59646899, 0.60028899,
          0.57168800, 0.54353201, 0.54193699, 0.56174701, 0.29877201,
          0.27221099, 0.24969400, 0.24294201, 0.23033001, 0.25307000,
          0.27918500, 0.22109300, 0.24676301, 0.25058401, 0.17216299,
          0.17869200, 0.15346700, 0.14467500, 0.13295200, 0.33902100,
          0.13009600, 0.35960999, 0.36906901, 0.41974199, 0.37537599,
          0.37289000, 0.38572499, 0.33460701, 0.37648800, 0.37040499,
          0.20977899, 0.22283600, 0.19783400, 0.17936000, 0.14827301,
          0.35749501, 0.19946600, 0.52357501, 0.49545601, 0.55399299,
          0.51007199, 0.38461301, 0.38190499, 0.33100900, 0.35983199,
          0.33776000, 0.22554401, 0.24895200, 0.23633900, 0.19219500,
          0.19983700, 0.40928099, 0.42693901, 0.64951599, 0.45075500,
          0.46425799, 0.52405697, 0.40286401, 0.40375400, 0.37470800,
          0.39114201, 0.38798800, 0.19738799, 0.19423500, 0.19827899,
          0.16044100, 0.17145801, 0.37077600, 0.30667400, 0.38324001,
          0.04729800, 0.59131199, 0.59658003, 0.44678599, 0.41210100,
          0.36164999, 0.36773399, 0.35894200, 0.23274100, 0.21719800,
          0.21426700, 0.16381600, 0.16492900, 0.37730500, 0.40442199,
          0.43357900, 0.09708000, 0.60833901, 0.56393498, 0.46459201,
          0.42742100, 0.39251399, 0.40646201, 0.39069599, 0.21382201,
          0.19805600, 0.21449000, 0.18993200, 0.16515200, 0.38045800,
          0.26590499, 0.69362301, 0.64899701, 0.70334202, 0.37003401,
          0.39095601, 0.41076499, 0.37652600, 0.40308601, 0.38798800,
          0.21066900, 0.19152699, 0.19557101, 0.17372100, 0.15253900,
          0.38720900, 0.15869699, 0.30915901, 0.44878900, 0.42245099,
          0.44971600, 0.45197901, 0.43328300, 0.39229101, 0.39971101,
          0.40397701, 0.22305900, 0.22372700, 0.22394900, 0.18633400,
          0.15862300, 0.38720900, 0.15261300, 0.31524301, 0.34970501,
          0.36862400, 0.37110999, 0.37359500, 0.39251399, 0.36728901,
          0.37110999, 0.36862400, 0.21315400, 0.21359900, 0.20458500,
          0.17620599, 0.14871800, 0.38067999, 0.17828400, 0.34091300,
          0.36254001, 0.39136401, 0.37808400, 0.38439000, 0.40961501,
          0.39025101, 0.40015599, 0.41006100, 0.22869800, 0.22261401,
          0.23274100, 0.21111400, 0.17056800, 0.36446899, 0.17850700,
          0.29339299, 0.31209001, 0.35059500, 0.35374799, 0.35645601,
          0.39767000, 0.36547101, 0.36502600, 0.36524799, 0.24446300,
          0.22532199, 0.23207299, 0.21044600, 0.19219500, 0.33879900,
          0.20124599, 0.38550299, 0.44608101, 0.67084599, 0.60373902,
          0.51704597, 0.48595899, 0.34046799, 0.32785600, 0.30849099,
          0.24108800, 0.22825199, 0.23162800, 0.21586201, 0.19490300,
          0.28385901, 0.24987900, 0.42196801, 0.35426801, 0.46418399,
          0.31312799, 0.23110899, 0.42267299, 0.28504699, 0.28593701,
          0.28615901, 0.26000699, 0.25369999, 0.26000699, 0.23793399,
          0.23162800, 0.30593199, 0.44422600, 0.61026800, 0.53088301,
          0.64447099, 0.54828101, 0.50294900, 0.59605998, 0.38297999,
          0.35504699, 0.38160801, 0.25010201, 0.25010201, 0.25663099,
          0.25010201, 0.22487700, 0.26271501, 0.42645699, 0.42590100,
          0.44741601, 0.57651103, 0.59201699, 0.56801599, 0.57940400,
          0.30663601, 0.24672601, 0.23726700, 0.28141099, 0.27825800,
          0.28141099, 0.27825800, 0.28141099, 0.36024001, 0.54089898,
          0.47772399, 0.48547700, 0.66613501, 0.41117299, 0.50139099,
          0.52784097, 0.31498301, 0.26475501, 0.26475501, 0.27736801,
          0.27736801, 0.26790801, 0.26790801, 0.26790801, 0.36250299,
          0.47067499, 0.44441199, 0.64328402, 1., 0.46926600, 0.52142298,
          0.63864702, 0.27918500, 0.26026601, 0.31316501, 0.26701799,
          0.27083901, 0.27714500, 0.25507301, 0.27083901, 0.37804699,
          0.53440702, 0.38654199, 0.48562500, 0.96594602, 0.38995400,
          0.35456499, 0.71161503, 0.34922299, 0.32826301, 0.31205299,
          0.27399200, 0.27083901, 0.28771701, 0.27150601, 0.28771701,
          0.34065399, 0.50825399, 0.21222700, 0.24309100, 0.84452999,
          0.52142298, 0.17735700, 0.70082003, 0.28886700, 0.26701799,
          0.24201500, 0.17375800, 0.17757900, 0.18410800, 0.15550700,
          0.17127299, 0.24064200, 0.47015601, 0.33579400, 0.30359501,
          0.71996099, 0.41644099, 1.11000001e-004, 0.60555702,
          0.31813601, 0.28771701, 0.23997501, 0.18429400, 0.17798699,
          0.17168100, 0.17527901, 0.17212600, 0.16852801, 0.27937099,
          0.21838500, 0.21682701, 0.59131199, 0.48124799, 0.18399701,
          0.53210700, 0.15012801, 0.13028200, 0.20636600, 0.21894100,
          0.21241200, 0.20002200, 0.20970400, 0.19416100, 0.24168099,
          0.36758500, 0.29918000, 0.21745700, 0.50524902, 0.34020901,
          0.10761600, 0.40279001, 0.28652999, 0.20859100, 0.18358900,
          0.11919000, 0.11919000, 0.12234300, 0.14215200, 0.12931700,
          0.14890400, 0.22458000, 0.12149000, 0.07218900, 0.32192001,
          0.24379601, 0.14675200, 0.31650400, 0.27862900, 0.21241200,
          0.23244400, 0.09871300, 0.10501900, 0.08587700, 0.08565500,
          0.07641800, 0.08294700, 0.14894100, 0.16426200, 0.16697000,
          0.26267800, 0.17846900, 0.15413401, 0.14782800, 0.09533700,
          0.03542700, 0.02889800, 0.14081700, 0.14374700, 0.14330199,
          0.16559701, 0.18473899, 0.16830499, 0.17461100, 0.18114001,
          0.17168100, 0.21289501, 0.18451600, 0.20951900, 0.18766899,
          0.18766899, 0.17505699, 0.17505699, 0.15138900, 0.16400200,
          0.14779100, 0.13766401, 0.12123000, 0.11154800, 0.13091201,
          0.12775899, 0.12798201, 0.12167500, 0.12482800, 0.11852200,
          0.12482800, 0.12482800, 0.12482800, 0.12798201, 0.11648200,
          0.12278800, 0.10973000, 0.13517800, 0.14463800, 0.15094399,
          0.15409701, 0.14148501, 0.14801300, 0.14170700, 0.14823601,
          0.14170700, 0.14170700, 0.14170700, 0.13517800, 0.13517800,
          0.10973000, 0.12909400, 0.11648200, 0.13247000, 0.11963500,
          0.12278800, 0.12278800, 0.11648200, 0.12301100, 0.11355100,
          0.11670400, 0.11355100, 0.11670400, 0.11985800, 0.11985800,
          0.12301100 ]
      - [ 0.36280099, 0.39214501, 0.40779299, 0.38236400, 0.41796800,
          0.38354200, 0.40936401, 0.35616100, 0.33972701, 0.27987200,
          0.28026500, 0.29356900, 0.27048299, 0.27009100, 0.26969799,
          0.26304600, 0.39839199, 0.40503201, 0.46644601, 0.51025999,
          0.53765303, 0.48287901, 0.45158300, 0.30136201, 0.39566800,
          0.27439901, 0.28105000, 0.28691700, 0.29356900, 0.32212800,
          0.34129801, 0.34090599, 0.38626701, 0.18944500, 0.13582499,
          0.13387300, 0.12448500, 0.07832600, 0.12371100, 0.14250100,
          0.45396399, 0.44418299, 0.45044199, 0.45044199, 0.43400800,
          0.41796800, 0.40818599, 0.39527500, 0.46647000, 0.40737599,
          0.50126398, 0.55877501, 0.56347603, 0.55565798, 0.58735901,
          0.47546601, 0.36942801, 0.31231001, 0.29900599, 0.28609499,
          0.27983499, 0.29626900, 0.30292100, 0.30252799, 0.35536301,
          0.34597400, 0.41952601, 0.37492600, 0.35967100, 0.32681599,
          0.38237599, 0.43674499, 0.27434900, 0.40579301, 0.42809299,
          0.43474501, 0.44531199, 0.45235601, 0.43318599, 0.43318599,
          0.34636700, 0.33032599, 0.35341200, 0.30255300, 0.31624901,
          0.25444299, 0.35576800, 0.59478402, 0.41909701, 0.67533100,
          0.56266600, 0.47777399, 0.46917000, 0.47034901, 0.45117801,
          0.45430800, 0.32054499, 0.31780800, 0.32054499, 0.27047101,
          0.32368699, 0.28926101, 0.64331102, 0.51143801, 0.33959201,
          0.46834800, 0.57830101, 0.45077300, 0.46173301, 0.46251801,
          0.45312899, 0.46251801, 0.31507099, 0.31820101, 0.31507099,
          0.29316401, 0.35968301, 0.28770199, 0.68006903, 0.38144299,
          0.53168899, 0.76680201, 0.62211603, 0.49145800, 0.49655101,
          0.49068499, 0.46486199, 0.46447000, 0.32603100, 0.32603100,
          0.33542001, 0.29473501, 0.30412400, 0.25718001, 0.70393902, 0.,
          0.10556000, 0.59743500, 0.68157798, 0.53253597, 0.49263600,
          0.50594002, 0.46759900, 0.49576601, 0.32642400, 0.32642400,
          0.32642400, 0.29082000, 0.30451599, 0.25131300, 0.63900298,
          0.57048303, 0.52153897, 0.71793097, 0.53603297, 0.52549100,
          0.50515503, 0.51806599, 0.44020599, 0.51806599, 0.29394901,
          0.29394901, 0.29707900, 0.27830100, 0.31156099, 0.26853201,
          0.43362799, 0.59323800, 0.51221102, 0.53408200, 0.50591499,
          0.49849001, 0.51023602, 0.54349500, 0.45585400, 0.50084698,
          0.33150500, 0.33542001, 0.33542001, 0.30099401, 0.31156099,
          0.27205500, 0.30218399, 0.43831599, 0.29664901, 0.48950699,
          0.55444300, 0.48597199, 0.49380201, 0.49771699, 0.45976901,
          0.49458799, 0.32133001, 0.30881199, 0.32563800, 0.29747200,
          0.29865000, 0.26148799, 0.29474699, 0.45670101, 0.27513501,
          0.48129600, 0.48559099, 0.44294301, 0.50163198, 0.50202501,
          0.49537301, 0.51454300, 0.32719699, 0.32054499, 0.33776399,
          0.31585699, 0.31664199, 0.28339499, 0.31000200, 0.44378999,
          0.26261699, 0.46251801, 0.48716199, 0.48051000, 0.51259202,
          0.49694401, 0.48011801, 0.47268000, 0.32993400, 0.34050101,
          0.32054499, 0.30176699, 0.31898600, 0.29825699, 0.32212800,
          0.41210100, 0.29274699, 0.45117801, 0.45273700, 0.49615800,
          0.50672501, 0.50320297, 0.48324701, 0.46681401, 0.33619300,
          0.36553699, 0.34949699, 0.33619300, 0.33345601, 0.29981601,
          0.37102401, 0.58070701, 0.60729003, 0.79035300, 0.67884099,
          0.56187999, 0.44451401, 0.28451201, 0.29547101, 0.33459699,
          0.33893001, 0.34871101, 0.34558201, 0.33893001, 0.33227801,
          0.31702301, 0.41991901, 0.52474201, 0.29072201, 0.40922901,
          0.35250399, 0.47029999, 0.67771202, 0.55957299, 0.52475500,
          0.53649998, 0.35105500, 0.35105500, 0.35105500, 0.35418499,
          0.35418499, 0.33853701, 0.50753599, 0.69058698, 0.59779102,
          0.86379498, 0.80590302, 0.64282000, 0.70116597, 0.36200300,
          0.36083701, 0.34871101, 0.36631101, 0.36005101, 0.36631101,
          0.36005101, 0.37257001, 0.37882900, 0.58499002, 0.58062100,
          0.52850997, 0.69005901, 0.69241500, 0.48042500, 0.73049802,
          0.38116100, 0.37452099, 0.34948400, 0.37139201, 0.38469601,
          0.39799899, 0.37139201, 0.37139201, 0.41207701, 0.66165900,
          0.62402999, 0.54456300, 0.72448498, 0.69359303, 0.42485300,
          0.84785199, 0.48522300, 0.42380899, 0.41520599, 0.37060601,
          0.36434701, 0.37060601, 0.36434701, 0.36747700, 0.44884601,
          0.64129800, 0.55634499, 0.58134502, 1., 0.81961203, 0.33134499,
          0.71677703, 0.55368203, 0.38781300, 0.35338700, 0.38312501,
          0.38312501, 0.38312501, 0.38312501, 0.37999499, 0.61589301,
          0.67844898, 0.48982599, 0.52464402, 0.82320797, 0.79072201,
          0.52620298, 0.55165702, 0.73362797, 0.46136501, 0.43359101,
          0.35222101, 0.35222101, 0.33657300, 0.33970299, 0.38977700,
          0.61550099, 0.37091300, 0.25546199, 0.56852001, 0.59084398,
          0.63857400, 0.43038800, 0.08958000, 0.61273903, 0.46996799,
          0.40424600, 0.23565300, 0.21687500, 0.24191201, 0.26265299,
          0.39683399, 0.43122199, 0.25393999, 0.36194199, 0.53060901,
          0.34871101, 0.44885901, 0.55170602, 0.19136000, 0.59709102,
          0.34244001, 0.15073600, 0.34640399, 0.30649200, 0.39960700,
          0.43637699, 0.58581197, 0.37762600, 0.37018901, 0.50286001,
          0.41054201, 0.32918501, 0.40547401, 0.56936699, 0.23599701,
          0.44453901, 0.55294502, 0.41799200, 0.31276399, 0.29398599,
          0.33154199, 0.19771700, 0.27006599, 0.20941301, 0.47313401,
          0.50875098, 0.38513699, 0.33506399, 0.38826701, 0.57291400,
          0.26340199, 0.29196101, 0.48802200, 0.28733400, 0.16604100,
          0.14608499, 0.21493600, 0.25522801, 0.30529001, 0.19261201,
          0.25247899, 0.17307299, 0.16447000, 0.15195100, 0.20164500,
          0.26578301, 0.09009600, 0.12257000, 0.33582500, 0.21142600,
          0.23528500, 0.23528500, 0.25093299, 0.28535801, 0.31665400,
          0.32917300, 0.34795001, 0.30726501, 0.28144300, 0.21102101,
          0.26188001, 0.33503899, 0.35655400, 0.32799500, 0.30256501,
          0.22237401, 0.25055200, 0.24077100, 0.25641900, 0.25954801,
          0.25837001, 0.25171801, 0.25093299, 0.23762900, 0.27675501,
          0.28340700, 0.28380001, 0.27401799, 0.26775900, 0.27754101,
          0.26775900, 0.26775900, 0.25799000, 0.23842700, 0.25446701,
          0.23451200, 0.22120801, 0.21377000, 0.23959300, 0.22355200,
          0.23294100, 0.22081500, 0.22394501, 0.23411900, 0.23411900,
          0.22394501, 0.22746700, 0.23724800, 0.20008600, 0.17700000,
          0.20908201, 0.21573400, 0.24742299, 0.24429300, 0.25994101,
          0.24390000, 0.25055200, 0.24077100, 0.23764101, 0.23764101,
          0.23764101, 0.23451200, 0.23138200, 0.22825199, 0.23490401,
          0.22864500, 0.23803400, 0.21886399, 0.22864500, 0.21573400,
          0.22199300, 0.21573400, 0.22864500, 0.22238600, 0.23177500,
          0.21847101, 0.21847101, 0.23177500, 0.22551499, 0.22551499 ]
      - [ 0.23326100, 0.22637700, 0.22293399, 0.21260799, 0.20741101,
          0.21254000, 0.19532900, 0.19101000, 0.18669000, 0.18493500,
          0.17717300, 0.18230300, 0.15996200, 0.17798300, 0.17454100,
          0.18054800, 0.30298299, 0.29353401, 0.30210599, 0.31756201,
          0.28401700, 0.29690900, 0.27193600, 0.27450100, 0.23920099,
          0.21598300, 0.17379799, 0.17292100, 0.17116600, 0.15658700,
          0.13937600, 0.13593400, 0.21112300, 0.24291299, 0.38660899,
          0.38492200, 0.47448701, 0.51565897, 0.49156299, 0.44512701,
          0.28334200, 0.31155500, 0.17467600, 0.15490000, 0.16178399,
          0.15490000, 0.17123400, 0.17724100, 0.30568299, 0.28334200,
          0.28516400, 0.03023800, 0.05946300, 0.05683000,
          1.75499998e-003, 0., 0.06871000, 0.32869899, 0.38978100,
          0.38633901, 0.39666599, 0.38978100, 0.37601200, 0.36568600,
          0.28415200, 0.31081301, 0.46395800, 0.38930899, 0.55871999,
          0.54319602, 0.52679503, 0.53698701, 0.47414899, 0.30845001,
          0.25425199, 0.23623100, 0.21301299, 0.21213500, 0.22414900,
          0.22927900, 0.25573701, 0.25229499, 0.30048600, 0.26606300,
          0.31850699, 0.26430899, 0.23069599, 0.24952801, 0.39065900,
          0.20275401, 0.38606900, 0.40496799, 0.41185200, 0.40922001,
          0.41090700, 0.37567499, 0.27031600, 0.26775101, 0.27206999,
          0.25917900, 0.24365500, 0.22813199, 0.45356399, 0.36143300,
          0.66866899, 0.40841001, 0.45491400, 0.45147100, 0.43594801,
          0.41185200, 0.43331501, 0.41954601, 0.25566900, 0.23764800,
          0.24541000, 0.23852600, 0.22131500, 0.55419803, 0.51113701,
          0.34719199, 0.44742101, 0.50229502, 0.46875000, 0.43945700,
          0.45403600, 0.42906299, 0.44796199, 0.42217901, 0.24190000,
          0.23332900, 0.24966200, 0.25310501, 0.22212499, 0.47333899,
          0.50661403, 0.36966801, 0.77672797, 0.59968901, 0.48164099,
          0.46443000, 0.46179801, 0.43682501, 0.44971600, 0.42481101,
          0.23069599, 0.22381200, 0.25479200, 0.25134999, 0.23413900,
          0.54393899, 0.19053701, 5.33200009e-003, 0.50378001,
          0.70025599, 0.53934902, 0.47651201, 0.45923299, 0.46092099,
          0.48501599, 0.45666799, 0.25816700, 0.23069599, 0.24703000,
          0.23245101, 0.20579100, 0.46388999, 0.77375799, 0.60819399,
          0.77625501, 0.55851799, 0.49723300, 0.50141698, 0.44209000,
          0.43858001, 0.49534300, 0.43439499, 0.23326100, 0.20835599,
          0.24190000, 0.23157400, 0.21611799, 0.25560200, 0.41218901,
          0.45369899, 0.44303399, 0.48359901, 0.49554500, 0.51606399,
          0.46611801, 0.45835599, 0.52200300, 0.43358499, 0.24534300,
          0.23933600, 0.25222701, 0.24534300, 0.23670299, 0.22293399,
          0.32788900, 0.34793499, 0.42393401, 0.47738901, 0.47745699,
          0.46618500, 0.45579100, 0.44370899, 0.52544498, 0.44303399,
          0.25398201, 0.24966200, 0.25742400, 0.24365500, 0.25391501,
          0.23670299, 0.32964399, 0.28266701, 0.40233499, 0.44897401,
          0.46443000, 0.47644401, 0.45747799, 0.43770200, 0.49190101,
          0.43783700, 0.27119300, 0.24973001, 0.26518601, 0.24797501,
          0.24196801, 0.25222701, 0.36750799, 0.29549101, 0.40841001,
          0.41104200, 0.45579100, 0.47036999, 0.45315900, 0.44370899,
          0.47900900, 0.45754600, 0.29447901, 0.27726799, 0.27895501,
          0.27382499, 0.24628800, 0.27206999, 0.33403099, 0.41941100,
          0.51930302, 0.53840399, 0.49797499, 0.41785899, 0.32667401,
          0.30345601, 0.31378201, 0.31810200, 0.26788601, 0.26957300,
          0.28415200, 0.29785401, 0.25836900, 0.34098300, 0.56040800,
          0.63451701, 0.67298901, 0.53462499, 0.55143100, 0.56398499,
          0.44681400, 0.42271900, 0.41070500, 0.40638500, 0.30831501,
          0.30311799, 0.28847200, 0.29792100, 0.29103699, 0.44937900,
          0.51174402, 0.43432799, 0.63748598, 0.54798800, 0.53887701,
          0.54333103, 0.35907099, 0.32633600, 0.33403099, 0.34435701,
          0.29798901, 0.29798901, 0.31000301, 0.31000301, 0.32032901,
          0.56304002, 0.64720601, 0.67562097, 0.98015600, 0.92244798,
          0.69472200, 0.71982998, 0.37891501, 0.30575001, 0.28253201,
          0.27476999, 0.33409801, 0.30919299, 0.31007001, 0.30318600,
          0.34449199, 0.59584200, 0.60529202, 0.49149501, 0.72333997,
          0.60434699, 0.46895200, 0.71051598, 0.45126900, 0.35569701,
          0.34793499, 0.34105000, 0.29886600, 0.29373601, 0.32127401,
          0.32471699, 0.39356101, 0.63984901, 0.55359101, 0.67622799, 1.,
          0.88087201, 0.54211700, 0.73312598, 0.58214098, 0.37385300,
          0.34024000, 0.33335599, 0.33409801, 0.31007001, 0.33160099,
          0.32559401, 0.45896301, 0.68554300, 0.49689499, 0.66617203,
          0.87047797, 0.66077203, 0.54272401, 0.52976501, 0.66576701,
          0.54164398, 0.35488701, 0.31358001, 0.28158700, 0.23866101,
          0.27308300, 0.26275599, 0.48305899, 0.58591998, 0.21591499,
          0.60407698, 0.57086903, 0.52956200, 0.59354699, 0.22887400,
          0.30595300, 0.48231599, 0.36426800, 0.32984599, 0.17649800,
          0.13957900, 0.17481101, 0.18169500, 0.47084200, 0.38903901,
          0.08504300, 0.54265600, 0.30568299, 0.22306900, 0.51471400,
          0.39227799, 0.34091499, 0.45903099, 0.32721400, 0.14821801,
          0.21233800, 0.19512700, 0.23123600, 0.23724300, 0.55055302,
          0.27099100, 0.25641200, 0.58673000, 0.27085599, 0.14788000,
          0.33963299, 0.38795900, 0.25614199, 0.26640099, 0.43520501,
          0.28381500, 0.21827701, 0.20282100, 0.19418199, 0.23893100,
          0.43263999, 0.18048100, 0.31864199, 0.50566900, 0.28617701,
          0.24487001, 0.25863901, 0.41272900, 0.30372599, 0.12958901,
          0.28401700, 0.23805299, 0.04819100, 0.04130700, 0.04218400,
          0.08598800, 0.20491301, 0.06830400, 0.14140099, 0.13087200,
          0.02585000, 0.04042900, 0.04218400, 0.12297500, 0.16367400,
          0.11548300, 0.20228100, 0.13336900, 0.16428199, 0.16083901,
          0.14707100, 0.18149300, 0.20646600, 0.22887400, 0.24952801,
          0.26154199, 0.19101000, 0.18932199, 0.13080400, 0.20221400,
          0.19870400, 0.21166299, 0.19188701, 0.17636301, 0.14612600,
          0.14356101, 0.14524800, 0.16245900, 0.17022100, 0.17109901,
          0.17285299, 0.14882500, 0.13768899, 0.17028899, 0.17717300,
          0.16509201, 0.15996200, 0.14963500, 0.15908501, 0.16252699,
          0.13836400, 0.14437100, 0.14180601, 0.14693600, 0.12203000,
          0.09800200, 0.12722699, 0.14099599, 0.13411200, 0.12898199,
          0.12635000, 0.13924100, 0.13235700, 0.12979200, 0.12979200,
          0.13235700, 0.10394200, 0.08679800, 0.07134200, 0.11602300,
          0.13748600, 0.14180601, 0.15557501, 0.15814000, 0.17447300,
          0.15469700, 0.15125500, 0.13492200, 0.12803701, 0.13404401,
          0.13404401, 0.12459500, 0.13316700, 0.13147900, 0.13235700,
          0.13579901, 0.11602300, 0.11858800, 0.11258100, 0.10657400,
          0.11001600, 0.10313200, 0.10913900, 0.12115300, 0.10826100,
          0.10826100, 0.11426800, 0.11082600 ]
      - [ 0.29678401, 0.31335101, 0.32048199, 0.34533301, 0.43509200,
          0.43039399, 0.50952101, 0.53779101, 0.56016898, 0.54244697,
          0.51524699, 0.37001699, 0.30510899, 0.20822001, 0.21291800,
          0.20817800, 0.26727599, 0.27205801, 0.26385701, 0.34652799,
          0.44585001, 0.36932200, 0.45438400, 0.40245700, 0.32691699,
          0.27729800, 0.24535801, 0.28174499, 0.41481301, 0.36049700,
          0.36638999, 0.37108800, 0.29324001, 0.31100199, 0.28862500,
          0.33939800, 0.29233599, 0.08253200, 0.15341599, 0.19821300,
          0.20410600, 0.18638501, 0.22883201, 0.25808901, 0.39256099,
          0.32641599, 0.34413701, 0.33824399, 0.27432299, 0.29208601,
          0.26970899, 0.36890501, 0.51887500, 0.58143401, 0.69245797,
          0.66884398, 0.64164400, 0.61794603, 0.65095598, 0.45281300,
          0.39157501, 0.35382500, 0.35501999, 0.34912699, 0.25660199,
          0.27906299, 0.26377401, 0.28149500, 0.25903401, 0.23896401,
          0.21885200, 0.21056899, 0.19045700, 0.16560601, 0.33918899,
          0.25091699, 0.36684799, 0.44956100, 0.46728200, 0.47671899,
          0.25421101, 0.27432299, 0.27790901, 0.29447699, 0.29686701,
          0.28264901, 0.48940900, 0.56025201, 0.53070301, 0.52831203,
          0.46682301, 0.31236500, 0.42355600, 0.48500299, 0.48854700,
          0.49089599, 0.25301600, 0.26249501, 0.27082101, 0.27795100,
          0.28503901, 0.48706001, 0.56494999, 0.36730701, 0.18808000,
          0.34665301, 0.55192602, 0.30412301, 0.41766301, 0.46967301,
          0.47202200, 0.47791499, 0.25301600, 0.25660199, 0.26373199,
          0.27675599, 0.28973699, 0.39017099, 0.68628800, 0.59673703,
          0.78560901, 0.62228298, 0.57434499, 0.31595001, 0.43538401,
          0.50981301, 0.50626898, 0.50861698, 0.23294599, 0.23298800,
          0.23892300, 0.25899300, 0.27082101, 0.47284201, 0.48986799, 0.,
          0.46358499, 0.53107798, 0.79524100, 0.36672300, 0.42833701,
          0.48150101, 0.49213299, 0.49328700, 0.23649000, 0.27308601,
          0.26838800, 0.28495601, 0.29204401, 0.41963601, 0.80599898,
          0.61169201, 0.76063299, 0.54686701, 0.63595998, 0.51323199,
          0.46847701, 0.49926400, 0.50630999, 0.50511497, 0.22585800,
          0.26834700, 0.24596900, 0.24246700, 0.26373199, 0.25664401,
          0.42676699, 0.53544199, 0.54657501, 0.41560599, 0.50771397,
          0.48026401, 0.48389101, 0.48743501, 0.51339900, 0.50865901,
          0.22585800, 0.26719299, 0.25544801, 0.26966700, 0.30152300,
          0.28145301, 0.32159299, 0.47284201, 0.44951901, 0.55481797,
          0.53244001, 0.56190598, 0.52638000, 0.51339900, 0.50985402,
          0.50511497, 0.25182101, 0.26368999, 0.24840200, 0.27086201,
          0.28384399, 0.27321100, 0.34051001, 0.39379799, 0.42705899,
          0.50280797, 0.52291900, 0.50874197, 0.52048701, 0.48504499,
          0.49448201, 0.49802601, 0.27193299, 0.29558900, 0.27675599,
          0.30156499, 0.30984899, 0.29682499, 0.34055200, 0.32419300,
          0.39165801, 0.45079800, 0.50989598, 0.49687299, 0.54051501,
          0.48500299, 0.49683100, 0.48619801, 0.25194600, 0.30387199,
          0.27440700, 0.29097399, 0.29212800, 0.29686701, 0.34174699,
          0.39969200, 0.45887300, 0.47556600, 0.47441199, 0.47676101,
          0.48376599, 0.45429999, 0.49443999, 0.50861698, 0.28149500,
          0.32872400, 0.30041099, 0.30750000, 0.33820301, 0.31928599,
          0.42800400, 0.53552598, 0.68335497, 0.70359200, 0.63744599,
          0.61366498, 0.45182601, 0.35736901, 0.35741100, 0.33264300,
          0.30276000, 0.32756999, 0.29455999, 0.31463000, 0.33581200,
          0.33469999, 0.50366902, 0.53235698, 0.59174699, 0.58140600,
          0.40406999, 0.61605603, 0.45994300, 0.41741300, 0.43867800,
          0.44931099, 0.31574199, 0.32406700, 0.30049500, 0.32171801,
          0.34413701, 0.37957999, 0.64197803, 0.58597898, 0.75528198,
          0.82369202, 0.57551301, 0.68459201, 0.44926900, 0.38192901,
          0.35711899, 0.36301199, 0.30630401, 0.32641599, 0.31347600,
          0.34063500, 0.34887701, 0.45166001, 0.73305702, 0.68427199,
          0.89495200, 0.91365999, 0.79974401, 0.70350802, 0.40097001,
          0.35835600, 0.33000201, 0.32880700, 0.30984899, 0.35472801,
          0.33235100, 0.34656999, 0.35246301, 0.52493501, 0.70128500,
          0.75404501, 0.85839802, 0.70727497, 0.81977302, 0.65153998,
          0.40575099, 0.39503500, 0.36783499, 0.37727201, 0.30630401,
          0.34883499, 0.31112701, 0.34776500, 0.35839799, 0.58877301,
          0.64593899, 0.90269399, 1., 0.82872301, 0.94493300, 0.70354998,
          0.47189599, 0.43167299, 0.36907199, 0.35489500, 0.29097399,
          0.35237899, 0.30758300, 0.35485399, 0.35959300, 0.60414499,
          0.56928599, 0.81524199, 0.88530600, 0.88176203, 0.87775898,
          0.80291301, 0.57121801, 0.46006799, 0.39033699, 0.39858001,
          0.28034100, 0.35353300, 0.30519301, 0.34656999, 0.36548600,
          0.61358202, 0.67668301, 0.76100802, 0.82476199, 0.85431200,
          0.40217900, 0.51278698, 0.53120297, 0.52266902, 0.42104000,
          0.38559800, 0.21180600, 0.30267701, 0.25079200, 0.27214101,
          0.26859701, 0.50960398, 0.58795297, 0.37967700, 0.59562498,
          0.96689302, 0.57278901, 0.51735997, 0.50417000, 0.45895600,
          0.42104000, 0.34306699, 0.16321500, 0.21868600, 0.17388900,
          0.19874100, 0.19284800, 0.41959500, 0.58778602, 0.38515300,
          0.50771397, 0.73985398, 0.37479901, 0.36091301, 0.35745299,
          0.25116801, 0.33713201, 0.30630401, 0.18662100, 0.20553701,
          0.19729500, 0.23154201, 0.18905300, 0.36028799, 0.50947899,
          0.24663600, 0.40109500, 0.51627600, 0.28825000, 0.34372100,
          0.41003200, 0.20014399, 0.28619301, 0.30724999, 0.20669100,
          0.20908201, 0.21262600, 0.23389100, 0.20199300, 0.36024600,
          0.46904701, 0.21811600, 0.30647099, 0.46892199, 0.24328700,
          0.28342700, 0.34606999, 0.24349500, 0.27658901, 0.28000799,
          0.09113500, 0.08169800, 0.08408800, 0.08054400, 0.07226100,
          0.11829400, 0.22124299, 0.13865601, 0.17764200, 0.19634999,
          0.04984200, 0.08054400, 0.12896800, 0.16436900, 0.17500100,
          0.16791300, 0.17969900, 0.17500100, 0.18443900, 0.19152699,
          0.17380600, 0.21988100, 0.23760200, 0.28252399, 0.26834700,
          0.28606799, 0.23879801, 0.22227199, 0.17862900, 0.17269400,
          0.18328500, 0.18917800, 0.17726700, 0.16783001, 0.16783001,
          0.17726700, 0.15365300, 0.18081100, 0.18200600, 0.20092300,
          0.20096500, 0.19861600, 0.18093599, 0.19746201, 0.21749000,
          0.21159700, 0.20096500, 0.18324400, 0.14771800, 0.15361100,
          0.15361100, 0.17013700, 0.15126200, 0.18901201, 0.16189501,
          0.14895500, 0.13482000, 0.16197801, 0.16787100, 0.16432700,
          0.16432700, 0.14660600, 0.16193600, 0.16193600, 0.13354100,
          0.13354100, 0.12645200, 0.14062899, 0.11112200, 0.13947600,
          0.13593100, 0.16309001, 0.17607200, 0.18316001, 0.17372300,
          0.17017899, 0.17607200, 0.16543899, 0.16543899, 0.15835100 ]
      - [ 0.26146099, 0.26509100, 0.21054900, 0.26509100, 0.24110700,
          0.25567499, 0.26440600, 0.24620800, 0.27455801, 0.23237599,
          0.23237599, 0.23889799, 0.21707100, 0.21559900, 0.19377200,
          0.20539600, 0.21349300, 0.24694400, 0.27019200, 0.33930200,
          0.31242499, 0.33135900, 0.34371901, 0.33425200, 0.33278000,
          0.28113100, 0.27603000, 0.24110700, 0.26945600, 0.24326400,
          0.25125799, 0.23306100, 0.24767999, 0.23895000, 0.22222400,
          0.24552301, 0.21575300, 0.23032100, 0.42529199, 0.44564700,
          0.59480602, 0.64061701, 0.69584399, 0.65292603, 0.59617603,
          0.34666300, 0.33788100, 0.17126000, 0.26367000, 0.28039500,
          0.27313700, 0.31826299, 0.30085301, 0.29869601, 0.47546801,
          0.15783900, 0.19791500, 0.15352499, 0.08004900, 0., 0.04870400,
          0.09299100, 0.44843701, 0.44770101, 0.24620800, 0.26729900,
          0.25930399, 0.30805999, 0.30300900, 0.31757799, 0.53216702,
          0.27270901, 0.41750300, 0.48293200, 0.50907302, 0.50828600,
          0.56351203, 0.41729701, 0.39404899, 0.30458400, 0.22948299,
          0.24983700, 0.23747700, 0.26877099, 0.26298499, 0.27318799,
          0.43034199, 0.42886999, 0.57071900, 0.52780199, 0.47031501,
          0.41135699, 0.50150597, 0.43323499, 0.32867101, 0.42907500,
          0.25057399, 0.27092800, 0.25783199, 0.28476101, 0.29133400,
          0.31026801, 0.29938000, 0.67843300, 0.55835903, 0.69005698,
          0.51980698, 0.23384801, 0.35676399, 0.35323700, 0.34539700,
          0.52074802, 0.22511700, 0.23674101, 0.23674101, 0.25856799,
          0.26077601, 0.27245200, 0.66607302, 0.59112501, 0.28847501,
          0.19144399, 0.54242098, 0.27171600, 0.41204199, 0.40052000,
          0.38757801, 0.52222103, 0.25420299, 0.25856799, 0.25346699,
          0.27603000, 0.28260401, 0.28407601, 0.61221600, 0.62534702,
          0.53204697, 0.84272599, 0.67490703, 0.25572601, 0.40404701,
          0.37506399, 0.33813801, 0.50549501, 0.23747700, 0.23674101,
          0.23311201, 0.23747700, 0.23095500, 0.22443300, 0.67185998,
          0.11733500, 0.01544100, 0.55519199, 0.78472602, 0.48709199,
          0.42150900, 0.44270200, 0.35996500, 0.57823497, 0.24983700,
          0.24620800, 0.23674101, 0.26219800, 0.29275501, 0.28113100,
          0.63036299, 1., 0.85904098, 0.81638002, 0.49770600, 0.42744899,
          0.56630301, 0.45942700, 0.30616000, 0.52006400, 0.24184300,
          0.25420299, 0.23237599, 0.26582700, 0.27019200, 0.23532000,
          0.27098000, 0.41940299, 0.55993402, 0.46273100, 0.50417697,
          0.32298800, 0.50376600, 0.46963099, 0.30032200, 0.55351502,
          0.23311201, 0.24547200, 0.21202099, 0.27019200, 0.26803499,
          0.26224899, 0.30153701, 0.41940299, 0.53300601, 0.48298401,
          0.64455497, 0.31715000, 0.64566702, 0.54815602, 0.32940701,
          0.54767698, 0.27092800, 0.26729900, 0.24184300, 0.28839001,
          0.25714701, 0.26372099, 0.28991300, 0.39904800, 0.43917599,
          0.45384699, 0.59211802, 0.30621099, 0.54531401, 0.52853799,
          0.29811299, 0.51711899, 0.27239999, 0.26950699, 0.27313700,
          0.31168899, 0.30080101, 0.29864401, 0.31684199, 0.42087501,
          0.42970899, 0.44800901, 0.60442698, 0.35055000, 0.55041599,
          0.53363901, 0.33666599, 0.52437800, 0.29207000, 0.28044599,
          0.25572601, 0.29354301, 0.30153701, 0.29138601, 0.28339100,
          0.37432799, 0.39331299, 0.45816100, 0.51711899, 0.32945901,
          0.48130599, 0.50018799, 0.33009201, 0.49092701, 0.31174001,
          0.31684199, 0.28339100, 0.34156200, 0.33793300, 0.33067399,
          0.33067399, 0.61584598, 0.71193600, 0.89464903, 0.82932198,
          0.61242199, 0.65587002, 0.42376801, 0.21369900, 0.28354499,
          0.30958301, 0.32194301, 0.29648700, 0.34229800, 0.30595401,
          0.28996500, 0.31031999, 0.57729298, 0.38347000, 0.40408099,
          0.34733099, 0.39730200, 0.45947900, 0.46595001, 0.46447799,
          0.54889202, 0.36123201, 0.35323700, 0.31757799, 0.36412501,
          0.34014100, 0.32488799, 0.39615500, 0.83705997, 0.75599998,
          0.76509100, 0.79112899, 0.92015600, 0.56935000, 0.36196801,
          0.33140999, 0.30085301, 0.33435500, 0.34960800, 0.31831399,
          0.35539401, 0.33140999, 0.30816200, 0.46310800, 0.74838197,
          0.70156097, 0.54040098, 0.57727599, 0.88807499, 0.39915100,
          0.33803600, 0.36491299, 0.36491299, 0.36128300, 0.37727299,
          0.31542099, 0.40267801, 0.36486101, 0.35544601, 0.56135499,
          0.71287698, 0.85939997, 0.70828903, 0.73354000, 0.87350601,
          0.46752501, 0.42823601, 0.40640900, 0.37148601, 0.37437901,
          0.37437901, 0.29653800, 0.38958099, 0.32415199, 0.31836599,
          0.47189000, 0.57476002, 0.66080099, 0.76057100, 0.81627703,
          0.81244200, 0.41882101, 0.39699399, 0.40351599, 0.44349000,
          0.39184099, 0.39620700, 0.29653800, 0.38232300, 0.35250100,
          0.34745100, 0.53663498, 0.73675799, 0.76772702, 0.74668700,
          0.73275203, 0.79429603, 0.43701801, 0.41661200, 0.38605499,
          0.36422801, 0.34965900, 0.36564901, 0.27834100, 0.35465801,
          0.35318601, 0.29506600, 0.33656299, 0.63340998, 0.68094999,
          0.50022298, 0.44342101, 0.84447199, 0.47772801, 0.41950601,
          0.38310999, 0.38310999, 0.26524499, 0.25793499, 0.18298700,
          0.19455899, 0.20765600, 0.13859700, 0.17935801, 0.34813601,
          0.72660702, 0.41276100, 0.51390100, 0.75647998, 0.41151100,
          0.32851699, 0.22811300, 0.23537201, 0.33646101, 0.34729701,
          0.31011400, 0.24536900, 0.23590200, 0.23663799, 0.28244901,
          0.33630601, 0.73797399, 0.34781101, 0.46856901, 0.55204201,
          0.31321299, 0.24473600, 0.17925499, 0.26719600, 0.15458600,
          0.18725000, 0.25625700, 0.24458200, 0.24531800, 0.22422700,
          0.23658700, 0.30133200, 0.67165399, 0.33450899, 0.39862001,
          0.56277603, 0.46800399, 0.41046700, 0.30133200, 0.29260099,
          0.25562400, 0.19887400, 0.13775800, 0.08537300, 0.07227700,
          0.07227700, 0.06428200, 0.07590600, 0.23095500, 0.11908100,
          0.17951199, 0.33425200, 0.18872200, 0.10867300, 0.09410400,
          0.12319000, 0.14648899, 0.15884900, 0.15448301, 0.16757999,
          0.16757999, 0.16757999, 0.17194501, 0.20250300, 0.28181601,
          0.33930200, 0.30948099, 0.31531799, 0.23453300, 0.19960999,
          0.16689500, 0.13633700, 0.18499000, 0.17699499, 0.16463500,
          0.17625900, 0.16463500, 0.14428100, 0.16826500, 0.16463500,
          0.17773101, 0.19156399, 0.22722299, 0.21486300, 0.22869501,
          0.18362001, 0.22359399, 0.24831399, 0.14060000, 0.14496499,
          0.14060000, 0.15369600, 0.16169100, 0.14933100, 0.16679201,
          0.16169100, 0.17042100, 0.15080300, 0.13118400, 0.10793600,
          0.14575300, 0.13628601, 0.15301099, 0.12319000, 0.12750401,
          0.12750401, 0.12750401, 0.12313800, 0.12750401, 0.12313800,
          0.12750401, 0.11950900, 0.12824000, 0.14933100, 0.17552300,
          0.17988899, 0.19298400, 0.17988899, 0.17988899, 0.17552300 ]
      - [ 0.27096799, 0.25970900, 0.28925300, 0.24428600, 0.22699100,
          0.27178100, 0.23461400, 0.26920399, 0.26592100, 0.26556900,
          0.25155601, 0.23426200, 0.21333100, 0.20969599, 0.23009700,
          0.22663800, 0.26041400, 0.23584899, 0.23168400, 0.21057799,
          0.21057799, 0.27248701, 0.23203699, 0.28081599, 0.36002001,
          0.36365500, 0.46015400, 0.49732101, 0.51444000, 0.51062799,
          0.36206800, 0.30068800, 0.26006100, 0.25261399, 0.24534400,
          0.23825000, 0.21767201, 0.25953200, 0.21251699, 0.29189801,
          0.40674999, 0.27572900, 0.38278100, 0.32468399, 0.24929100,
          0.20778400, 0.15830000, 0.40375200, 0.25589699, 0.24206100,
          0.25865099, 0.26521599, 0.24170899, 0.28356901, 0.25003701,
          0.29500401, 0.28310800, 0.01309000, 0.10613000, 0.14329700,
          0.15296900, 0.17682900, 0.17887700, 0.35744199, 0.25882700,
          0.23150800, 0.23115499, 0.24135600, 0.22769600, 0.27283901,
          0.24968500, 0.31886399, 0.49785000, 0.54574698, 0.66991800,
          0.64224601, 0.59036100, 0.60952801, 0.55506599, 0.30509600,
          0.23133200, 0.22787300, 0.21403700, 0.23097900, 0.21731900,
          0.26228601, 0.24915600, 0.34653601, 0.30139300, 0.33961800,
          0.26352099, 0.22166000, 0.17634100, 0.21679001, 0.38663301,
          0.21188000, 0.23825000, 0.25865099, 0.22077800, 0.25138000,
          0.22734299, 0.24827400, 0.45669499, 0.49855500, 0.56921399,
          0.46989301, 0.48231801, 0.28427401, 0.22095500, 0.24463800,
          0.41430500, 0.21569200, 0.22113100, 0.23461400, 0.19345900,
          0.23408499, 0.23408499, 0.25173301, 0.51168603, 0.41937801,
          0.28624099, 0.36339700, 0.44186899, 0.32126501, 0.25900301,
          0.25120401, 0.44162500, 0.20877400, 0.23842600, 0.26556900,
          0.22734299, 0.23426200, 0.22060201, 0.23133200, 0.48073101,
          0.12056300, 0.03517300, 0.43907401, 0.68950498, 0.40205601,
          0.20436500, 0.23062600, 0.46859100, 0.20877400, 0.19434100,
          0.26175699, 0.23408499, 0.21057799, 0.20020100, 0.24463800,
          0.48747301, 0.72479999, 0.63616902, 0.60492897, 0.45319501,
          0.40897399, 0.30778199, 0.24446200, 0.47205001, 0.18491299,
          0.23514301, 0.25519201, 0.22423699, 0.22406100, 0.22060201,
          0.28215799, 0.27940500, 0.43230599, 0.47059801, 0.37557799,
          0.40547499, 0.39121801, 0.32888901, 0.23080300, 0.44473100,
          0.18127801, 0.23514301, 0.25882700, 0.24118000, 0.22077800,
          0.20694201, 0.27541700, 0.22804900, 0.39443299, 0.44550401,
          0.43501899, 0.44991300, 0.34127301, 0.40152699, 0.27213401,
          0.46202600, 0.22190399, 0.23913100, 0.26902801, 0.25519201,
          0.21421300, 0.23443800, 0.27905199, 0.20143500, 0.33633599,
          0.34261599, 0.39626399, 0.44539499, 0.31360099, 0.38546699,
          0.26920399, 0.46184900, 0.20150299, 0.23948400, 0.26973301,
          0.27266300, 0.24534400, 0.25900301, 0.29359299, 0.25624999,
          0.37057301, 0.35920599, 0.39573500, 0.45453799, 0.33693200,
          0.36852500, 0.24569701, 0.44162500, 0.19458500, 0.26041400,
          0.28028700, 0.27665100, 0.23584899, 0.23584899, 0.28374499,
          0.25642601, 0.32249999, 0.38236001, 0.42252499, 0.40283000,
          0.38154700, 0.38147900, 0.27993399, 0.45891899, 0.23210500,
          0.26387301, 0.29447499, 0.28392199, 0.27061501, 0.26387301,
          0.31833500, 0.28099200, 0.49199000, 0.62360799, 0.72345698,
          0.54365802, 0.56744999, 0.42644599, 0.30068800, 0.33803099,
          0.12851200, 0.28791001, 0.30831099, 0.26405001, 0.28445101,
          0.27389699, 0.29482800, 0.27495599, 0.48888400, 0.35552999,
          0.39523301, 0.20534199, 0.54916501, 0.33047599, 0.31159401,
          0.36330199, 0.41360000, 0.29172099, 0.32578200, 0.28826299,
          0.31212300, 0.29119200, 0.33598301, 0.40240899, 0.64976102,
          0.60616398, 0.77713299, 0.45544699, 0.91973799, 0.41730300,
          0.33305299, 0.23983701, 0.23620100, 0.29207399, 0.32994699,
          0.29189801, 0.30573401, 0.28498000, 0.33217099, 0.53748602,
          0.54383397, 0.63577503, 0.81518102, 0.21045600, 0.81063700,
          0.37632400, 0.37163100, 0.33668801, 0.34014699, 0.30298001,
          0.35726601, 0.29952100, 0.30643901, 0.27806199, 0.34325400,
          0.58209997, 0.37599900, 0.57322901, 0.98513299, 0.44870499,
          0.86944002, 0.47663501, 0.34865201, 0.30022600, 0.33375800,
          0.28932101, 0.37145400, 0.27876699, 0.30661500, 0.26475501,
          0.34254801, 0.65872699, 0.54337299, 0.58237100, 0.99240398,
          0.50902700, 0.68184102, 0.57383901, 0.33862799, 0.29712000,
          0.34431201, 0.31353301, 0.39513800, 0.29623899, 0.35070100,
          0.27460301, 0.37004399, 0.56826401, 0.41468501, 0.29393300,
          0.91641402, 0.54672301, 0.41076499, 0.73277599, 0.38582000,
          0.36160699, 0.36160699, 0.28275499, 0.35744199, 0.24400100,
          0.25420201, 0.17464501, 0.27629799, 0.46414199, 0.39838001,
          0.33548099, 1., 0.41492900, 0.10404100, 0.69384599, 0.26839000,
          0.27530801, 0.26839000, 0.29969701, 0.40240899, 0.27407399,
          0.33181801, 0.22024900, 0.24029800, 0.37953901, 0.28399000,
          0.29524800, 0.78893399, 0.43491000, 0.15321299, 0.70920098,
          0.22148401, 0.18654101, 0.12914900, 0.13331300, 0.16010401, 0.,
          0.17164700, 0.21777999, 0.33157399, 0.43276700, 0.34378299,
          0.32613501, 0.63151598, 0.42820901, 0.14951000, 0.55887699,
          0.31082100, 0.28297201, 0.26567701, 0.37085801, 0.43950799,
          0.32882100, 0.35924599, 0.23196900, 0.19081400, 0.09837100,
          0.01782400, 0.12293600, 0.39178801, 0.32197100, 0.06730800,
          0.31106499, 0.26239499, 0.23073500, 0.19667400, 0.09226700,
          0.09572600, 0.06805400, 0.08880800, 0.07843100, 0.17874099,
          0.23754400, 0.28233501, 0.24446200, 0.28198200, 0.25536799,
          0.21040100, 0.22787300, 0.13066800, 0.08517300, 0.07497200,
          0.17768300, 0.18788400, 0.18114200, 0.18460099, 0.17440100,
          0.17768300, 0.18442500, 0.17094199, 0.16730601, 0.19151901,
          0.18149500, 0.20606101, 0.23009700, 0.22992100, 0.21989700,
          0.19568400, 0.16988400, 0.16314200, 0.15640000, 0.16660100,
          0.16314200, 0.16314200, 0.17334300, 0.16314200, 0.17351900,
          0.18735500, 0.19081400, 0.17076500, 0.14379901, 0.12703300,
          0.14708100, 0.16419999, 0.12855200, 0.13201100, 0.13529401,
          0.13201100, 0.13201100, 0.13875300, 0.16296600, 0.14930600,
          0.15294100, 0.14256500, 0.13599899, 0.14965899, 0.18407200,
          0.18061300, 0.18424900, 0.17715400, 0.12491700, 0.12145800,
          0.14913000, 0.15587100, 0.16278900, 0.14930600, 0.13910501,
          0.11213900, 0.13254000, 0.15985900, 0.15968300, 0.16660100,
          0.16642500, 0.16314200, 0.15276501, 0.15968300, 0.13822401,
          0.12474100, 0.14549400, 0.11524500, 0.11888100, 0.14256500,
          0.16660100, 0.14620000, 0.15657701, 0.15640000, 0.13928200,
          0.13582300, 0.13582300, 0.14256500, 0.13236400, 0.14256500 ]
      - [ 0.43606099, 0.41389099, 0.40730900, 0.38981000, 0.37855700,
          0.37979501, 0.42565599, 0.39853299, 0.42194101, 0.42132199,
          0.43347701, 0.41288200, 0.38885501, 0.36482701, 0.36325201,
          0.35295501, 0.42700201, 0.39734799, 0.41198000, 0.39104900,
          0.35610399, 0.33550900, 0.36578301, 0.32431000, 0.34648001,
          0.50279999, 0.50218099, 0.63666701, 0.67690098, 0.70464402,
          0.69777900, 0.68466800, 0.42604700, 0.39234099, 0.41727000,
          0.38075101, 0.37045401, 0.35610399, 0.40415901, 0.37579799,
          0.38142401, 0.54275101, 0.22340800, 0.32576400, 0.26335999,
          0.20033699, 0.14727400, 0.16004799, 0.39076599, 0.35582200,
          0.38637799, 0.36358899, 0.39352500, 0.36015600, 0.40477899,
          0.39543700, 0.40730900, 0.55552602, 0.24586099, 0.39874801,
          0.43616900, 0.46047899, 0.46357501, 0.50690502, 0.44253600,
          0.39729401, 0.40134600, 0.33956099, 0.37917599, 0.34766501,
          0.37731901, 0.37140900, 0.37703601, 0.54927999, 0.54365301,
          0.69310802, 0.64505303, 0.60386300, 0.54798800, 0.58040100,
          0.37422299, 0.35081401, 0.40601701, 0.35047799, 0.37979501,
          0.36139500, 0.38885501, 0.48310700, 0.43257499, 0.49779201,
          0.41822600, 0.38857201, 0.35362801, 0.34518799, 0.31272000,
          0.34108201, 0.38328201, 0.35705999, 0.41350099, 0.32864499,
          0.35734299, 0.36263299, 0.60510200, 0.68376601, 0.60121101,
          0.65855402, 0.58174700, 0.41822600, 0.36111200, 0.36983401,
          0.30990699, 0.33016601, 0.39886901, 0.32149699, 0.38013199,
          0.34828401, 0.35920000, 0.33207700, 0.75146002, 0.39885601,
          0.26171800, 0.44910499, 0.53059602, 0.42289701, 0.38857201,
          0.40320399, 0.35295501, 0.38131601, 0.43099999, 0.37140900,
          0.41755301, 0.36606500, 0.37979501, 0.35576800, 0.80013502, 0.,
          0.28804699, 0.64746302, 0.74993998, 0.44506699, 0.36049300,
          0.35267201, 0.31395900, 0.33888799, 0.37579799, 0.33708501,
          0.40320399, 0.32707000, 0.33455399, 0.32988301, 0.76485401,
          0.45405799, 0.67058802, 0.72269499, 0.62361002, 0.55895799,
          0.43381301, 0.36578301, 0.34203801, 0.34513399, 0.41136101,
          0.34490499, 0.42098501, 0.36949801, 0.37636301, 0.35233599,
          0.58917701, 0.63661301, 0.58781803, 0.52794498, 0.40127900,
          0.49441400, 0.43195599, 0.35205299, 0.33517301, 0.34513399,
          0.43820199, 0.35238901, 0.42599300, 0.34766501, 0.34018001,
          0.34018001, 0.38666001, 0.56672502, 0.43892899, 0.63024598,
          0.45181000, 0.53627700, 0.49779201, 0.40944901, 0.35233599,
          0.35543099, 0.41918200, 0.33899599, 0.43285799, 0.37450501,
          0.35734299, 0.35391000, 0.38480300, 0.48406300, 0.43110800,
          0.53413701, 0.47145000, 0.45547199, 0.49593499, 0.38981000,
          0.32020500, 0.35824499, 0.43977699, 0.34867400, 0.43786499,
          0.40196499, 0.39448100, 0.40539801, 0.42942500, 0.47314599,
          0.44607601, 0.53318101, 0.55501401, 0.46858299, 0.52620798,
          0.42132199, 0.33894199, 0.37197500, 0.43291199, 0.36021000,
          0.44005901, 0.38919100, 0.35300800, 0.35238901, 0.38451999,
          0.47033200, 0.46695399, 0.50538403, 0.45924100, 0.44236100,
          0.48034701, 0.40044400, 0.34923899, 0.38851801, 0.46689999,
          0.35897201, 0.44287300, 0.40511501, 0.39763099, 0.40106300,
          0.40792799, 0.54927999, 0.66727698, 0.78932601, 0.65269899,
          0.70599002, 0.49970400, 0.41012201, 0.39324301, 0.40382299,
          0.42041999, 0.35334501, 0.47095200, 0.39639199, 0.39982501,
          0.42289701, 0.46751899, 0.62575001, 0.56598502, 0.45259100,
          0.29222000, 0.68353802, 0.47691500, 0.41512999, 0.37984899,
          0.40415901, 0.47157100, 0.36645600, 0.46222901, 0.40950301,
          0.41698799, 0.40044400, 0.55614501, 0.62923700, 0.61544001,
          0.69545001, 0.54808199, 0.96500200, 0.50938201, 0.45069301,
          0.40263799, 0.41136101, 0.48468199, 0.37208200, 0.46037200,
          0.39858699, 0.42947900, 0.39172199, 0.67752099, 0.64245498,
          0.71593702, 0.79904401, 0.37442401, 0.83180797, 0.53155202,
          0.48845100, 0.46099100, 0.45412600, 0.42295101, 0.40016201,
          0.50341898, 0.39205801, 0.47815299, 0.44726101, 0.82607400,
          0.56265998, 0.66360199, 0.95564699, 0.56405997, 0.87147701,
          0.64420497, 0.47381899, 0.43386701, 0.41203400, 0.46352100,
          0.39892301, 0.49936700, 0.34681600, 0.42824101, 0.38800600,
          0.74374801, 0.35524300, 0.50384998, 0.94214600, 0.61268002,
          0.65066600, 0.74284601, 0.52811998, 0.47100601, 0.46414101,
          0.46290201, 0.41422799, 0.55738300, 0.45007399, 0.49126399,
          0.60110402, 0.96185201, 0.51308399, 0.86719602, 1., 0.63513303,
          0.44172800, 0.75848699, 0.64701802, 0.43077099, 0.46943101,
          0.50814402, 0.39020100, 0.48254099, 0.35553899, 0.42418900,
          0.53059602, 0.47178599, 0.07011700, 0.63835001, 0.70914000,
