<?xml version="1.0"?>
<opencv_storage>
<!-- Automatically converted from 23_07_casALL16x32_stump_sym, window size = 16x32 -->
<_23_07_casALL16x32_stump_sym_24 type_id="opencv-haar-classifier">
  <size>
    16 32</size>
  <stages>
    <_>
      <!-- stage 0 -->
      <trees>
        <_>
          <!-- tree 0 -->
          <_>
            <!-- root node -->
            <feature>
              <rects>
                <_>
                  4 5 8 16 -1.</_>
                <_>
                  6 5 4 16 2.</_></rects>
              <tilted>0</tilted></feature>
            <threshold>0.0684613883495331</threshold>
            <left_val>-0.6834679245948792</left_val>
            <right_val>0.8809887170791626</right_val></_></_>
        <_>
          <!-- tree 1 -->
          <_>
            <!-- root node -->
            <feature>
              <rects>
                <_>
                  8 17 3 8 -1.</_>
                <_>
                  8 17 3 4 2.</_></rects>
              <tilted>1</tilted></feature>
            <threshold>0.0418444089591503</threshold>
            <left_val>-0.5564736723899841</left_val>
            <right_val>0.6017436981201172</right_val></_></_>
        <_>
          <!-- tree 2 -->
          <_>
            <!-- root node -->
            <feature>
              <rects>
                <_>
                  6 3 4 6 -1.</_>
                <_>
                  6 6 4 3 2.</_></rects>
              <tilted>0</tilted></feature>
            <threshold>0.0113398702815175</threshold>
            <left_val>-0.5361015796661377</left_val>
            <right_val>0.6164296269416809</right_val></_></_>
        <_>
          <!-- tree 3 -->
          <_>
            <!-- root node -->
            <feature>
              <rects>
                <_>
                  8 19 5 8 -1.</_>
                <_>
                  8 19 5 4 2.</_></rects>
              <tilted>1</tilted></feature>
            <threshold>0.0320557914674282</threshold>
            <left_val>-0.4252255856990814</left_val>
            <right_val>0.2388630062341690</right_val></_></_>
        <_>
          <!-- tree 4 -->
          <_>
            <!-- root node -->
            <feature>
              <rects>
                <_>
                  0 31 12 1 -1.</_>
                <_>
                  6 31 6 1 2.</_></rects>
              <tilted>0</tilted></feature>
            <threshold>2.8372150845825672e-003</threshold>
            <left_val>0.3384915888309479</left_val>
            <right_val>-0.8230141997337341</right_val></_></_></trees>
      <stage_threshold>-1.1986889839172363</stage_threshold>
      <parent>-1</parent>
      <next>-1</next></_>
    <_>
      <!-- stage 1 -->
      <trees>
        <_>
          <!-- tree 0 -->
          <_>
            <!-- root node -->
            <feature>
              <rects>
                <_>
                  2 18 12 2 -1.</_>
                <_>
                  6 18 4 2 3.</_></rects>
              <tilted>0</tilted></feature>
            <threshold>0.0282866600900888</threshold>
            <left_val>-0.6563785076141357</left_val>
            <right_val>0.7868683934211731</right_val></_></_>
        <_>
          <!-- tree 1 -->
          <_>
            <!-- root node -->
            <feature>
              <rects>
                <_>
                  5 6 6 3 -1.</_>
                <_>
                  7 6 2 3 3.</_></rects>
              <tilted>0</tilted></feature>
            <threshold>0.0199298001825809</threshold>
            <left_val>-0.3867267072200775</left_val>
            <right_val>0.8719732761383057</right_val></_></_>
        <_>
          <!-- tree 2 -->
          <_>
            <!-- root node -->
            <feature>
              <rects>
                <_>
                  8 17 8 3 -1.</_>
                <_>
                  8 17 4 3 2.</_></rects>
              <tilted>1</tilted></feature>
            <threshold>0.0456751398742199</threshold>
            <left_val>-0.4198558926582336</left_val>
            <right_val>0.5815899968147278</right_val></_></_>
        <_>
          <!-- tree 3 -->
          <_>
            <!-- root node -->
            <feature>
              <rects>
                <_>
                  7 0 4 10 -1.</_>
                <_>
                  9 0 2 5 2.</_>
                <_>
                  7 5 2 5 2.</_></rects>
              <tilted>0</tilted></feature>
            <threshold>0.0120056504383683</threshold>
            <left_val>-0.1935907006263733</left_val>
            <right_val>0.5454366207122803</right_val></_></_>
        <_>
          <!-- tree 4 -->
          <_>
            <!-- root node -->
            <feature>
              <rects>
                <_>
                  7 12 1 6 -1.</_>
                <_>
                  7 14 1 2 3.</_></rects>
              <tilted>0</tilted></feature>
            <threshold>-4.8974331002682447e-004</threshold>
            <left_val>0.3804622888565064</left_val>
            <right_val>-0.4656048119068146</right_val></_></_>
        <_>
          <!-- tree 5 -->
          <_>
            <!-- root node -->
            <feature>
              <rects>
                <_>
                  9 28 2 2 -1.</_>
                <_>
                  9 28 2 1 2.</_></rects>
              <tilted>1</tilted></feature>
            <threshold>-8.3952577551826835e-004</threshold>
            <left_val>-0.7671567797660828</left_val>
            <right_val>0.1748297065496445</right_val></_></_>
        <_>
          <!-- tree 6 -->
          <_>
            <!-- root node -->
            <feature>
              <rects>
                <_>
                  5 0 4 10 -1.</_>
                <_>
                  5 0 2 5 2.</_>
                <_>
                  7 5 2 5 2.</_></rects>
              <tilted>0</tilted></feature>
            <threshold>0.0107743004336953</threshold>
            <left_val>-0.3138448894023895</left_val>
            <right_val>0.6520140171051025</right_val></_></_></trees>
      <stage_threshold>-1.4151049852371216</stage_threshold>
      <parent>0</parent>
      <next>-1</next></_>
    <_>
      <!-- stage 2 -->
      <trees>
        <_>
          <!-- tree 0 -->
          <_>
            <!-- root node -->
            <feature>
              <rects>
                <_>
                  2 18 12 2 -1.</_>
                <_>
                  6 18 4 2 3.</_></rects>
              <tilted>0</tilted></feature>
            <threshold>0.0399719402194023</threshold>
            <left_val>-0.5402138233184815</left_val>
            <right_val>0.7516450285911560</right_val></_></_>
        <_>
          <!-- tree 1 -->
          <_>
            <!-- root node -->
            <feature>
              <rects>
                <_>
                  7 0 6 10 -1.</_>
                <_>
                  10 0 3 5 2.</_>
                <_>
                  7 5 3 5 2.</_></rects>
              <tilted>0</tilted></feature>
            <threshold>0.0203721392899752</threshold>
            <left_val>-0.4549322128295898</left_val>
            <right_val>0.6298357844352722</right_val></_></_>
        <_>
          <!-- tree 2 -->
          <_>
            <!-- root node -->
            <feature>
              <rects>
                <_>
                  6 14 4 18 -1.</_>
                <_>
                  6 23 4 9 2.</_></rects>
              <tilted>0</tilted></feature>
            <threshold>-0.0876127332448959</threshold>
            <left_val>0.4923554956912994</left_val>
            <right_val>-0.4446761012077332</right_val></_></_>
        <_>
          <!-- tree 3 -->
          <_>
            <!-- root node -->
            <feature>
              <rects>
                <_>
                  0 23 16 9 -1.</_>
                <_>
                  4 23 8 9 2.</_></rects>
              <tilted>0</tilted></feature>
            <threshold>0.0111215598881245</threshold>
            <left_val>-0.5312293767929077</left_val>
            <right_val>0.3582463860511780</right_val></_></_>
        <_>
          <!-- tree 4 -->
          <_>
            <!-- root node -->
            <feature>
              <rects>
                <_>
                  7 11 2 9 -1.</_>
                <_>
                  7 14 2 3 3.</_></rects>
              <tilted>0</tilted></feature>
            <threshold>-3.0640130862593651e-003</threshold>
            <left_val>0.3978373110294342</left_val>
            <right_val>-0.4994629919528961</right_val></_></_>
        <_>
          <!-- tree 5 -->
          <_>
            <!-- root node -->
            <feature>
              <rects>
                <_>
                  7 0 6 10 -1.</_>
                <_>
                  10 0 3 5 2.</_>
                <_>
                  7 5 3 5 2.</_></rects>
              <tilted>0</tilted></feature>
            <threshold>0.0408714301884174</threshold>
            <left_val>-0.1512396931648254</left_val>
            <right_val>0.4605492949485779</right_val></_></_>
        <_>
          <!-- tree 6 -->
          <_>
            <!-- root node -->
            <feature>
              <rects>
                <_>
                  1 28 4 3 -1.</_>
                <_>
                  2 28 2 3 2.</_></rects>
              <tilted>0</tilted></feature>
            <threshold>-5.7983922306448221e-004</threshold>
            <left_val>-0.7249017953872681</left_val>
            <right_val>0.2253811061382294</right_val></_></_>
        <_>
          <!-- tree 7 -->
          <_>
            <!-- root node -->
            <feature>
              <rects>
                <_>
                  11 31 3 1 -1.</_>
                <_>
                  12 31 1 1 3.</_></rects>
              <tilted>0</tilted></feature>
            <threshold>2.8764241142198443e-004</threshold>
            <left_val>0.1314336955547333</left_val>
            <right_val>-0.8018133044242859</right_val></_></_>
        <_>
          <!-- tree 8 -->
          <_>
            <!-- root node -->
            <feature>
              <rects>
                <_>
                  4 7 4 1 -1.</_>
                <_>
                  5 7 2 1 2.</_></rects>
              <tilted>0</tilted></feature>
            <threshold>-9.3529879814013839e-004</threshold>
            <left_val>0.4104219973087311</left_val>
            <right_val>-0.3467026054859161</right_val></_></_>
        <_>
          <!-- tree 9 -->
          <_>
            <!-- root node -->
            <feature>
              <rects>
                <_>
                  9 28 4 3 -1.</_>
                <_>
                  10 28 2 3 2.</_></rects>
              <tilted>0</tilted></feature>
            <threshold>-5.4657581495121121e-004</threshold>
            <left_val>-0.5234416723251343</left_val>
            <right_val>0.1997677981853485</right_val></_></_></trees>
      <stage_threshold>-1.5223979949951172</stage_threshold>
      <parent>1</parent>
      <next>-1</next></_>
    <_>
      <!-- stage 3 -->
      <trees>
        <_>
          <!-- tree 0 -->
          <_>
            <!-- root node -->
            <feature>
              <rects>
                <_>
                  2 17 12 7 -1.</_>
                <_>
                  5 17 6 7 2.</_></rects>
              <tilted>0</tilted></feature>
            <threshold>0.0653809532523155</threshold>
            <left_val>-0.6009258031845093</left_val>
            <right_val>0.6492565870285034</right_val></_></_>
        <_>
          <!-- tree 1 -->
          <_>
            <!-- root node -->
            <feature>
              <rects>
                <_>
                  7 2 2 8 -1.</_>
                <_>
                  7 6 2 4 2.</_></rects>
              <tilted>0</tilted></feature>
            <threshold>0.0194804500788450</threshold>
            <left_val>-0.4549616873264313</left_val>
            <right_val>0.6150705814361572</right_val></_></_>
        <_>
          <!-- tree 2 -->
          <_>
            <!-- root node -->
            <feature>
              <rects>
                <_>
                  3 28 2 3 -1.</_>
                <_>
                  4 28 1 3 2.</_></rects>
              <tilted>0</tilted></feature>
            <threshold>-3.0627541127614677e-004</threshold>
            <left_val>-0.7722762227058411</left_val>
            <right_val>0.2600969076156616</right_val></_></_>
        <_>
          <!-- tree 3 -->
          <_>
            <!-- root node -->
            <feature>
              <rects>
                <_>
                  0 30 16 1 -1.</_>
                <_>
                  4 30 8 1 2.</_></rects>
              <tilted>0</tilted></feature>
            <threshold>2.5358560960739851e-003</threshold>
            <left_val>0.1818235069513321</left_val>
            <right_val>-0.7262020111083984</right_val></_></_>
        <_>
          <!-- tree 4 -->
          <_>
            <!-- root node -->
            <feature>
              <rects>
                <_>
                  5 6 6 3 -1.</_>
                <_>
                  7 6 2 3 3.</_></rects>
              <tilted>0</tilted></feature>
            <threshold>0.0228533800691366</threshold>
            <left_val>-0.2928642928600311</left_val>
            <right_val>0.5708239078521729</right_val></_></_>
        <_>
          <!-- tree 5 -->
          <_>
            <!-- root node -->
            <feature>
              <rects>
                <_>
                  0 25 16 7 -1.</_>
                <_>
                  4 25 8 7 2.</_></rects>
              <tilted>0</tilted></feature>
            <threshold>5.9249917976558208e-003</threshold>
            <left_val>-0.5366778969764710</left_val>
            <right_val>0.2944641113281250</right_val></_></_>
        <_>
          <!-- tree 6 -->
          <_>
            <!-- root node -->
            <feature>
              <rects>
                <_>
                  3 28 2 2 -1.</_>
                <_>
                  4 28 1 2 2.</_></rects>
              <tilted>0</tilted></feature>
            <threshold>3.4527940442785621e-004</threshold>
            <left_val>0.2126325070858002</left_val>
            <right_val>-0.7224333882331848</right_val></_></_>
        <_>
          <!-- tree 7 -->
          <_>
            <!-- root node -->
            <feature>
              <rects>
                <_>
                  5 29 6 3 -1.</_>
                <_>
                  7 29 2 3 3.</_></rects>
              <tilted>0</tilted></feature>
            <threshold>-1.4747499953955412e-003</threshold>
            <left_val>-0.8127592206001282</left_val>
            <right_val>0.1310683041810989</right_val></_></_></trees>
      <stage_threshold>-1.1422890424728394</stage_threshold>
      <parent>2</parent>
      <next>-1</next></_>
    <_>
      <!-- stage 4 -->
      <trees>
        <_>
          <!-- tree 0 -->
          <_>
            <!-- root node -->
            <feature>
              <rects>
                <_>
                  2 17 8 14 -1.</_>
                <_>
                  2 17 4 7 2.</_>
                <_>
                  6 24 4 7 2.</_></rects>
              <tilted>0</tilted></feature>
            <threshold>-0.0379404015839100</threshold>
            <left_val>0.5664678812026978</left_val>
            <right_val>-0.5220698714256287</right_val></_></_>
        <_>
          <!-- tree 1 -->
          <_>
            <!-- root node -->
            <feature>
              <rects>
                <_>
                  6 3 8 6 -1.</_>
                <_>
                  10 3 4 3 2.</_>
                <_>
                  6 6 4 3 2.</_></rects>
              <tilted>0</tilted></feature>
            <threshold>0.0164583791047335</threshold>
            <left_val>-0.4224629104137421</left_val>
            <right_val>0.4879778027534485</right_val></_></_>
        <_>
          <!-- tree 2 -->
          <_>
            <!-- root node -->
            <feature>
              <rects>
                <_>
                  3 29 10 3 -1.</_>
                <_>
                  8 29 5 3 2.</_></rects>
              <tilted>0</tilted></feature>
            <threshold>-5.3366729989647865e-003</threshold>
            <left_val>-0.8408849835395813</left_val>
            <right_val>0.2037488967180252</right_val></_></_>
        <_>
          <!-- tree 3 -->
          <_>
            <!-- root node -->
            <feature>
              <rects>
                <_>
                  0 25 16 6 -1.</_>
                <_>
                  4 25 8 6 2.</_></rects>
              <tilted>0</tilted></feature>
            <threshold>6.1417501419782639e-003</threshold>
            <left_val>-0.5636525750160217</left_val>
            <right_val>0.2733218073844910</right_val></_></_>
        <_>
          <!-- tree 4 -->
          <_>
            <!-- root node -->
            <feature>
              <rects>
                <_>
                  3 29 6 2 -1.</_>
                <_>
                  6 29 3 2 2.</_></rects>
              <tilted>0</tilted></feature>
            <threshold>1.9448510138317943e-003</threshold>
            <left_val>0.2035222947597504</left_val>
            <right_val>-0.7403646111488342</right_val></_></_>
        <_>
          <!-- tree 5 -->
          <_>
            <!-- root node -->
            <feature>
              <rects>
                <_>
                  5 6 6 2 -1.</_>
                <_>
                  7 6 2 2 3.</_></rects>
              <tilted>0</tilted></feature>
            <threshold>0.0198875907808542</threshold>
            <left_val>-0.2809701859951019</left_val>
            <right_val>0.6078066229820252</right_val></_></_>
        <_>
          <!-- tree 6 -->
          <_>
            <!-- root node -->
            <feature>
              <rects>
                <_>
                  7 15 2 8 -1.</_>
                <_>
                  7 17 2 4 2.</_></rects>
              <tilted>0</tilted></feature>
            <threshold>4.0006660856306553e-003</threshold>
            <left_val>-0.4190354049205780</left_val>
            <right_val>0.3542233109474182</right_val></_></_>
        <_>
          <!-- tree 7 -->
          <_>
            <!-- root node -->
            <feature>
              <rects>
                <_>
                  13 28 3 1 -1.</_>
                <_>
                  14 28 1 1 3.</_></rects>
              <tilted>0</tilted></feature>
            <threshold>2.8058679890818894e-004</threshold>
            <left_val>0.1484698951244354</left_val>
            <right_val>-0.6487823128700256</right_val></_></_>
        <_>
          <!-- tree 8 -->
          <_>
            <!-- root node -->
            <feature>
              <rects>
                <_>
                  0 28 3 1 -1.</_>
                <_>
                  1 28 1 1 3.</_></rects>
              <tilted>0</tilted></feature>
            <threshold>-2.6270849048160017e-004</threshold>
            <left_val>-0.6230335235595703</left_val>
            <right_val>0.1704473048448563</right_val></_></_>
        <_>
          <!-- tree 9 -->
          <_>
            <!-- root node -->
            <feature>
              <rects>
                <_>
                  6 24 4 2 -1.</_>
                <_>
                  7 24 2 2 2.</_></rects>
              <tilted>0</tilted></feature>
            <threshold>-1.9634480122476816e-003</threshold>
            <left_val>0.5595517158508301</left_val>
            <right_val>-0.1841910928487778</right_val></_></_>
        <_>
          <!-- tree 10 -->
          <_>
            <!-- root node -->
            <feature>
              <rects>
                <_>
                  5 23 6 4 -1.</_>
                <_>
                  7 23 2 4 3.</_></rects>
              <tilted>0</tilted></feature>
            <threshold>9.5266140997409821e-003</threshold>
            <left_val>-0.2425473928451538</left_val>
            <right_val>0.4750308096408844</right_val></_></_>
        <_>
          <!-- tree 11 -->
          <_>
            <!-- root node -->
            <feature>
              <rects>
                <_>
                  1 3 14 6 -1.</_>
                <_>
                  1 6 14 3 2.</_></rects>
              <tilted>0</tilted></feature>
            <threshold>0.0101239504292607</threshold>
            <left_val>-0.4657096862792969</left_val>
            <right_val>0.2392309010028839</right_val></_></_></trees>
      <stage_threshold>-1.6307079792022705</stage_threshold>
      <parent>3</parent>
      <next>-1</next></_>
    <_>
      <!-- stage 5 -->
      <trees>
        <_>
          <!-- tree 0 -->
          <_>
            <!-- root node -->
            <feature>
              <rects>
                <_>
                  4 0 8 23 -1.</_>
                <_>
                  6 0 4 23 2.</_></rects>
              <tilted>0</tilted></feature>
            <threshold>0.0569783486425877</threshold>
            <left_val>-0.7185590863227844</left_val>
            <right_val>0.6921563148498535</right_val></_></_>
        <_>
          <!-- tree 1 -->
          <_>
            <!-- root node -->
            <feature>
              <rects>
                <_>
                  5 14 6 18 -1.</_>
                <_>
                  5 23 6 9 2.</_></rects>
              <tilted>0</tilted></feature>
            <threshold>-0.0957895070314407</threshold>
            <left_val>0.5885053873062134</left_val>
            <right_val>-0.8101546764373779</right_val></_></_>
        <_>
          <!-- tree 2 -->
          <_>
            <!-- root node -->
            <feature>
              <rects>
                <_>
                  6 11 4 8 -1.</_>
                <_>
                  6 13 4 4 2.</_></rects>
              <tilted>0</tilted></feature>
            <threshold>-1.0348079958930612e-003</threshold>
            <left_val>0.4466367959976196</left_val>
            <right_val>-0.7477055191993713</right_val></_></_>
        <_>
          <!-- tree 3 -->
          <_>
            <!-- root node -->
            <feature>
              <rects>
                <_>
                  6 3 8 6 -1.</_>
                <_>
                  10 3 4 3 2.</_>
                <_>
                  6 6 4 3 2.</_></rects>
              <tilted>0</tilted></feature>
            <threshold>0.0103444997221231</threshold>
            <left_val>-0.4877837896347046</left_val>
            <right_val>0.3702794015407562</right_val></_></_>
        <_>
          <!-- tree 4 -->
          <_>
            <!-- root node -->
            <feature>
              <rects>
                <_>
                  0 25 16 7 -1.</_>
                <_>
                  4 25 8 7 2.</_></rects>
              <tilted>0</tilted></feature>
            <threshold>2.3573329672217369e-003</threshold>
            <left_val>-0.7617502212524414</left_val>
            <right_val>0.3223051130771637</right_val></_></_>
        <_>
          <!-- tree 5 -->
          <_>
            <!-- root node -->
            <feature>
              <rects>
                <_>
                  8 27 3 2 -1.</_>
                <_>
                  8 27 3 1 2.</_></rects>
              <tilted>1</tilted></feature>
            <threshold>5.3120540542295203e-005</threshold>
            <left_val>-0.7514591813087463</left_val>
            <right_val>0.1890860050916672</right_val></_></_>
        <_>
          <!-- tree 6 -->
          <_>
            <!-- root node -->
            <feature>
              <rects>
                <_>
                  8 0 5 4 -1.</_>
                <_>
                  8 0 5 2 2.</_></rects>
              <tilted>1</tilted></feature>
            <threshold>-2.4141329340636730e-003</threshold>
            <left_val>0.3445475101470947</left_val>
            <right_val>-0.8247520923614502</right_val></_></_>
        <_>
          <!-- tree 7 -->
          <_>
            <!-- root node -->
            <feature>
              <rects>
                <_>
                  6 13 4 2 -1.</_>
                <_>
                  6 14 4 1 2.</_></rects>
              <tilted>0</tilted></feature>
            <threshold>-5.3795658459421247e-005</threshold>
            <left_val>0.2852562069892883</left_val>
            <right_val>-0.6242080926895142</right_val></_></_>
        <_>
          <!-- tree 8 -->
          <_>
            <!-- root node -->
            <feature>
              <rects>
                <_>
                  6 20 4 7 -1.</_>
                <_>
                  7 20 2 7 2.</_></rects>
              <tilted>0</tilted></feature>
            <threshold>-5.8974181301891804e-003</threshold>
            <left_val>0.7955734729766846</left_val>
            <right_val>-0.2659192085266113</right_val></_></_>
        <_>
          <!-- tree 9 -->
          <_>
            <!-- root node -->
            <feature>
              <rects>
                <_>
                  8 27 3 2 -1.</_>
                <_>
                  8 27 3 1 2.</_></rects>
              <tilted>1</tilted></feature>
            <threshold>5.5540069006383419e-003</threshold>
            <left_val>0.1361069977283478</left_val>
            <right_val>-0.6954768896102905</right_val></_></_></trees>
      <stage_threshold>-1.7277779579162598</stage_threshold>
      <parent>4</parent>
      <next>-1</next></_>
    <_>
      <!-- stage 6 -->
      <trees>
        <_>
          <!-- tree 0 -->
          <_>
            <!-- root node -->
            <feature>
              <rects>
                <_>
                  2 2 12 30 -1.</_>
                <_>
                  6 12 4 10 9.</_></rects>
              <tilted>0</tilted></feature>
            <threshold>0.8122174739837647</threshold>
            <left_val>-0.4499655067920685</left_val>
            <right_val>0.6163855195045471</right_val></_></_>
        <_>
          <!-- tree 1 -->
          <_>
            <!-- root node -->
            <feature>
              <rects>
                <_>
                  7 6 4 8 -1.</_>
                <_>
                  9 6 2 4 2.</_>
                <_>
                  7 10 2 4 2.</_></rects>
              <tilted>0</tilted></feature>
            <threshold>-0.0105953700840473</threshold>
            <left_val>0.5940346717834473</left_val>
            <right_val>-0.2756626009941101</right_val></_></_>
        <_>
          <!-- tree 2 -->
          <_>
            <!-- root node -->
            <feature>
              <rects>
                <_>
                  4 29 4 3 -1.</_>
                <_>
                  5 29 2 3 2.</_></rects>
              <tilted>0</tilted></feature>
            <threshold>-5.1896198419854045e-004</threshold>
            <left_val>-0.7325329184532166</left_val>
            <right_val>0.2219157963991165</right_val></_></_>
        <_>
          <!-- tree 3 -->
          <_>
            <!-- root node -->
            <feature>
              <rects>
                <_>
                  10 3 4 4 -1.</_>
                <_>
                  9 4 4 2 2.</_></rects>
              <tilted>1</tilted></feature>
            <threshold>0.0149939795956016</threshold>
            <left_val>-0.1343338042497635</left_val>
            <right_val>0.5339016914367676</right_val></_></_>
        <_>
          <!-- tree 4 -->
          <_>
            <!-- root node -->
            <feature>
              <rects>
                <_>
                  0 23 10 8 -1.</_>
                <_>
                  0 23 5 4 2.</_>
                <_>
                  5 27 5 4 2.</_></rects>
              <tilted>0</tilted></feature>
            <threshold>-0.0115210004150867</threshold>
            <left_val>0.3615714013576508</left_val>
            <right_val>-0.3610978126525879</right_val></_></_>
        <_>
          <!-- tree 5 -->
          <_>
            <!-- root node -->
            <feature>
              <rects>
                <_>
                  10 5 3 3 -1.</_>
                <_>
                  9 6 3 1 3.</_></rects>
              <tilted>1</tilted></feature>
            <threshold>0.0134503804147244</threshold>
            <left_val>-0.1319959014654160</left_val>
            <right_val>0.5000057816505432</right_val></_></_>
        <_>
          <!-- tree 6 -->
          <_>
            <!-- root node -->
            <feature>
              <rects>
                <_>
                  6 30 4 1 -1.</_>
                <_>
                  7 30 2 1 2.</_></rects>
              <tilted>0</tilted></feature>
            <threshold>-2.0903260156046599e-004</threshold>
            <left_val>-0.7128723859786987</left_val>
            <right_val>0.2241445928812027</right_val></_></_>
        <_>
          <!-- tree 7 -->
          <_>
            <!-- root node -->
            <feature>
              <rects>
                <_>
                  6 21 4 6 -1.</_>
                <_>
                  7 21 2 6 2.</_></rects>
              <tilted>0</tilted></feature>
            <threshold>-6.0786278918385506e-003</threshold>
            <left_val>0.6386901140213013</left_val>
            <right_val>-0.2778429090976715</right_val></_></_>
        <_>
          <!-- tree 8 -->
          <_>
            <!-- root node -->
            <feature>
              <rects>
                <_>
                  4 23 4 3 -1.</_>
                <_>
                  5 23 2 3 2.</_></rects>
              <tilted>0</tilted></feature>
            <threshold>-2.1370560862123966e-003</threshold>
            <left_val>0.5740798115730286</left_val>
            <right_val>-0.1805211007595062</right_val></_></_>
        <_>
          <!-- tree 9 -->
          <_>
            <!-- root node -->
            <feature>
              <rects>
                <_>
                  8 5 4 2 -1.</_>
                <_>
                  8 5 4 1 2.</_></rects>
              <tilted>1</tilted></feature>
            <threshold>-0.0169911198318005</threshold>
            <left_val>0.6149696111679077</left_val>
            <right_val>-0.0860854610800743</right_val></_></_>
        <_>
          <!-- tree 10 -->
          <_>
            <!-- root node -->
            <feature>
              <rects>
                <_>
                  3 31 3 1 -1.</_>
                <_>
                  4 31 1 1 3.</_></rects>
              <tilted>0</tilted></feature>
            <threshold>-2.3898910149000585e-004</threshold>
            <left_val>-0.6765167117118835</left_val>
            <right_val>0.1794261038303375</right_val></_></_>
        <_>
          <!-- tree 11 -->
          <_>
            <!-- root node -->
            <feature>
              <rects>
                <_>
                  9 7 7 4 -1.</_>
                <_>
                  8 8 7 2 2.</_></rects>
              <tilted>1</tilted></feature>
            <threshold>5.4907961748540401e-003</threshold>
            <left_val>-0.1821293979883194</left_val>
            <right_val>0.1107831001281738</right_val></_></_>
        <_>
          <!-- tree 12 -->
          <_>
            <!-- root node -->
            <feature>
              <rects>
                <_>
                  5 7 4 4 -1.</_>
                <_>
                  5 7 2 2 2.</_>
                <_>
                  7 9 2 2 2.</_></rects>
              <tilted>0</tilted></feature>
            <threshold>-3.2484240364283323e-003</threshold>
            <left_val>0.4359852075576782</left_val>
            <right_val>-0.2441556006669998</right_val></_></_>
        <_>
          <!-- tree 13 -->
          <_>
            <!-- root node -->
            <feature>
              <rects>
                <_>
                  0 6 16 26 -1.</_>
                <_>
                  0 19 16 13 2.</_></rects>
              <tilted>0</tilted></feature>
            <threshold>-0.4698629081249237</threshold>
            <left_val>0.5176085233688355</left_val>
            <right_val>-0.2360718995332718</right_val></_></_>
        <_>
          <!-- tree 14 -->
          <_>
            <!-- root node -->
            <feature>
              <rects>
                <_>
                  4 0 4 12 -1.</_>
                <_>
                  4 0 2 6 2.</_>
                <_>
                  6 6 2 6 2.</_></rects>
              <tilted>0</tilted></feature>
            <threshold>0.0198599100112915</threshold>
            <left_val>-0.2453082054853439</left_val>
            <right_val>0.4175055027008057</right_val></_></_>
        <_>
          <!-- tree 15 -->
          <_>
            <!-- root node -->
            <feature>
              <rects>
                <_>
                  9 6 2 3 -1.</_>
                <_>
                  8 7 2 1 3.</_></rects>
              <tilted>1</tilted></feature>
            <threshold>-4.2589409276843071e-003</threshold>
            <left_val>0.4639849960803986</left_val>
            <right_val>-0.0654041171073914</right_val></_></_>
        <_>
          <!-- tree 16 -->
          <_>
            <!-- root node -->
            <feature>
              <rects>
                <_>
                  4 28 8 2 -1.</_>
                <_>
                  6 28 4 2 2.</_></rects>
              <tilted>0</tilted></feature>
            <threshold>-6.3175067771226168e-004</threshold>
            <left_val>-0.5953397154808044</left_val>
            <right_val>0.1637874990701675</right_val></_></_></trees>
      <stage_threshold>-1.4649970531463623</stage_threshold>
      <parent>5</parent>
      <next>-1</next></_>
    <_>
      <!-- stage 7 -->
      <trees>
        <_>
          <!-- tree 0 -->
          <_>
            <!-- root node -->
            <feature>
              <rects>
                <_>
                  8 18 6 8 -1.</_>
                <_>
                  8 18 6 4 2.</_></rects>
              <tilted>1</tilted></feature>
            <threshold>0.0823174118995667</threshold>
            <left_val>-0.5692735910415649</left_val>
            <right_val>0.4779602885246277</right_val></_></_>
        <_>
          <!-- tree 1 -->
          <_>
            <!-- root node -->
            <feature>
              <rects>
                <_>
                  7 0 6 10 -1.</_>
                <_>
                  10 0 3 5 2.</_>
                <_>
                  7 5 3 5 2.</_></rects>
              <tilted>0</tilted></feature>
            <threshold>0.0312348194420338</threshold>
            <left_val>-0.4212825000286102</left_val>
            <right_val>0.4624890089035034</right_val></_></_>
        <_>
          <!-- tree 2 -->
          <_>
            <!-- root node -->
            <feature>
              <rects>
                <_>
                  8 27 2 3 -1.</_>
                <_>
                  8 27 1 3 2.</_></rects>
              <tilted>1</tilted></feature>
            <threshold>1.7453299733460881e-005</threshold>
            <left_val>-0.5212548971176148</left_val>
            <right_val>0.3771356940269470</right_val></_></_>
        <_>
          <!-- tree 3 -->
          <_>
            <!-- root node -->
            <feature>
              <rects>
                <_>
                  8 18 4 10 -1.</_>
                <_>
                  10 18 2 5 2.</_>
                <_>
                  8 23 2 5 2.</_></rects>
              <tilted>0</tilted></feature>
            <threshold>-7.1043791249394417e-003</threshold>
            <left_val>0.3312202990055084</left_val>
            <right_val>-0.3501558005809784</right_val></_></_>
        <_>
          <!-- tree 4 -->
          <_>
            <!-- root node -->
            <feature>
              <rects>
                <_>
                  8 5 2 5 -1.</_>
                <_>
                  8 5 1 5 2.</_></rects>
              <tilted>1</tilted></feature>
            <threshold>-0.0162770897150040</threshold>
            <left_val>0.5846152901649475</left_val>
            <right_val>-0.2441841065883637</right_val></_></_>
        <_>
          <!-- tree 5 -->
          <_>
            <!-- root node -->
            <feature>
              <rects>
                <_>
                  12 27 4 3 -1.</_>
                <_>
                  12 27 2 3 2.</_></rects>
              <tilted>0</tilted></feature>
            <threshold>1.8886830730480142e-005</threshold>
            <left_val>-0.3688654899597168</left_val>
            <right_val>0.3648569881916046</right_val></_></_>
        <_>
          <!-- tree 6 -->
          <_>
            <!-- root node -->
            <feature>
              <rects>
                <_>
                  0 27 4 3 -1.</_>
                <_>
                  2 27 2 3 2.</_></rects>
              <tilted>0</tilted></feature>
            <threshold>1.8886830730480142e-005</threshold>
            <left_val>-0.3796449899673462</left_val>
            <right_val>0.2973422110080719</right_val></_></_>
        <_>
          <!-- tree 7 -->
          <_>
            <!-- root node -->
            <feature>
              <rects>
                <_>
                  0 29 16 1 -1.</_>
                <_>
                  4 29 8 1 2.</_></rects>
              <tilted>0</tilted></feature>
            <threshold>3.4583159722387791e-003</threshold>
            <left_val>0.1876417994499207</left_val>
            <right_val>-0.6372426748275757</right_val></_></_>
        <_>
          <!-- tree 8 -->
          <_>
            <!-- root node -->
            <feature>
              <rects>
                <_>
                  6 6 3 2 -1.</_>
                <_>
                  7 6 1 2 3.</_></rects>
              <tilted>0</tilted></feature>
            <threshold>5.0018220208585262e-003</threshold>
            <left_val>-0.1992121934890747</left_val>
            <right_val>0.5149189233779907</right_val></_></_>
        <_>
          <!-- tree 9 -->
          <_>
            <!-- root node -->
            <feature>
              <rects>
                <_>
                  6 5 4 18 -1.</_>
                <_>
                  6 14 4 9 2.</_></rects>
              <tilted>0</tilted></feature>
            <threshold>-0.0639657601714134</threshold>
            <left_val>-0.8583369851112366</left_val>
            <right_val>0.1140064969658852</right_val></_></_></trees>
      <stage_threshold>-1.3415160179138184</stage_threshold>
      <parent>6</parent>
      <next>-1</next></_>
    <_>
      <!-- stage 8 -->
      <trees>
        <_>
          <!-- tree 0 -->
          <_>
            <!-- root node -->
            <feature>
              <rects>
                <_>
                  2 18 12 5 -1.</_>
                <_>
                  5 18 6 5 2.</_></rects>
              <tilted>0</tilted></feature>
            <threshold>0.0894481688737869</threshold>
            <left_val>-0.3391329050064087</left_val>
            <right_val>0.6356897950172424</right_val></_></_>
        <_>
          <!-- tree 1 -->
          <_>
            <!-- root node -->
            <feature>
              <rects>
                <_>
                  7 6 4 8 -1.</_>
                <_>
                  9 6 2 4 2.</_>
                <_>
                  7 10 2 4 2.</_></rects>
              <tilted>0</tilted></feature>
            <threshold>-0.0178772695362568</threshold>
            <left_val>0.5524377226829529</left_val>
            <right_val>-0.1732778996229172</right_val></_></_>
        <_>
          <!-- tree 2 -->
          <_>
            <!-- root node -->
            <feature>
              <rects>
                <_>
                  0 0 12 28 -1.</_>
                <_>
                  0 7 12 14 2.</_></rects>
              <tilted>0</tilted></feature>
            <threshold>0.1556794047355652</threshold>
            <left_val>-0.4500721991062164</left_val>
            <right_val>0.2934027910232544</right_val></_></_>
        <_>
          <!-- tree 3 -->
          <_>
            <!-- root node -->
            <feature>
              <rects>
                <_>
                  9 4 5 3 -1.</_>
                <_>
                  8 5 5 1 3.</_></rects>
              <tilted>1</tilted></feature>
            <threshold>0.0163067691028118</threshold>
            <left_val>-0.1452504992485046</left_val>
            <right_val>0.3886536955833435</right_val></_></_>
        <_>
          <!-- tree 4 -->
          <_>
            <!-- root node -->
            <feature>
              <rects>
                <_>
                  3 14 6 6 -1.</_>
                <_>
                  3 14 3 3 2.</_>
                <_>
                  6 17 3 3 2.</_></rects>
              <tilted>0</tilted></feature>
            <threshold>6.4495289698243141e-003</threshold>
            <left_val>-0.3219457864761353</left_val>
            <right_val>0.3355990052223206</right_val></_></_>
        <_>
          <!-- tree 5 -->
          <_>
            <!-- root node -->
            <feature>
              <rects>
                <_>
                  7 29 9 1 -1.</_>
                <_>
                  10 29 3 1 3.</_></rects>
              <tilted>0</tilted></feature>
            <threshold>-1.3753400417044759e-003</threshold>
            <left_val>-0.7688497900962830</left_val>
            <right_val>0.1135449036955833</right_val></_></_>
        <_>
          <!-- tree 6 -->
          <_>
            <!-- root node -->
            <feature>
              <rects>
                <_>
                  2 7 6 3 -1.</_>
                <_>
                  4 8 2 1 9.</_></rects>
              <tilted>0</tilted></feature>
            <threshold>-5.1237940788269043e-003</threshold>
            <left_val>0.3064745068550110</left_val>
            <right_val>-0.3808934092521668</right_val></_></_>
        <_>
          <!-- tree 7 -->
          <_>
            <!-- root node -->
            <feature>
              <rects>
                <_>
                  9 27 1 4 -1.</_>
                <_>
                  9 27 1 2 2.</_></rects>
              <tilted>1</tilted></feature>
            <threshold>4.6906290663173422e-005</threshold>
            <left_val>-0.4378868043422699</left_val>
            <right_val>0.1591984033584595</right_val></_></_>
        <_>
          <!-- tree 8 -->
          <_>
            <!-- root node -->
            <feature>
              <rects>
                <_>
                  1 29 8 1 -1.</_>
                <_>
                  3 29 4 1 2.</_></rects>
              <tilted>0</tilted></feature>
            <threshold>-5.7358137564733624e-004</threshold>
            <left_val>-0.7473638057708740</left_val>
            <right_val>0.1257870048284531</right_val></_></_>
        <_>
          <!-- tree 9 -->
          <_>
            <!-- root node -->
            <feature>
              <rects>
                <_>
                  7 7 4 1 -1.</_>
                <_>
                  8 7 2 1 2.</_></rects>
              <tilted>0</tilted></feature>
            <threshold>2.9524760320782661e-003</threshold>
            <left_val>-0.1434486061334610</left_val>
            <right_val>0.3761278092861176</right_val></_></_>
        <_>
          <!-- tree 10 -->
          <_>
            <!-- root node -->
            <feature>
              <rects>
                <_>
                  0 25 16 4 -1.</_>
                <_>
                  4 25 8 4 2.</_></rects>
              <tilted>0</tilted></feature>
            <threshold>4.9505881033837795e-003</threshold>
            <left_val>-0.4652839899063110</left_val>
            <right_val>0.2171040028333664</right_val></_></_>
        <_>
          <!-- tree 11 -->
          <_>
            <!-- root node -->
            <feature>
              <rects>
                <_>
                  8 13 2 2 -1.</_>
                <_>
                  8 14 2 1 2.</_></rects>
              <tilted>0</tilted></feature>
            <threshold>-1.5624980733264238e-005</threshold>
            <left_val>0.2049033045768738</left_val>
            <right_val>-0.4100274145603180</right_val></_></_>
        <_>
          <!-- tree 12 -->
          <_>
            <!-- root node -->
            <feature>
              <rects>
                <_>
                  5 21 6 5 -1.</_>
                <_>
                  7 21 2 5 3.</_></rects>
              <tilted>0</tilted></feature>
            <threshold>-5.8506098575890064e-003</threshold>
            <left_val>0.5493199229240418</left_val>
            <right_val>-0.2200298011302948</right_val></_></_>
        <_>
          <!-- tree 13 -->
          <_>
            <!-- root node -->
            <feature>
              <rects>
                <_>
                  8 9 2 4 -1.</_>
                <_>
                  8 9 2 2 2.</_></rects>
              <tilted>1</tilted></feature>
            <threshold>2.3315109501709230e-005</threshold>
            <left_val>-0.3278580009937286</left_val>
            <right_val>0.1567817926406860</right_val></_></_>
        <_>
          <!-- tree 14 -->
          <_>
            <!-- root node -->
            <feature>
              <rects>
                <_>
                  5 7 6 21 -1.</_>
                <_>
                  7 14 2 7 9.</_></rects>
              <tilted>0</tilted></feature>
            <threshold>2.6391150895506144e-003</threshold>
            <left_val>-0.5715559124946594</left_val>
            <right_val>0.1368405073881149</right_val></_></_>
        <_>
          <!-- tree 15 -->
          <_>
            <!-- root node -->
            <feature>
              <rects>
                <_>
                  8 10 3 4 -1.</_>
                <_>
                  8 10 3 2 2.</_></rects>
              <tilted>1</tilted></feature>
            <threshold>0.0213086009025574</threshold>
            <left_val>0.0429009310901165</left_val>
            <right_val>-0.3676395118236542</right_val></_></_>
        <_>
          <!-- tree 16 -->
          <_>
            <!-- root node -->
            <feature>
              <rects>
                <_>
                  4 30 6 2 -1.</_>
                <_>
                  6 30 2 2 3.</_></rects>
              <tilted>0</tilted></feature>
            <threshold>-1.7151819774881005e-003</threshold>
            <left_val>-0.8379300832748413</left_val>
            <right_val>0.1159344017505646</right_val></_></_>
        <_>
          <!-- tree 17 -->
          <_>
            <!-- root node -->
            <feature>
              <rects>
                <_>
                  10 7 2 4 -1.</_>
                <_>
                  11 7 1 2 2.</_>
                <_>
                  10 9 1 2 2.</_></rects>
              <tilted>0</tilted></feature>
            <threshold>2.0866289269179106e-003</threshold>
            <left_val>-0.1313095986843109</left_val>
            <right_val>0.4427691996097565</right_val></_></_>
        <_>
          <!-- tree 18 -->
          <_>
            <!-- root node -->
            <feature>
              <rects>
                <_>
                  8 7 6 2 -1.</_>
                <_>
                  8 7 3 2 2.</_></rects>
              <tilted>1</tilted></feature>
            <threshold>2.2512309442390688e-005</threshold>
            <left_val>-0.4799686968326569</left_val>
            <right_val>0.1696970015764237</right_val></_></_>
        <_>
          <!-- tree 19 -->
          <_>
            <!-- root node -->
            <feature>
              <rects>
                <_>
                  8 13 2 2 -1.</_>
                <_>
                  8 14 2 1 2.</_></rects>
              <tilted>0</tilted></feature>
            <threshold>-2.7036978863179684e-003</threshold>
            <left_val>-0.5601267218589783</left_val>
            <right_val>-4.0423017926514149e-003</right_val></_></_>
        <_>
          <!-- tree 20 -->
          <_>
            <!-- root node -->
            <feature>
              <rects>
                <_>
                  6 13 2 2 -1.</_>
                <_>
                  6 14 2 1 2.</_></rects>
              <tilted>0</tilted></feature>
            <threshold>-4.5441571273840964e-005</threshold>
            <left_val>0.2760483026504517</left_val>
            <right_val>-0.3762233853340149</right_val></_></_>
        <_>
          <!-- tree 21 -->
          <_>
            <!-- root node -->
            <feature>
              <rects>
                <_>
                  6 5 4 3 -1.</_>
                <_>
                  6 6 4 1 3.</_></rects>
              <tilted>0</tilted></feature>
            <threshold>3.1644369009882212e-003</threshold>
            <left_val>-0.2314539998769760</left_val>
            <right_val>0.4190380871295929</right_val></_></_>
        <_>
          <!-- tree 22 -->
          <_>
            <!-- root node -->
            <feature>
              <rects>
                <_>
                  8 26 1 4 -1.</_>
                <_>
                  7 27 1 2 2.</_></rects>
              <tilted>1</tilted></feature>
            <threshold>-1.0028530232375488e-004</threshold>
            <left_val>0.2363990992307663</left_val>
            <right_val>-0.3636912107467651</right_val></_></_>
        <_>
          <!-- tree 23 -->
          <_>
            <!-- root node -->
            <feature>
              <rects>
                <_>
                  10 28 2 1 -1.</_>
                <_>
                  10 28 1 1 2.</_></rects>
              <tilted>1</tilted></feature>
            <threshold>4.3396779801696539e-005</threshold>
            <left_val>-0.2857126891613007</left_val>
            <right_val>0.1683429926633835</right_val></_></_></trees>
      <stage_threshold>-1.6063649654388428</stage_threshold>
      <parent>7</parent>
      <next>-1</next></_>
    <_>
      <!-- stage 9 -->
      <trees>
        <_>
          <!-- tree 0 -->
          <_>
            <!-- root node -->
            <feature>
              <rects>
                <_>
                  2 7 12 16 -1.</_>
                <_>
                  5 7 6 16 2.</_></rects>
              <tilted>0</tilted></feature>
            <threshold>0.1971639990806580</threshold>
            <left_val>-0.4080441892147064</left_val>
            <right_val>0.4521734118461609</right_val></_></_>
        <_>
          <!-- tree 1 -->
          <_>
            <!-- root node -->
            <feature>
              <rects>
                <_>
                  7 0 4 10 -1.</_>
                <_>
                  9 0 2 5 2.</_>
                <_>
                  7 5 2 5 2.</_></rects>
              <tilted>0</tilted></feature>
            <threshold>0.0184825900942087</threshold>
            <left_val>-0.2651208043098450</left_val>
            <right_val>0.4028983116149902</right_val></_></_>
        <_>
          <!-- tree 2 -->
          <_>
            <!-- root node -->
            <feature>
              <rects>
                <_>
                  4 30 8 2 -1.</_>
                <_>
                  6 30 4 2 2.</_></rects>
              <tilted>0</tilted></feature>
            <threshold>1.7216369742527604e-003</threshold>
            <left_val>0.1573462933301926</left_val>
            <right_val>-0.7947403192520142</right_val></_></_>
        <_>
          <!-- tree 3 -->
          <_>
            <!-- root node -->
            <feature>
              <rects>
                <_>
                  0 23 16 5 -1.</_>
                <_>
                  4 23 8 5 2.</_></rects>
              <tilted>0</tilted></feature>
            <threshold>0.0222584791481495</threshold>
            <left_val>-0.4368861019611359</left_val>
            <right_val>0.2300723046064377</right_val></_></_>
        <_>
          <!-- tree 4 -->
          <_>
            <!-- root node -->
            <feature>
              <rects>
                <_>
                  4 1 6 8 -1.</_>
                <_>
                  4 1 3 4 2.</_>
                <_>
                  7 5 3 4 2.</_></rects>
              <tilted>0</tilted></feature>
            <threshold>0.0143345296382904</threshold>
            <left_val>-0.3278174102306366</left_val>
            <right_val>0.2971583902835846</right_val></_></_>
        <_>
          <!-- tree 5 -->
          <_>
            <!-- root node -->
            <feature>
              <rects>
                <_>
                  1 6 14 26 -1.</_>
                <_>
                  1 19 14 13 2.</_></rects>
              <tilted>0</tilted></feature>
            <threshold>-0.4007839858531952</threshold>
            <left_val>0.4630813896656036</left_val>
            <right_val>-0.3546268939971924</right_val></_></_>
        <_>
          <!-- tree 6 -->
          <_>
            <!-- root node -->
            <feature>
              <rects>
                <_>
                  6 9 3 12 -1.</_>
                <_>
                  6 13 3 4 3.</_></rects>
              <tilted>0</tilted></feature>
            <threshold>-1.6028929967433214e-003</threshold>
            <left_val>0.2772406935691834</left_val>
            <right_val>-0.4948504865169525</right_val></_></_>
        <_>
          <!-- tree 7 -->
          <_>
            <!-- root node -->
            <feature>
              <rects>
                <_>
                  6 22 4 4 -1.</_>
                <_>
                  7 22 2 4 2.</_></rects>
              <tilted>0</tilted></feature>
            <threshold>-3.3409888856112957e-003</threshold>
            <left_val>0.5009471774101257</left_val>
            <right_val>-0.2010540962219238</right_val></_></_>
        <_>
          <!-- tree 8 -->
          <_>
            <!-- root node -->
            <feature>
              <rects>
                <_>
                  3 0 10 30 -1.</_>
                <_>
                  3 10 10 10 3.</_></rects>
              <tilted>0</tilted></feature>
            <threshold>0.1266984939575195</threshold>
            <left_val>-0.4542866945266724</left_val>
            <right_val>0.2144910991191864</right_val></_></_>
        <_>
          <!-- tree 9 -->
          <_>
            <!-- root node -->
            <feature>
              <rects>
                <_>
                  4 30 8 2 -1.</_>
                <_>
                  6 30 4 2 2.</_></rects>
              <tilted>0</tilted></feature>
            <threshold>3.5237178963143378e-005</threshold>
            <left_val>-0.3623417019844055</left_val>
            <right_val>0.2693780064582825</right_val></_></_>
        <_>
          <!-- tree 10 -->
          <_>
            <!-- root node -->
            <feature>
              <rects>
                <_>
                  5 24 3 2 -1.</_>
                <_>
                  6 24 1 2 3.</_></rects>
              <tilted>0</tilted></feature>
            <threshold>-1.4767999527975917e-003</threshold>
            <left_val>0.5233458280563355</left_val>
            <right_val>-0.1944943964481354</right_val></_></_>
        <_>
          <!-- tree 11 -->
          <_>
            <!-- root node -->
            <feature>
              <rects>
                <_>
                  9 24 4 1 -1.</_>
                <_>
                  10 24 2 1 2.</_></rects>
              <tilted>0</tilted></feature>
            <threshold>-5.6873192079365253e-004</threshold>
            <left_val>0.2140009999275208</left_val>
            <right_val>-0.0990318134427071</right_val></_></_>
        <_>
          <!-- tree 12 -->
          <_>
            <!-- root node -->
            <feature>
              <rects>
                <_>
                  4 29 3 1 -1.</_>
                <_>
                  5 29 1 1 3.</_></rects>
              <tilted>0</tilted></feature>
            <threshold>-4.6753059723414481e-004</threshold>
            <left_val>-0.7497295737266541</left_val>
            <right_val>0.1038743034005165</right_val></_></_>
        <_>
          <!-- tree 13 -->
          <_>
            <!-- root node -->
            <feature>
              <rects>
                <_>
                  9 23 4 8 -1.</_>
                <_>
                  10 23 2 8 2.</_></rects>
              <tilted>0</tilted></feature>
            <threshold>3.1273548956960440e-003</threshold>
            <left_val>-0.1402077972888947</left_val>
            <right_val>0.3164457976818085</right_val></_></_>
        <_>
          <!-- tree 14 -->
          <_>
            <!-- root node -->
            <feature>
              <rects>
                <_>
                  3 23 4 9 -1.</_>
                <_>
                  4 23 2 9 2.</_></rects>
              <tilted>0</tilted></feature>
            <threshold>-1.1383099481463432e-003</threshold>
            <left_val>0.3125486969947815</left_val>
            <right_val>-0.2965855002403259</right_val></_></_>
        <_>
          <!-- tree 15 -->
          <_>
            <!-- root node -->
            <feature>
              <rects>
                <_>
                  3 5 10 2 -1.</_>
                <_>
                  3 6 10 1 2.</_></rects>
              <tilted>0</tilted></feature>
            <threshold>1.0872470011236146e-004</threshold>
            <left_val>-0.4231826066970825</left_val>
            <right_val>0.1785299032926559</right_val></_></_>
        <_>
          <!-- tree 16 -->
          <_>
            <!-- root node -->
            <feature>
              <rects>
                <_>
                  6 25 2 2 -1.</_>
                <_>
                  6 25 1 1 2.</_>
                <_>
                  7 26 1 1 2.</_></rects>
              <tilted>0</tilted></feature>
            <threshold>4.1774608689593151e-005</threshold>
            <left_val>-0.2634705901145935</left_val>
            <right_val>0.3036297857761383</right_val></_></_>
        <_>
          <!-- tree 17 -->
          <_>
            <!-- root node -->
            <feature>
              <rects>
                <_>
                  8 25 2 2 -1.</_>
                <_>
                  9 25 1 1 2.</_>
                <_>
                  8 26 1 1 2.</_></rects>
              <tilted>0</tilted></feature>
            <threshold>-4.4255648390389979e-005</threshold>
            <left_val>0.2053070068359375</left_val>
            <right_val>-0.1901015937328339</right_val></_></_>
        <_>
          <!-- tree 18 -->
          <_>
            <!-- root node -->
            <feature>
              <rects>
                <_>
                  3 14 3 5 -1.</_>
                <_>
                  4 14 1 5 3.</_></rects>
              <tilted>0</tilted></feature>
            <threshold>-2.0831839647144079e-003</threshold>
            <left_val>0.3655490875244141</left_val>
            <right_val>-0.2325970977544785</right_val></_></_>
        <_>
          <!-- tree 19 -->
          <_>
            <!-- root node -->
            <feature>
              <rects>
                <_>
                  11 27 2 1 -1.</_>
                <_>
                  11 27 1 1 2.</_></rects>
              <tilted>1</tilted></feature>
            <threshold>4.0034119592746720e-005</threshold>
            <left_val>-0.3426907956600189</left_val>
            <right_val>0.1800805032253265</right_val></_></_>
        <_>
          <!-- tree 20 -->
          <_>
            <!-- root node -->
            <feature>
              <rects>
                <_>
                  5 13 5 2 -1.</_>
                <_>
                  5 14 5 1 2.</_></rects>
              <tilted>0</tilted></feature>
            <threshold>-9.8777083621826023e-005</threshold>
            <left_val>0.1834113001823425</left_val>
            <right_val>-0.4305629134178162</right_val></_></_>
        <_>
          <!-- tree 21 -->
          <_>
            <!-- root node -->
            <feature>
              <rects>
                <_>
                  4 30 12 1 -1.</_>
                <_>
                  7 30 6 1 2.</_></rects>
              <tilted>0</tilted></feature>
            <threshold>2.1375590004026890e-003</threshold>
            <left_val>0.0810986310243607</left_val>
            <right_val>-0.5284289717674255</right_val></_></_>
        <_>
          <!-- tree 22 -->
          <_>
            <!-- root node -->
            <feature>
              <rects>
                <_>
                  4 31 8 1 -1.</_>
                <_>
                  8 31 4 1 2.</_></rects>
              <tilted>0</tilted></feature>
            <threshold>-1.3386979699134827e-003</threshold>
            <left_val>-0.6289274096488953</left_val>
            <right_val>0.1425748020410538</right_val></_></_>
        <_>
          <!-- tree 23 -->
          <_>
            <!-- root node -->
            <feature>
              <rects>
                <_>
                  8 7 4 1 -1.</_>
                <_>
                  9 7 2 1 2.</_></rects>
              <tilted>0</tilted></feature>
            <threshold>-5.5263412650674582e-004</threshold>
            <left_val>0.2552765011787415</left_val>
            <right_val>-0.2665716111660004</right_val></_></_>
        <_>
          <!-- tree 24 -->
          <_>
            <!-- root node -->
            <feature>
              <rects>
                <_>
                  7 5 3 7 -1.</_>
                <_>
                  8 6 1 7 3.</_></rects>
              <tilted>1</tilted></feature>
            <threshold>-0.0113279595971107</threshold>
            <left_val>0.5860918760299683</left_val>
            <right_val>-0.1460700035095215</right_val></_></_>
        <_>
          <!-- tree 25 -->
          <_>
            <!-- root node -->
            <feature>
              <rects>
                <_>
                  5 5 6 20 -1.</_>
                <_>
                  5 15 6 10 2.</_></rects>
              <tilted>0</tilted></feature>
            <threshold>-0.1009202972054482</threshold>
            <left_val>-0.6906213760375977</left_val>
            <right_val>0.1110050976276398</right_val></_></_></trees>
      <stage_threshold>-1.6219969987869263</stage_threshold>
      <parent>8</parent>
      <next>-1</next></_>
    <_>
      <!-- stage 10 -->
      <trees>
        <_>
          <!-- tree 0 -->
          <_>
            <!-- root node -->
            <feature>
              <rects>
                <_>
                  0 18 10 14 -1.</_>
                <_>
                  0 18 5 7 2.</_>
                <_>
                  5 25 5 7 2.</_></rects>
              <tilted>0</tilted></feature>
            <threshold>-0.0626145526766777</threshold>
            <left_val>0.4212926924228668</left_val>
            <right_val>-0.4150995910167694</right_val></_></_>
        <_>
          <!-- tree 1 -->
          <_>
            <!-- root node -->
            <feature>
              <rects>
                <_>
                  9 3 4 3 -1.</_>
                <_>
                  8 4 4 1 3.</_></rects>
              <tilted>1</tilted></feature>
            <threshold>-0.0109317796304822</threshold>
            <left_val>0.4953710138797760</left_val>
            <right_val>-0.1459302008152008</right_val></_></_>
        <_>
          <!-- tree 2 -->
          <_>
            <!-- root node -->
            <feature>
              <rects>
                <_>
                  5 6 4 6 -1.</_>
                <_>
                  5 6 2 3 2.</_>
                <_>
                  7 9 2 3 2.</_></rects>
              <tilted>0</tilted></feature>
            <threshold>-8.2534896209836006e-003</threshold>
            <left_val>0.5079748034477234</left_val>
            <right_val>-0.2742888927459717</right_val></_></_>
        <_>
          <!-- tree 3 -->
          <_>
            <!-- root node -->
            <feature>
              <rects>
                <_>
                  6 30 4 1 -1.</_>
                <_>
                  7 30 2 1 2.</_></rects>
              <tilted>0</tilted></feature>
            <threshold>2.7449789922684431e-004</threshold>
            <left_val>0.1368550956249237</left_val>
            <right_val>-0.6605774760246277</right_val></_></_>
        <_>
          <!-- tree 4 -->
          <_>
            <!-- root node -->
            <feature>
              <rects>
                <_>
                  5 29 6 1 -1.</_>
                <_>
                  7 29 2 1 3.</_></rects>
              <tilted>0</tilted></feature>
            <threshold>-3.5956851206719875e-004</threshold>
            <left_val>-0.6207445859909058</left_val>
            <right_val>0.1618010997772217</right_val></_></_>
        <_>
          <!-- tree 5 -->
          <_>
            <!-- root node -->
            <feature>
              <rects>
                <_>
                  7 1 6 10 -1.</_>
                <_>
                  10 1 3 5 2.</_>
                <_>
                  7 6 3 5 2.</_></rects>
              <tilted>0</tilted></feature>
            <threshold>0.0309870392084122</threshold>
            <left_val>-0.2266512960195541</left_val>
            <right_val>0.1963313966989517</right_val></_></_>
        <_>
          <!-- tree 6 -->
          <_>
            <!-- root node -->
            <feature>
              <rects>
                <_>
                  0 25 16 7 -1.</_>
                <_>
                  4 25 8 7 2.</_></rects>
              <tilted>0</tilted></feature>
            <threshold>6.9098141975700855e-003</threshold>
            <left_val>-0.4901135861873627</left_val>
            <right_val>0.1400294005870819</right_val></_></_>
        <_>
          <!-- tree 7 -->
          <_>
            <!-- root node -->
            <feature>
              <rects>
                <_>
                  5 21 6 5 -1.</_>
                <_>
                  7 21 2 5 3.</_></rects>
              <tilted>0</tilted></feature>
            <threshold>-0.0126882903277874</threshold>
            <left_val>0.5367832779884338</left_val>
            <right_val>-0.1539791971445084</right_val></_></_>
        <_>
          <!-- tree 8 -->
          <_>
            <!-- root node -->
            <feature>
              <rects>
                <_>
                  5 30 3 2 -1.</_>
                <_>
                  6 30 1 2 3.</_></rects>
              <tilted>0</tilted></feature>
            <threshold>5.0040881615132093e-004</threshold>
            <left_val>0.1336579024791718</left_val>
            <right_val>-0.7029047012329102</right_val></_></_>
        <_>
          <!-- tree 9 -->
          <_>
            <!-- root node -->
            <feature>
              <rects>
                <_>
                  6 8 4 8 -1.</_>
                <_>
                  6 12 4 4 2.</_></rects>
              <tilted>0</tilted></feature>
            <threshold>7.8119989484548569e-003</threshold>
            <left_val>0.1115543022751808</left_val>
            <right_val>-0.6096844077110291</right_val></_></_>
        <_>
          <!-- tree 10 -->
          <_>
            <!-- root node -->
            <feature>
              <rects>
                <_>
                  0 1 10 3 -1.</_>
                <_>
                  5 1 5 3 2.</_></rects>
              <tilted>0</tilted></feature>
            <threshold>0.0216923207044601</threshold>
            <left_val>0.1157426983118057</left_val>
            <right_val>-0.6221445202827454</right_val></_></_>
        <_>
          <!-- tree 11 -->
          <_>
            <!-- root node -->
            <feature>
              <rects>
                <_>
                  8 18 6 3 -1.</_>
                <_>
                  10 18 2 3 3.</_></rects>
              <tilted>0</tilted></feature>
            <threshold>-0.0197060797363520</threshold>
            <left_val>0.3595704138278961</left_val>
            <right_val>-0.1130672991275787</right_val></_></_>
        <_>
          <!-- tree 12 -->
          <_>
            <!-- root node -->
            <feature>
              <rects>
                <_>
                  5 7 5 2 -1.</_>
                <_>
                  5 8 5 1 2.</_></rects>
              <tilted>0</tilted></feature>
            <threshold>-1.3817020226269960e-003</threshold>
            <left_val>0.3847461044788361</left_val>
            <right_val>-0.1765712052583695</right_val></_></_>
        <_>
          <!-- tree 13 -->
          <_>
            <!-- root node -->
            <feature>
              <rects>
                <_>
                  3 0 10 27 -1.</_>
                <_>
                  3 9 10 9 3.</_></rects>
              <tilted>0</tilted></feature>
            <threshold>0.0766876563429832</threshold>
            <left_val>-0.4070510864257813</left_val>
            <right_val>0.1743219047784805</right_val></_></_>
        <_>
          <!-- tree 14 -->
          <_>
            <!-- root node -->
            <feature>
              <rects>
                <_>
                  8 3 3 6 -1.</_>
                <_>
                  8 3 3 3 2.</_></rects>
              <tilted>1</tilted></feature>
            <threshold>-0.0138072995468974</threshold>
            <left_val>-0.4929972887039185</left_val>
            <right_val>0.1318199932575226</right_val></_></_>
        <_>
          <!-- tree 15 -->
          <_>
            <!-- root node -->
            <feature>
              <rects>
                <_>
                  6 0 4 4 -1.</_>
                <_>
                  6 1 4 2 2.</_></rects>
              <tilted>0</tilted></feature>
            <threshold>-1.6213699709624052e-003</threshold>
            <left_val>-0.4320181906223297</left_val>
            <right_val>0.1592469960451126</right_val></_></_>
        <_>
          <!-- tree 16 -->
          <_>
            <!-- root node -->
            <feature>
              <rects>
                <_>
                  5 7 4 1 -1.</_>
                <_>
                  6 7 2 1 2.</_></rects>
              <tilted>0</tilted></feature>
            <threshold>-1.7128499457612634e-003</threshold>
            <left_val>0.4698474109172821</left_val>
            <right_val>-0.1481007039546967</right_val></_></_>
        <_>
          <!-- tree 17 -->
          <_>
            <!-- root node -->
            <feature>
              <rects>
                <_>
                  7 15 2 1 -1.</_>
                <_>
                  7 15 1 1 2.</_></rects>
              <tilted>0</tilted></feature>
            <threshold>-9.6599780954420567e-004</threshold>
            <left_val>-0.6346982717514038</left_val>
            <right_val>0.1424417942762375</right_val></_></_>
        <_>
          <!-- tree 18 -->
          <_>
            <!-- root node -->
            <feature>
              <rects>
                <_>
                  7 14 3 4 -1.</_>
                <_>
                  8 15 1 4 3.</_></rects>
              <tilted>1</tilted></feature>
            <threshold>-2.3973179049789906e-003</threshold>
            <left_val>0.2498625069856644</left_val>
            <right_val>-0.2345986962318420</right_val></_></_>
        <_>
          <!-- tree 19 -->
          <_>
            <!-- root node -->
            <feature>
              <rects>
                <_>
                  8 29 3 1 -1.</_>
                <_>
                  9 29 1 1 3.</_></rects>
              <tilted>0</tilted></feature>
            <threshold>7.6862482819706202e-004</threshold>
            <left_val>0.0496119111776352</left_val>
            <right_val>-0.7415571212768555</right_val></_></_>
        <_>
          <!-- tree 20 -->
          <_>
            <!-- root node -->
            <feature>
              <rects>
                <_>
                  5 10 6 6 -1.</_>
                <_>
                  5 12 6 2 3.</_></rects>
              <tilted>0</tilted></feature>
            <threshold>-0.0180294103920460</threshold>
            <left_val>-0.9094089269638062</left_val>
            <right_val>0.0516969785094261</right_val></_></_>
        <_>
          <!-- tree 21 -->
          <_>
            <!-- root node -->
            <feature>
              <rects>
                <_>
                  12 31 4 1 -1.</_>
                <_>
                  13 31 2 1 2.</_></rects>
              <tilted>0</tilted></feature>
            <threshold>-3.8469678838737309e-004</threshold>
            <left_val>-0.6470078229904175</left_val>
            <right_val>0.0654700472950935</right_val></_></_></trees>
      <stage_threshold>-1.3937849998474121</stage_threshold>
      <parent>9</parent>
      <next>-1</next></_>
    <_>
      <!-- stage 11 -->
      <trees>
        <_>
          <!-- tree 0 -->
          <_>
            <!-- root node -->
            <feature>
              <rects>
                <_>
                  2 18 12 2 -1.</_>
                <_>
                  6 18 4 2 3.</_></rects>
              <tilted>0</tilted></feature>
            <threshold>0.0500299893319607</threshold>
            <left_val>-0.3834826946258545</left_val>
            <right_val>0.4585799872875214</right_val></_></_>
        <_>
          <!-- tree 1 -->
          <_>
            <!-- root node -->
            <feature>
              <rects>
                <_>
                  7 0 6 10 -1.</_>
                <_>
                  10 0 3 5 2.</_>
                <_>
                  7 5 3 5 2.</_></rects>
              <tilted>0</tilted></feature>
            <threshold>0.0275357104837894</threshold>
            <left_val>-0.3001939952373505</left_val>
            <right_val>0.2584994137287140</right_val></_></_>
        <_>
          <!-- tree 2 -->
          <_>
            <!-- root node -->
            <feature>
              <rects>
                <_>
                  7 27 2 1 -1.</_>
                <_>
                  7 27 1 1 2.</_></rects>
              <tilted>1</tilted></feature>
            <threshold>4.3289041059324518e-005</threshold>
            <left_val>-0.3946039080619812</left_val>
            <right_val>0.2306122034788132</right_val></_></_>
        <_>
          <!-- tree 3 -->
          <_>
            <!-- root node -->
            <feature>
              <rects>
                <_>
                  10 31 6 1 -1.</_>
                <_>
                  12 31 2 1 3.</_></rects>
              <tilted>0</tilted></feature>
            <threshold>-6.7587348166853189e-004</threshold>
            <left_val>-0.6174641251564026</left_val>
            <right_val>0.0922997593879700</right_val></_></_>
        <_>
          <!-- tree 4 -->
          <_>
            <!-- root node -->
            <feature>
              <rects>
                <_>
                  7 3 3 3 -1.</_>
                <_>
                  8 4 1 3 3.</_></rects>
              <tilted>1</tilted></feature>
            <threshold>-8.5972463712096214e-003</threshold>
            <left_val>0.3752810060977936</left_val>
            <right_val>-0.2092746049165726</right_val></_></_>
        <_>
          <!-- tree 5 -->
          <_>
            <!-- root node -->
            <feature>
              <rects>
                <_>
                  7 23 4 4 -1.</_>
                <_>
                  8 23 2 4 2.</_></rects>
              <tilted>0</tilted></feature>
            <threshold>-4.3379380367696285e-003</threshold>
            <left_val>0.3623780906200409</left_val>
            <right_val>-0.1453526020050049</right_val></_></_>
        <_>
          <!-- tree 6 -->
          <_>
            <!-- root node -->
            <feature>
              <rects>
                <_>
                  5 23 4 4 -1.</_>
                <_>
                  6 23 2 4 2.</_></rects>
              <tilted>0</tilted></feature>
            <threshold>-4.4332188554108143e-003</threshold>
            <left_val>0.5623282194137573</left_val>
            <right_val>-0.1702806949615479</right_val></_></_>
        <_>
          <!-- tree 7 -->
          <_>
            <!-- root node -->
            <feature>
              <rects>
                <_>
                  0 4 16 28 -1.</_>
                <_>
                  0 18 16 14 2.</_></rects>
              <tilted>0</tilted></feature>
            <threshold>-0.5869941711425781</threshold>
            <left_val>0.5441018939018250</left_val>
            <right_val>-0.1211351975798607</right_val></_></_>
        <_>
          <!-- tree 8 -->
          <_>
            <!-- root node -->
            <feature>
              <rects>
                <_>
                  0 29 16 1 -1.</_>
                <_>
                  4 29 8 1 2.</_></rects>
              <tilted>0</tilted></feature>
            <threshold>5.6459761253790930e-005</threshold>
            <left_val>-0.3230603933334351</left_val>
            <right_val>0.2162546962499619</right_val></_></_>
        <_>
          <!-- tree 9 -->
          <_>
            <!-- root node -->
            <feature>
              <rects>
                <_>
                  4 29 12 1 -1.</_>
                <_>
                  7 29 6 1 2.</_></rects>
              <tilted>0</tilted></feature>
            <threshold>1.7194369575008750e-003</threshold>
            <left_val>0.0646154507994652</left_val>
            <right_val>-0.4356574118137360</right_val></_></_>
        <_>
          <!-- tree 10 -->
          <_>
            <!-- root node -->
            <feature>
              <rects>
                <_>
                  8 4 5 3 -1.</_>
                <_>
                  7 5 5 1 3.</_></rects>
              <tilted>1</tilted></feature>
            <threshold>0.0122872600331903</threshold>
            <left_val>-0.1963391005992889</left_val>
            <right_val>0.3242627084255219</right_val></_></_>
        <_>
          <!-- tree 11 -->
          <_>
            <!-- root node -->
            <feature>
              <rects>
                <_>
                  7 29 8 1 -1.</_>
                <_>
                  9 29 4 1 2.</_></rects>
              <tilted>0</tilted></feature>
            <threshold>-4.6455761184915900e-004</threshold>
            <left_val>-0.4553812146186829</left_val>
            <right_val>0.0909143611788750</right_val></_></_>
        <_>
          <!-- tree 12 -->
          <_>
            <!-- root node -->
            <feature>
              <rects>
                <_>
                  5 2 6 2 -1.</_>
                <_>
                  7 2 2 2 3.</_></rects>
              <tilted>0</tilted></feature>
            <threshold>-7.5652161613106728e-003</threshold>
            <left_val>-0.6671100258827210</left_val>
            <right_val>0.0919733121991158</right_val></_></_>
        <_>
          <!-- tree 13 -->
          <_>
            <!-- root node -->
            <feature>
              <rects>
                <_>
                  6 11 4 2 -1.</_>
                <_>
                  7 11 2 2 2.</_></rects>
              <tilted>0</tilted></feature>
            <threshold>5.8594048023223877e-003</threshold>
            <left_val>0.0931709706783295</left_val>
            <right_val>-0.5872684717178345</right_val></_></_>
        <_>
          <!-- tree 14 -->
          <_>
            <!-- root node -->
            <feature>
              <rects>
                <_>
                  4 22 3 3 -1.</_>
                <_>
                  5 22 1 3 3.</_></rects>
              <tilted>0</tilted></feature>
            <threshold>-1.5288189752027392e-003</threshold>
            <left_val>0.3152227103710175</left_val>
            <right_val>-0.1955641061067581</right_val></_></_>
        <_>
          <!-- tree 15 -->
          <_>
            <!-- root node -->
            <feature>
              <rects>
                <_>
                  7 23 3 3 -1.</_>
                <_>
                  8 23 1 3 3.</_></rects>
              <tilted>0</tilted></feature>
            <threshold>-2.8065999504178762e-003</threshold>
            <left_val>0.3066272139549255</left_val>
            <right_val>-0.0957517027854919</right_val></_></_>
        <_>
          <!-- tree 16 -->
          <_>
            <!-- root node -->
            <feature>
              <rects>
                <_>
                  6 23 3 2 -1.</_>
                <_>
                  7 23 1 2 3.</_></rects>
              <tilted>0</tilted></feature>
            <threshold>-1.4620129950344563e-003</threshold>
            <left_val>0.3907451033592224</left_val>
            <right_val>-0.1556022018194199</right_val></_></_>
        <_>
          <!-- tree 17 -->
          <_>
            <!-- root node -->
            <feature>
              <rects>
                <_>
                  5 24 6 1 -1.</_>
                <_>
                  7 24 2 1 3.</_></rects>
              <tilted>0</tilted></feature>
            <threshold>2.6346840895712376e-003</threshold>
            <left_val>-0.2180888950824738</left_val>
            <right_val>0.2827982902526856</right_val></_></_>
        <_>
          <!-- tree 18 -->
          <_>
            <!-- root node -->
            <feature>
              <rects>
                <_>
                  0 0 16 28 -1.</_>
                <_>
                  0 7 16 14 2.</_></rects>
              <tilted>0</tilted></feature>
            <threshold>0.1571698039770126</threshold>
            <left_val>-0.3887568116188049</left_val>
            <right_val>0.1732210069894791</right_val></_></_>
        <_>
          <!-- tree 19 -->
          <_>
            <!-- root node -->
            <feature>
              <rects>
                <_>
                  6 10 4 6 -1.</_>
                <_>
                  6 13 4 3 2.</_></rects>
              <tilted>0</tilted></feature>
            <threshold>8.8830702006816864e-003</threshold>
            <left_val>0.0647595971822739</left_val>
            <right_val>-0.8088721036911011</right_val></_></_>
        <_>
          <!-- tree 20 -->
          <_>
            <!-- root node -->
            <feature>
              <rects>
                <_>
                  4 24 4 8 -1.</_>
                <_>
                  4 24 2 4 2.</_>
                <_>
                  6 28 2 4 2.</_></rects>
              <tilted>0</tilted></feature>
            <threshold>4.6665789559483528e-003</threshold>
            <left_val>-0.1168792024254799</left_val>
            <right_val>0.5531026124954224</right_val></_></_>
        <_>
          <!-- tree 21 -->
          <_>
            <!-- root node -->
            <feature>
              <rects>
                <_>
                  11 28 3 2 -1.</_>
                <_>
                  12 28 1 2 3.</_></rects>
              <tilted>0</tilted></feature>
            <threshold>-4.0444379555992782e-004</threshold>
            <left_val>-0.3804048001766205</left_val>
            <right_val>0.0952900424599648</right_val></_></_>
        <_>
          <!-- tree 22 -->
          <_>
            <!-- root node -->
            <feature>
              <rects>
                <_>
                  7 13 1 6 -1.</_>
                <_>
                  7 15 1 2 3.</_></rects>
              <tilted>0</tilted></feature>
            <threshold>-1.4291650149971247e-003</threshold>
            <left_val>0.2406754046678543</left_val>
            <right_val>-0.2380518019199371</right_val></_></_>
        <_>
          <!-- tree 23 -->
          <_>
            <!-- root node -->
            <feature>
              <rects>
                <_>
                  6 6 6 21 -1.</_>
                <_>
                  8 13 2 7 9.</_></rects>
              <tilted>0</tilted></feature>
            <threshold>-0.0186461303383112</threshold>
            <left_val>-0.4668137133121491</left_val>
            <right_val>0.1059402972459793</right_val></_></_>
        <_>
          <!-- tree 24 -->
          <_>
            <!-- root node -->
            <feature>
              <rects>
                <_>
                  5 12 6 2 -1.</_>
                <_>
                  7 14 2 2 3.</_></rects>
              <tilted>1</tilted></feature>
            <threshold>-0.0269518308341503</threshold>
            <left_val>-0.7002881765365601</left_val>
            <right_val>0.0811259672045708</right_val></_></_>
        <_>
          <!-- tree 25 -->
          <_>
            <!-- root node -->
            <feature>
              <rects>
                <_>
                  9 5 1 3 -1.</_>
                <_>
                  8 6 1 1 3.</_></rects>
              <tilted>1</tilted></feature>
            <threshold>9.5894942060112953e-003</threshold>
            <left_val>-0.0879582837224007</left_val>
            <right_val>0.3649015128612518</right_val></_></_>
        <_>
          <!-- tree 26 -->
          <_>
            <!-- root node -->
            <feature>
              <rects>
                <_>
                  8 5 2 3 -1.</_>
                <_>
                  7 6 2 1 3.</_></rects>
              <tilted>1</tilted></feature>
            <threshold>-3.0569140799343586e-003</threshold>
            <left_val>0.4291273057460785</left_val>
            <right_val>-0.1399040073156357</right_val></_></_>
        <_>
          <!-- tree 27 -->
          <_>
            <!-- root node -->
            <feature>
              <rects>
                <_>
                  8 3 3 8 -1.</_>
                <_>
                  9 4 1 8 3.</_></rects>
              <tilted>1</tilted></feature>
            <threshold>0.0125783300027251</threshold>
            <left_val>-0.0554774701595306</left_val>
            <right_val>0.3541525900363922</right_val></_></_>
        <_>
          <!-- tree 28 -->
          <_>
            <!-- root node -->
            <feature>
              <rects>
                <_>
                  8 3 8 3 -1.</_>
                <_>
                  7 4 8 1 3.</_></rects>
              <tilted>1</tilted></feature>
            <threshold>-9.3413107097148895e-003</threshold>
            <left_val>0.4678640067577362</left_val>
            <right_val>-0.1261682063341141</right_val></_></_></trees>
      <stage_threshold>-1.4432359933853149</stage_threshold>
      <parent>10</parent>
      <next>-1</next></_>
    <_>
      <!-- stage 12 -->
      <trees>
        <_>
          <!-- tree 0 -->
          <_>
            <!-- root node -->
            <feature>
              <rects>
                <_>
                  2 17 12 6 -1.</_>
                <_>
                  5 17 6 6 2.</_></rects>
              <tilted>0</tilted></feature>
            <threshold>0.0923469588160515</threshold>
            <left_val>-0.3796252906322479</left_val>
            <right_val>0.4326375126838684</right_val></_></_>
        <_>
          <!-- tree 1 -->
          <_>
            <!-- root node -->
            <feature>
              <rects>
                <_>
                  7 0 4 10 -1.</_>
                <_>
                  9 0 2 5 2.</_>
                <_>
                  7 5 2 5 2.</_></rects>
              <tilted>0</tilted></feature>
            <threshold>0.0212430898100138</threshold>
            <left_val>-0.2079475969076157</left_val>
            <right_val>0.3421218097209930</right_val></_></_>
        <_>
          <!-- tree 2 -->
          <_>
            <!-- root node -->
            <feature>
              <rects>
                <_>
                  5 6 4 8 -1.</_>
                <_>
                  5 6 2 4 2.</_>
                <_>
                  7 10 2 4 2.</_></rects>
              <tilted>0</tilted></feature>
            <threshold>-0.0152574898675084</threshold>
            <left_val>0.4062423110008240</left_val>
            <right_val>-0.1732529997825623</right_val></_></_>
        <_>
          <!-- tree 3 -->
          <_>
            <!-- root node -->
            <feature>
              <rects>
                <_>
                  10 26 6 4 -1.</_>
                <_>
                  10 26 3 4 2.</_></rects>
              <tilted>0</tilted></feature>
            <threshold>5.7588229537941515e-005</threshold>
            <left_val>-0.4297196865081787</left_val>
            <right_val>0.1738553047180176</right_val></_></_>
        <_>
          <!-- tree 4 -->
          <_>
            <!-- root node -->
            <feature>
              <rects>
                <_>
                  0 26 6 4 -1.</_>
                <_>
                  3 26 3 4 2.</_></rects>
              <tilted>0</tilted></feature>
            <threshold>5.9930640418315306e-005</threshold>
            <left_val>-0.4575158953666687</left_val>
            <right_val>0.1342629045248032</right_val></_></_>
        <_>
          <!-- tree 5 -->
          <_>
            <!-- root node -->
            <feature>
              <rects>
                <_>
                  10 29 6 2 -1.</_>
                <_>
                  10 29 3 2 2.</_></rects>
              <tilted>0</tilted></feature>
            <threshold>1.5170730184763670e-003</threshold>
            <left_val>0.0882443934679031</left_val>
            <right_val>-0.5114480853080750</right_val></_></_>
        <_>
          <!-- tree 6 -->
          <_>
            <!-- root node -->
            <feature>
              <rects>
                <_>
                  6 12 4 5 -1.</_>
                <_>
                  8 12 2 5 2.</_></rects>
              <tilted>0</tilted></feature>
            <threshold>-0.0167194195091724</threshold>
            <left_val>-0.7535225152969360</left_val>
            <right_val>0.0859573930501938</right_val></_></_>
        <_>
          <!-- tree 7 -->
          <_>
            <!-- root node -->
            <feature>
              <rects>
                <_>
                  6 0 6 5 -1.</_>
                <_>
                  6 0 3 5 2.</_></rects>
              <tilted>0</tilted></feature>
            <threshold>0.0231708902865648</threshold>
            <left_val>0.0513515211641788</left_val>
            <right_val>-0.5363711118698120</right_val></_></_>
        <_>
          <!-- tree 8 -->
          <_>
            <!-- root node -->
            <feature>
              <rects>
                <_>
                  3 0 8 6 -1.</_>
                <_>
                  7 0 4 6 2.</_></rects>
              <tilted>0</tilted></feature>
            <threshold>0.0442376993596554</threshold>
            <left_val>0.0647841170430183</left_val>
            <right_val>-0.7447481751441956</right_val></_></_>
        <_>
          <!-- tree 9 -->
          <_>
            <!-- root node -->
            <feature>
              <rects>
                <_>
                  5 14 6 3 -1.</_>
                <_>
                  5 15 6 1 3.</_></rects>
              <tilted>0</tilted></feature>
            <threshold>-2.5728018954396248e-003</threshold>
            <left_val>0.2826246023178101</left_val>
            <right_val>-0.2070852071046829</right_val></_></_>
        <_>
          <!-- tree 10 -->
          <_>
            <!-- root node -->
            <feature>
              <rects>
                <_>
                  4 29 3 2 -1.</_>
                <_>
                  5 29 1 2 3.</_></rects>
              <tilted>0</tilted></feature>
            <threshold>6.1410642229020596e-004</threshold>
            <left_val>0.0663415268063545</left_val>
            <right_val>-0.7337136864662170</right_val></_></_>
        <_>
          <!-- tree 11 -->
          <_>
            <!-- root node -->
            <feature>
              <rects>
                <_>
                  8 4 6 7 -1.</_>
                <_>
                  10 4 2 7 3.</_></rects>
              <tilted>0</tilted></feature>
            <threshold>-6.8713449873030186e-003</threshold>
            <left_val>0.1105237007141113</left_val>
            <right_val>-0.2195343971252441</right_val></_></_>
        <_>
          <!-- tree 12 -->
          <_>
            <!-- root node -->
            <feature>
              <rects>
                <_>
                  4 10 8 4 -1.</_>
                <_>
                  4 11 8 2 2.</_></rects>
              <tilted>0</tilted></feature>
            <threshold>-6.6399797797203064e-003</threshold>
            <left_val>-0.7525619864463806</left_val>
            <right_val>0.0689861625432968</right_val></_></_>
        <_>
          <!-- tree 13 -->
          <_>
            <!-- root node -->
            <feature>
              <rects>
                <_>
                  12 19 3 4 -1.</_>
                <_>
                  11 20 3 2 2.</_></rects>
              <tilted>1</tilted></feature>
            <threshold>0.0170607604086399</threshold>
            <left_val>-0.0578517802059650</left_val>
            <right_val>0.5720952153205872</right_val></_></_>
        <_>
          <!-- tree 14 -->
          <_>
            <!-- root node -->
            <feature>
              <rects>
                <_>
                  4 19 4 3 -1.</_>
                <_>
                  5 20 2 3 2.</_></rects>
              <tilted>1</tilted></feature>
            <threshold>-1.9193070475012064e-003</threshold>
            <left_val>0.2139230966567993</left_val>
            <right_val>-0.2425118982791901</right_val></_></_>
        <_>
          <!-- tree 15 -->
          <_>
            <!-- root node -->
            <feature>
              <rects>
                <_>
                  9 29 3 3 -1.</_>
                <_>
                  10 29 1 3 3.</_></rects>
              <tilted>0</tilted></feature>
            <threshold>-6.3994381343945861e-004</threshold>
            <left_val>-0.6516302227973938</left_val>
            <right_val>0.0833260565996170</right_val></_></_>
        <_>
          <!-- tree 16 -->
          <_>
            <!-- root node -->
            <feature>
              <rects>
                <_>
                  5 23 3 4 -1.</_>
                <_>
                  6 23 1 4 3.</_></rects>
              <tilted>0</tilted></feature>
            <threshold>-2.1382588893175125e-003</threshold>
            <left_val>0.3120512068271637</left_val>
            <right_val>-0.1578249037265778</right_val></_></_>
        <_>
          <!-- tree 17 -->
          <_>
            <!-- root node -->
            <feature>
              <rects>
                <_>
                  7 15 2 2 -1.</_>
                <_>
                  7 15 1 2 2.</_></rects>
              <tilted>0</tilted></feature>
            <threshold>-1.9044199725612998e-003</threshold>
            <left_val>-0.6040098071098328</left_val>
            <right_val>0.0875722691416740</right_val></_></_>
        <_>
          <!-- tree 18 -->
          <_>
            <!-- root node -->
            <feature>
              <rects>
                <_>
                  6 21 3 5 -1.</_>
                <_>
                  7 21 1 5 3.</_></rects>
              <tilted>0</tilted></feature>
            <threshold>-4.3911878019571304e-003</threshold>
            <left_val>0.4099369049072266</left_val>
            <right_val>-0.1345738023519516</right_val></_></_>
        <_>
          <!-- tree 19 -->
          <_>
            <!-- root node -->
            <feature>
              <rects>
                <_>
                  9 24 4 4 -1.</_>
                <_>
                  10 24 2 4 2.</_></rects>
              <tilted>0</tilted></feature>
            <threshold>-2.0525921136140823e-003</threshold>
            <left_val>0.2518621087074280</left_val>
            <right_val>-0.1242460012435913</right_val></_></_>
        <_>
          <!-- tree 20 -->
          <_>
            <!-- root node -->
            <feature>
              <rects>
                <_>
                  0 22 15 9 -1.</_>
                <_>
                  5 25 5 3 9.</_></rects>
              <tilted>0</tilted></feature>
            <threshold>0.2337003052234650</threshold>
            <left_val>0.0752254799008369</left_val>
            <right_val>-0.6980121135711670</right_val></_></_>
        <_>
          <!-- tree 21 -->
          <_>
            <!-- root node -->
            <feature>
              <rects>
                <_>
                  6 24 6 2 -1.</_>
                <_>
                  8 24 2 2 3.</_></rects>
              <tilted>0</tilted></feature>
            <threshold>-4.2715058661997318e-003</threshold>
            <left_val>0.3906747102737427</left_val>
            <right_val>-0.1406273990869522</right_val></_></_>
        <_>
          <!-- tree 22 -->
          <_>
            <!-- root node -->
            <feature>
              <rects>
                <_>
                  8 28 1 2 -1.</_>
                <_>
                  8 28 1 1 2.</_></rects>
              <tilted>1</tilted></feature>
            <threshold>3.5293018299853429e-005</threshold>
